{"learner":{"attributes":{"scikit_learn":"{\"_estimator_type\": \"classifier\"}"},"feature_names":["purchases","time_spent","n_visits","customer_group_2","customer_group_3","customer_group_4","customer_group_5","customer_group_6","customer_group_7","customer_group_8","customer_group_9","onboarding_True"],"feature_types":["float","float","float","float","float","float","float","float","float","float","float","float"],"gradient_booster":{"model":{"gbtree_model_param":{"num_parallel_tree":"100","num_trees":"100"},"iteration_indptr":[0,100],"tree_info":[0,0,0,0,0,0,0,0,0,0,0,0,0,0,0,0,0,0,0,0,0,0,0,0,0,0,0,0,0,0,0,0,0,0,0,0,0,0,0,0,0,0,0,0,0,0,0,0,0,0,0,0,0,0,0,0,0,0,0,0,0,0,0,0,0,0,0,0,0,0,0,0,0,0,0,0,0,0,0,0,0,0,0,0,0,0,0,0,0,0,0,0,0,0,0,0,0,0,0,0],"trees":[{"base_weights":[-5.826508E-2,-1.406887E-1,2.0319517E-1,-1.7634586E0,8.6019397E-1,-1.4206445E0,1.2743835E0,-4.61204E-3,-3.627384E-3,5.49683E-1,9.137465E-1,-4.612038E-3,-2.043374E-3,8.0927926E-1,3.9945715E-3,-4.4677997E-1,3.706593E-3,-8.3947346E-2,1.4080789E0,1.0989571E-3,2.819315E-3,-1.1087648E0,3.1123369E-4,-3.8498643E-4,6.050411E-1,2.5891662E-3,1.5612442E0,-4.6120235E-3,-1.3298538E-3,3.4442144E-3,-6.7341805E-4,3.65906E-3,5.2345023E-3],"categories":[],"categories_nodes":[],"categories_segments":[],"categories_sizes":[],"default_left":[0,0,0,0,0,0,0,0,0,0,0,0,0,0,0,0,0,0,0,0,0,0,0,0,0,0,0,0,0,0,0,0,0],"id":0,"left_children":[1,3,5,7,9,11,13,-1,-1,15,17,-1,-1,19,-1,21,-1,23,25,-1,-1,27,-1,-1,29,-1,31,-1,-1,-1,-1,-1,-1],"loss_changes":[8.843325E0,5.0674817E2,1.7108311E2,3.9756775E0,3.2089233E0,1.0570061E1,9.780952E0,0E0,0E0,2.7213736E1,8.117436E1,0E0,0E0,3.15411E0,0E0,5.295879E0,0E0,2.7455153E0,5.9345703E0,0E0,0E0,2.8318048E0,0E0,0E0,3.678754E0,0E0,3.0292053E0,0E0,0E0,0E0,0E0,0E0,0E0],"parents":[2147483647,0,0,1,1,2,2,3,3,4,4,5,5,6,6,9,9,10,10,13,13,15,15,17,17,18,18,21,21,24,24,26,26],"right_children":[2,4,6,8,10,12,14,-1,-1,16,18,-1,-1,20,-1,22,-1,24,26,-1,-1,28,-1,-1,30,-1,32,-1,-1,-1,-1,-1,-1],"split_conditions":[7.2021645E-1,2.3436446E-1,2.8123736E-1,1.4061868E-1,2.7161184E-1,1.4061868E-1,5.624747E-1,-4.61204E-3,-3.627384E-3,5.156018E-1,4.2185605E-1,-4.612038E-3,-2.043374E-3,1E0,3.9945715E-3,4.6626616E-1,3.706593E-3,7.875693E-1,5.624747E-1,1.0989571E-3,2.819315E-3,1E0,3.1123369E-4,-3.8498643E-4,8.379747E-1,2.5891662E-3,7.9223305E-1,-4.6120235E-3,-1.3298538E-3,3.4442144E-3,-6.7341805E-4,3.65906E-3,5.2345023E-3],"split_indices":[0,2,2,2,0,2,2,0,0,2,2,0,0,11,0,1,0,1,2,0,0,11,0,0,1,0,1,0,0,0,0,0,0],"split_type":[0,0,0,0,0,0,0,0,0,0,0,0,0,0,0,0,0,0,0,0,0,0,0,0,0,0,0,0,0,0,0,0,0],"sum_hessian":[4.1035352E2,3.1199817E2,9.835536E1,1.1902244E2,1.9297571E2,3.9093143E1,5.926222E1,8.4162315E1,3.486013E1,2.8386105E1,1.6458961E2,2.191208E1,1.7181063E1,2.5647095E1,3.3615124E1,1.3944052E1,1.4442054E1,5.45312E1,1.1005841E2,1.2450047E1,1.3197049E1,6.474024E0,7.4700274E0,4.930218E1,5.229019E0,3.3366123E1,7.669228E1,2.73901E0,3.7350137E0,2.73901E0,2.4900093E0,6.847525E1,8.217031E0],"tree_param":{"num_deleted":"0","num_feature":"12","num_nodes":"33","size_leaf_vector":"1"}},{"base_weights":[-6.6208296E-2,-1.5359116E0,1.1047618E0,-1.8001741E0,-7.643211E-1,1.0412831E0,3.157177E-3,-4.61204E-3,-1.3847173E0,-1.1069049E0,-4.909125E-1,4.7899732E-1,1.5031072E0,-3.7816067E-3,1.9523124E-3,-3.0153007E-3,-2.3579532E-4,-6.287669E-1,1.6539393E-3,6.969043E-1,-1.5265723E-1,1.5700167E0,1.0472848E0,-3.9569527E-1,-3.627378E-3,5.030497E-4,9.4600356E-1,3.8278366E-3,-3.1928647E-1,4.016378E-3,2.4993531E-3,-1.3633579E-4,1.3751712E0,-3.6273706E-3,-5.4838485E-4,2.5556674E-3,3.1123334E-4,-2.0709927E-3,1.9115406E-4,1.7178789E-3,4.3782787E-3],"categories":[],"categories_nodes":[],"categories_segments":[],"categories_sizes":[],"default_left":[0,0,0,0,0,0,0,0,0,0,0,0,0,0,0,0,0,0,0,0,0,0,0,0,0,0,0,0,0,0,0,0,0,0,0,0,0,0,0,0,0],"id":1,"left_children":[1,3,5,7,9,11,-1,-1,13,15,17,19,21,-1,-1,-1,-1,23,-1,25,27,29,31,33,-1,-1,35,-1,37,-1,-1,-1,39,-1,-1,-1,-1,-1,-1,-1,-1],"loss_changes":[7.0835223E2,3.721582E1,2.6601868E0,4.569977E0,4.361353E0,4.4162674E1,0E0,0E0,7.6203537E0,2.5678024E0,4.1606927E0,1.0556078E1,2.8478394E0,0E0,0E0,0E0,0E0,4.5914917E0,0E0,6.9844856E0,5.617764E0,3.0539246E0,4.322137E0,3.388952E0,0E0,0E0,2.9871635E0,0E0,3.7418468E0,0E0,0E0,0E0,2.5513916E0,0E0,0E0,0E0,0E0,0E0,0E0,0E0,0E0],"parents":[2147483647,0,0,1,1,2,2,3,3,4,4,5,5,8,8,9,9,10,10,11,11,12,12,17,17,19,19,20,20,21,21,22,22,23,23,26,26,28,28,32,32],"right_children":[2,4,6,8,10,12,-1,-1,14,16,18,20,22,-1,-1,-1,-1,24,-1,26,28,30,32,34,-1,-1,36,-1,38,-1,-1,-1,40,-1,-1,-1,-1,-1,-1,-1,-1],"split_conditions":[2.8123736E-1,1.8749157E-1,6.509806E-1,1.4061868E-1,2.3436446E-1,5.624747E-1,3.157177E-3,-4.61204E-3,9.4451874E-1,1E0,1E0,5.0604844E-1,1E0,-3.7816067E-3,1.9523124E-3,-3.0153007E-3,-2.3579532E-4,8.323676E-1,1.6539393E-3,3.7498313E-1,2.7161184E-1,1E0,6.562205E-1,2.657282E-1,-3.627378E-3,5.030497E-4,1E0,3.8278366E-3,3.7498313E-1,4.016378E-3,2.4993531E-3,-1.3633579E-4,4.9591413E-1,-3.6273706E-3,-5.4838485E-4,2.5556674E-3,3.1123334E-4,-2.0709927E-3,1.9115406E-4,1.7178789E-3,4.3782787E-3],"split_indices":[2,2,1,2,2,2,0,0,0,8,5,1,9,0,0,0,0,0,0,2,0,8,2,1,0,0,10,0,2,0,0,0,0,0,0,0,0,0,0,0,0],"split_type":[0,0,0,0,0,0,0,0,0,0,0,0,0,0,0,0,0,0,0,0,0,0,0,0,0,0,0,0,0,0,0,0,0,0,0,0,0,0,0,0,0],"sum_hessian":[4.115985E2,1.8251767E2,2.2908084E2,1.359545E2,4.656317E1,1.7006763E2,5.9013218E1,1.1379342E2,2.2161081E1,2.0667076E1,2.5896095E1,7.669228E1,9.337534E1,2.0667076E1,1.4940056E0,1.8426067E1,2.2410083E0,2.3157085E1,2.73901E0,5.702121E1,1.9671072E1,8.14233E1,1.19520445E1,1.8177067E1,4.9800186E0,1.917307E1,3.784814E1,1.7430065E0,1.7928066E1,7.245927E1,8.964033E0,2.73901E0,9.213034E0,2.4900093E0,1.5687058E1,3.3864124E1,3.9840147E0,7.7190285E0,1.0209038E1,3.486013E0,5.727021E0],"tree_param":{"num_deleted":"0","num_feature":"12","num_nodes":"41","size_leaf_vector":"1"}},{"base_weights":[7.3198326E-2,3.9180055E-2,5.430181E-1,-1.4900309E0,1.1558838E0,6.637395E-1,-1.6580689E-3,-1.8036864E0,-6.7626864E-1,2.8674924E-1,1.5766205E0,-3.4536186E-3,4.205762E-3,-4.61204E-3,-3.5694626E-3,-2.7062548E-3,-4.5164216E-1,-5.0237555E-2,5.86293E-1,2.8682828E-3,4.140447E-3,-9.116918E-1,-6.927226E-3,3.593393E-3,-2.9470725E-4,2.923077E-1,9.537743E-1,-2.6813422E-3,1.0145532E-3,3.8278366E-3,-5.247932E-4,2.4774708E-3,-1.698417E-5,2.0061305E-3,5.234478E-3],"categories":[],"categories_nodes":[],"categories_segments":[],"categories_sizes":[],"default_left":[0,0,0,0,0,0,0,0,0,0,0,0,0,0,0,0,0,0,0,0,0,0,0,0,0,0,0,0,0,0,0,0,0,0,0],"id":2,"left_children":[1,3,5,7,9,11,-1,13,15,17,19,-1,-1,-1,-1,-1,21,23,25,-1,-1,27,29,-1,-1,31,33,-1,-1,-1,-1,-1,-1,-1,-1],"loss_changes":[6.5425386E0,6.5185126E2,4.068309E0,4.112021E1,8.0673706E1,5.4808895E1,0E0,3.1304626E0,4.304123E0,7.263935E0,6.7792053E0,0E0,0E0,0E0,0E0,0E0,6.011315E0,3.5914052E0,4.1157885E0,0E0,0E0,3.482666E0,4.8524313E0,0E0,0E0,4.5483627E0,2.710888E0,0E0,0E0,0E0,0E0,0E0,0E0,0E0,0E0],"parents":[2147483647,0,0,1,1,2,2,3,3,4,4,5,5,7,7,8,8,9,9,10,10,16,16,17,17,18,18,21,21,22,22,25,25,26,26],"right_children":[2,4,6,8,10,12,-1,14,16,18,20,-1,-1,-1,-1,-1,22,24,26,-1,-1,28,30,-1,-1,32,34,-1,-1,-1,-1,-1,-1,-1,-1],"split_conditions":[9.4451874E-1,2.8123736E-1,1E0,1.8749157E-1,4.6872893E-1,2.8123736E-1,-1.6580689E-3,1.4061868E-1,3.7180197E-1,1E0,5.624747E-1,-3.4536186E-3,4.205762E-3,-4.61204E-3,-3.5694626E-3,-2.7062548E-3,2.3436446E-1,2.0933054E-2,3.7498313E-1,2.8682828E-3,4.140447E-3,1E0,4.0902928E-1,3.593393E-3,-2.9470725E-4,3.83763E-1,1E0,-2.6813422E-3,1.0145532E-3,3.8278366E-3,-5.247932E-4,2.4774708E-3,-1.698417E-5,2.0061305E-3,5.234478E-3],"split_indices":[0,2,5,2,2,2,0,2,1,11,2,0,0,0,0,0,2,1,2,0,0,9,1,0,0,0,8,0,0,0,0,0,0,0,0],"split_type":[0,0,0,0,0,0,0,0,0,0,0,0,0,0,0,0,0,0,0,0,0,0,0,0,0,0,0,0,0,0,0,0,0,0,0],"sum_hessian":[4.093575E2,3.817184E2,2.7639103E1,1.6110359E2,2.2061482E2,2.5149094E1,2.4900093E0,1.1628343E2,4.4820168E1,7.1961266E1,1.4865355E2,8.466031E0,1.6683062E1,9.5118355E1,2.116508E1,1.5438057E1,2.9382109E1,3.3864124E1,3.809714E1,3.212112E1,1.1653243E2,1.4442054E1,1.4940055E1,1.4940056E0,3.237012E1,2.116508E1,1.6932062E1,1.2699047E1,1.7430065E0,1.7430065E0,1.3197049E1,6.2250233E0,1.4940055E1,1.5189056E1,1.7430065E0],"tree_param":{"num_deleted":"0","num_feature":"12","num_nodes":"35","size_leaf_vector":"1"}},{"base_weights":[5.7785567E-2,-1.6641889E0,1.0239766E0,-4.61204E-3,-2.9067711E-3,1.2108677E-1,1.4794047E0,-1.1014812E-2,5.483781E-1,1.0216054E0,1.6728679E0,-1.852305E-4,1.5420502E-3,7.59606E-1,-3.3812046E-3,9.345161E-1,4.6874676E-3,1.6111331E0,5.0806524E-3,1.3881995E-3,5.234485E-3,3.0026224E-3,7.348749E-1,1.3120044E0,4.2565973E-3,6.0083775E-4,2.3461862E-3,3.5181362E-3,6.8994536E-4],"categories":[],"categories_nodes":[],"categories_segments":[],"categories_sizes":[],"default_left":[0,0,0,0,0,0,0,0,0,0,0,0,0,0,0,0,0,0,0,0,0,0,0,0,0,0,0,0,0],"id":3,"left_children":[1,3,5,-1,-1,7,9,11,13,15,17,-1,-1,19,-1,21,-1,23,-1,-1,-1,-1,25,27,-1,-1,-1,-1,-1],"loss_changes":[6.6160016E2,1.483728E1,1.0474451E2,0E0,0E0,4.8208904E0,1.4996216E1,2.6942904E0,8.211468E0,3.8996315E0,2.9342957E0,0E0,0E0,4.835205E0,0E0,2.653885E0,0E0,3.8538208E0,0E0,0E0,0E0,0E0,2.9519491E0,3.8481941E0,0E0,0E0,0E0,0E0,0E0],"parents":[2147483647,0,0,1,1,2,2,5,5,6,6,7,7,8,8,9,9,10,10,13,13,15,15,17,17,22,22,23,23],"right_children":[2,4,6,-1,-1,8,10,12,14,16,18,-1,-1,20,-1,22,-1,24,-1,-1,-1,-1,26,28,-1,-1,-1,-1,-1],"split_conditions":[2.3436446E-1,1.4061868E-1,4.2185605E-1,-4.61204E-3,-2.9067711E-3,3.7498313E-1,5.624747E-1,1E0,1E0,9.4451874E-1,7.634426E-1,-1.852305E-4,1.5420502E-3,1E0,-3.3812046E-3,4.530037E-1,4.6874676E-3,6.562205E-1,5.0806524E-3,1.3881995E-3,5.234485E-3,3.0026224E-3,4.6872893E-1,1E0,4.2565973E-3,6.0083775E-4,2.3461862E-3,3.5181362E-3,6.8994536E-4],"split_indices":[2,2,2,0,0,2,2,5,10,0,1,0,0,7,0,1,0,2,0,0,0,0,2,9,0,0,0,0,0],"split_type":[0,0,0,0,0,0,0,0,0,0,0,0,0,0,0,0,0,0,0,0,0,0,0,0,0,0,0,0,0],"sum_hessian":[3.9765448E2,1.4292653E2,2.5472794E2,9.835536E1,4.4571163E1,8.540732E1,1.6932063E2,6.523824E1,2.0169075E1,5.0298187E1,1.1902244E2,5.926222E1,5.9760222E0,1.8177067E1,1.9920074E0,4.581617E1,4.4820166E0,1.0308638E2,1.5936059E1,1.5936059E1,2.2410083E0,1.867507E1,2.71411E1,3.0378113E1,7.270827E1,8.466031E0,1.867507E1,2.71411E1,3.237012E0],"tree_param":{"num_deleted":"0","num_feature":"12","num_nodes":"29","size_leaf_vector":"1"}},{"base_weights":[2.201727E-2,-1.4857806E0,1.1184553E0,-1.7927305E0,-7.2222346E-1,1.2394953E0,1.0151058E0,-4.61204E-3,-3.5604655E-3,-6.202308E-1,-3.253891E-3,1.1095914E0,1.6111327E0,-1.0587335E-1,1.4200668E0,-7.220893E-1,3.963559E-2,2.2256117E-1,1.3196774E0,8.799493E-1,4.6413406E-3,-1.3547394E-6,-2.9709388E-3,8.9105636E-1,1.6422904E0,-5.164065E-1,-2.8995944E-3,-8.7706834E-1,2.5490767E-3,-2.6427198E-3,4.6792606E-1,1.2463078E0,4.599241E-3,4.0760813E-3,-6.9272122E-3,1.9618304E-1,1.130953E0,2.8275717E-3,4.2674355E-3,-1.5742744E-3,1.9523168E-3,-4.6120095E-3,3.1123203E-4,4.3131356E-4,3.5934048E-3,3.3480194E-3,7.679232E-5,-2.9709288E-3,1.9523168E-3,3.4442144E-3,-1.3298544E-3,3.161549E-3,-9.195798E-4],"categories":[],"categories_nodes":[],"categories_segments":[],"categories_sizes":[],"default_left":[0,0,0,0,0,0,0,0,0,0,0,0,0,0,0,0,0,0,0,0,0,0,0,0,0,0,0,0,0,0,0,0,0,0,0,0,0,0,0,0,0,0,0,0,0,0,0,0,0,0,0,0,0],"id":4,"left_children":[1,3,5,7,9,11,13,-1,-1,15,-1,17,19,21,23,25,27,29,31,33,-1,-1,-1,35,37,39,-1,41,-1,-1,43,45,-1,-1,47,49,51,-1,-1,-1,-1,-1,-1,-1,-1,-1,-1,-1,-1,-1,-1,-1,-1],"loss_changes":[6.853974E2,4.090985E1,3.0026855E0,3.7459717E0,3.0879002E0,5.3373413E0,5.8778046E1,0E0,0E0,2.8786106E0,0E0,1.5266258E1,5.9023056E0,4.0021772E0,1.1181976E1,3.5144825E0,5.2502127E0,5.005435E0,2.702797E0,5.529923E0,0E0,0E0,0E0,4.6903877E0,3.2179413E0,4.23132E0,0E0,3.0120087E0,0E0,0E0,3.8447669E0,8.476524E0,0E0,0E0,3.6144238E0,6.4458003E0,4.993637E0,0E0,0E0,0E0,0E0,0E0,0E0,0E0,0E0,0E0,0E0,0E0,0E0,0E0,0E0,0E0,0E0],"parents":[2147483647,0,0,1,1,2,2,3,3,4,4,5,5,6,6,9,9,11,11,12,12,13,13,14,14,15,15,16,16,17,17,18,18,19,19,23,23,24,24,25,25,27,27,30,30,31,31,34,34,35,35,36,36],"right_children":[2,4,6,8,10,12,14,-1,-1,16,-1,18,20,22,24,26,28,30,32,34,-1,-1,-1,36,38,40,-1,42,-1,-1,44,46,-1,-1,48,50,52,-1,-1,-1,-1,-1,-1,-1,-1,-1,-1,-1,-1,-1,-1,-1,-1],"split_conditions":[2.8123736E-1,1.8749157E-1,4.720367E-1,1.4061868E-1,8.323676E-1,4.000873E-1,4.2185605E-1,-4.61204E-3,-3.5604655E-3,7.804371E-1,-3.253891E-3,3.7498313E-1,4.2185605E-1,1E0,5.624747E-1,5.4170936E-1,2.3436446E-1,9.4626784E-2,1E0,4.318479E-1,4.6413406E-3,-1.3547394E-6,-2.9709388E-3,5.714897E-1,5.166207E-1,5.190523E-1,-2.8995944E-3,4.9591413E-1,2.5490767E-3,-2.6427198E-3,7.2021645E-1,1E0,4.599241E-3,4.0760813E-3,4.485334E-1,5.0821215E-1,9.771636E-1,2.8275717E-3,4.2674355E-3,-1.5742744E-3,1.9523168E-3,-4.6120095E-3,3.1123203E-4,4.3131356E-4,3.5934048E-3,3.3480194E-3,7.679232E-5,-2.9709288E-3,1.9523168E-3,3.4442144E-3,-1.3298544E-3,3.161549E-3,-9.195798E-4],"split_indices":[2,2,1,2,0,1,2,0,0,1,0,2,2,9,2,1,2,1,3,1,0,0,0,1,1,1,0,0,0,0,0,10,0,0,1,1,1,0,0,0,0,0,0,0,0,0,0,0,0,0,0,0,0],"split_type":[0,0,0,0,0,0,0,0,0,0,0,0,0,0,0,0,0,0,0,0,0,0,0,0,0,0,0,0,0,0,0,0,0,0,0,0,0,0,0,0,0,0,0,0,0,0,0,0,0,0,0,0,0],"sum_hessian":[4.1458655E2,1.7454965E2,2.400369E2,1.2450046E2,5.0049187E1,1.1055641E2,1.2948048E2,9.885336E1,2.5647095E1,4.282816E1,7.221027E0,8.19213E1,2.8635105E1,3.4362125E1,9.5118355E1,3.710114E1,5.727021E0,1.5687058E1,6.6234245E1,7.9680295E0,2.0667076E1,3.1374117E1,2.9880111E0,2.8137104E1,6.698125E1,2.5647095E1,1.1454042E1,2.9880111E0,2.73901E0,2.4900093E0,1.3197049E1,5.8515217E1,7.7190285E0,4.2330155E0,3.7350137E0,7.221027E0,2.0916077E1,1.1205042E1,5.5776207E1,2.3406086E1,2.2410083E0,1.4940056E0,1.4940056E0,1.0209038E1,2.9880111E0,5.3286198E1,5.229019E0,1.4940056E0,2.2410083E0,2.73901E0,4.4820166E0,1.892407E1,1.9920074E0],"tree_param":{"num_deleted":"0","num_feature":"12","num_nodes":"53","size_leaf_vector":"1"}},{"base_weights":[-3.773169E-2,-3.7546156E-3,2.7354928E-3],"categories":[],"categories_nodes":[],"categories_segments":[],"categories_sizes":[],"default_left":[0,0,0],"id":5,"left_children":[1,-1,-1],"loss_changes":[7.0096094E2,0E0,0E0],"parents":[2147483647,0,0],"right_children":[2,-1,-1],"split_conditions":[2.8123736E-1,-3.7546156E-3,2.7354928E-3],"split_indices":[2,0,0],"split_type":[0,0,0],"sum_hessian":[4.068675E2,1.7728865E2,2.2957886E2],"tree_param":{"num_deleted":"0","num_feature":"12","num_nodes":"3","size_leaf_vector":"1"}},{"base_weights":[7.01216E-2,-1.4905534E0,1.1764026E0,-4.61204E-3,-9.467942E-1,2.1288764E-1,1.5227288E0,-3.0466907E-3,-3.2648373E-1,4.3768454E-2,5.376732E-1,2.7963147E-3,4.1231154E-3,-3.2991583E-3,-1.3049792E-1,3.5642943E-1,-1.7730501E-1,1.0495459E0,1.6631399E-1,1.2958864E-3,-8.7714184E-4,5.256976E-2,1.3819531E0,-2.0709927E-3,3.1123392E-4,1.2694077E-1,4.2967335E-3,-3.205372E-3,4.007623E-1,-3.0417493E-4,3.593393E-3,5.2344874E-3,3.1123203E-4,-1.0314733E-3,3.2651725E-3,3.2651857E-3,3.1123374E-4],"categories":[],"categories_nodes":[],"categories_segments":[],"categories_sizes":[],"default_left":[0,0,0,0,0,0,0,0,0,0,0,0,0,0,0,0,0,0,0,0,0,0,0,0,0,0,0,0,0,0,0,0,0,0,0,0,0],"id":6,"left_children":[1,3,5,-1,7,9,11,-1,13,15,17,-1,-1,-1,19,21,23,25,27,-1,-1,29,31,-1,-1,33,-1,-1,35,-1,-1,-1,-1,-1,-1,-1,-1],"loss_changes":[7.140827E2,3.6431854E1,8.0762726E1,0E0,1.3160118E1,3.514987E0,1.0815521E1,0E0,4.6252494E0,2.9086947E0,4.165238E0,0E0,0E0,0E0,2.90888E0,5.431477E0,5.005334E0,5.9749527E0,4.3875184E0,0E0,0E0,3.3559828E0,3.76502E0,0E0,0E0,2.6286676E0,0E0,0E0,2.7929633E0,0E0,0E0,0E0,0E0,0E0,0E0,0E0,0E0],"parents":[2147483647,0,0,1,1,2,2,4,4,5,5,6,6,8,8,9,9,10,10,14,14,15,15,16,16,17,17,18,18,21,21,22,22,25,25,28,28],"right_children":[2,4,6,-1,8,10,12,-1,14,16,18,-1,-1,-1,20,22,24,26,28,-1,-1,30,32,-1,-1,34,-1,-1,36,-1,-1,-1,-1,-1,-1,-1,-1],"split_conditions":[2.8123736E-1,1.4061868E-1,4.2185605E-1,-4.61204E-3,2.3436446E-1,3.7498313E-1,5.624747E-1,-3.0466907E-3,2.841924E-1,4.3037453E-1,4.270111E-1,2.7963147E-3,4.1231154E-3,-3.2991583E-3,4.400935E-1,7.2021645E-1,5.3322023E-1,1E0,4.6163255E-1,1.2958864E-3,-8.7714184E-4,4.05675E-1,8.323676E-1,-2.0709927E-3,3.1123392E-4,3.7180197E-1,4.2967335E-3,-3.205372E-3,5.30714E-1,-3.0417493E-4,3.593393E-3,5.2344874E-3,3.1123203E-4,-1.0314733E-3,3.2651725E-3,3.2651857E-3,3.1123374E-4],"split_indices":[2,2,2,0,2,2,2,0,1,1,1,0,0,0,1,0,1,11,1,0,0,1,0,0,0,1,0,0,1,0,0,0,0,0,0,0,0],"split_type":[0,0,0,0,0,0,0,0,0,0,0,0,0,0,0,0,0,0,0,0,0,0,0,0,0,0,0,0,0,0,0,0,0,0,0,0,0],"sum_hessian":[4.1359055E2,1.7156163E2,2.420289E2,9.984937E1,7.1712265E1,6.3993237E1,1.7803566E2,4.855518E1,2.3157085E1,4.2081158E1,2.191208E1,5.2290195E1,1.2574547E2,3.7350137E0,1.9422071E1,1.7430065E1,2.465109E1,9.213034E0,1.2699047E1,4.9800186E0,1.4442054E1,1.344605E1,3.9840147E0,7.7190285E0,1.6932062E1,3.9840147E0,5.229019E0,1.7430065E0,1.095604E1,1.19520445E1,1.4940056E0,2.4900093E0,1.4940056E0,2.73901E0,1.2450047E0,2.4900093E0,8.466031E0],"tree_param":{"num_deleted":"0","num_feature":"12","num_nodes":"37","size_leaf_vector":"1"}},{"base_weights":[-7.0882267E-3,-4.401237E-2,2.915332E-1,-1.538098E0,1.106934E0,-1.4409679E0,1.4412841E0,-1.8054675E0,-7.682023E-1,1.1760142E-1,1.4494565E0,-4.6120347E-3,-2.53908E-3,1.6174075E-3,5.073086E-3,-4.61204E-3,-1.4924331E0,-2.7658108E-3,-4.334377E-1,3.832845E-1,-8.8797085E-2,9.551093E-1,4.036955E-3,-4.011639E-3,-1.0314733E-3,-3.6783793E-4,-2.502062E-3,-1.9011526E-1,7.723771E-1,1.4229394E-3,-3.192865E-1,7.962824E-1,1.4210002E0,4.9357687E-4,-2.8217484E-3,2.3625963E-3,-9.195798E-4,-2.3145091E-3,-1.698417E-5,2.1332325E-3,-2.6427093E-3,4.36569E-3,7.5880176E-4],"categories":[],"categories_nodes":[],"categories_segments":[],"categories_sizes":[],"default_left":[0,0,0,0,0,0,0,0,0,0,0,0,0,0,0,0,0,0,0,0,0,0,0,0,0,0,0,0,0,0,0,0,0,0,0,0,0,0,0,0,0,0,0],"id":7,"left_children":[1,3,5,7,9,11,13,15,17,19,21,-1,-1,-1,-1,-1,23,-1,25,27,29,31,-1,-1,-1,-1,-1,33,35,-1,37,39,41,-1,-1,-1,-1,-1,-1,-1,-1,-1,-1],"loss_changes":[4.565882E0,6.337139E2,9.076731E1,3.300888E1,7.054051E1,3.2429352E0,1.3440975E1,2.8172607E0,4.9796143E0,2.9356885E0,1.5064209E1,0E0,0E0,0E0,0E0,0E0,3.5680733E0,0E0,3.5628605E0,5.2220325E0,4.646962E0,3.2612228E0,0E0,0E0,0E0,0E0,0E0,3.5584216E0,3.059842E0,0E0,4.373024E0,4.545187E0,4.4787292E0,0E0,0E0,0E0,0E0,0E0,0E0,0E0,0E0,0E0,0E0],"parents":[2147483647,0,0,1,1,2,2,3,3,4,4,5,5,6,6,7,7,8,8,9,9,10,10,16,16,18,18,19,19,20,20,21,21,27,27,28,28,30,30,31,31,32,32],"right_children":[2,4,6,8,10,12,14,16,18,20,22,-1,-1,-1,-1,-1,24,-1,26,28,30,32,-1,-1,-1,-1,-1,34,36,-1,38,40,42,-1,-1,-1,-1,-1,-1,-1,-1,-1,-1],"split_conditions":[1E0,2.8123736E-1,2.8123736E-1,1.8749157E-1,4.2185605E-1,1.4061868E-1,5.156018E-1,1.4061868E-1,2.3436446E-1,4.318479E-1,5.624747E-1,-4.6120347E-3,-2.53908E-3,1.6174075E-3,5.073086E-3,-4.61204E-3,8.43206E-1,-2.7658108E-3,7.2021645E-1,2.6292998E-1,3.83763E-1,7.2107476E-1,4.036955E-3,-4.011639E-3,-1.0314733E-3,-3.6783793E-4,-2.502062E-3,1.7184308E-1,1E0,1.4229394E-3,3.2811025E-1,6.943578E-1,9.5746696E-1,4.9357687E-4,-2.8217484E-3,2.3625963E-3,-9.195798E-4,-2.3145091E-3,-1.698417E-5,2.1332325E-3,-2.6427093E-3,4.36569E-3,7.5880176E-4],"split_indices":[3,2,2,2,2,2,2,2,2,1,2,0,0,0,0,0,1,0,0,1,0,1,0,0,0,0,0,1,10,0,2,1,1,0,0,0,0,0,0,0,0,0,0],"split_type":[0,0,0,0,0,0,0,0,0,0,0,0,0,0,0,0,0,0,0,0,0,0,0,0,0,0,0,0,0,0,0,0,0,0,0,0,0,0,0,0,0,0,0],"sum_hessian":[4.1408853E2,3.6852136E2,4.556717E1,1.603566E2,2.0816476E2,1.8177067E1,2.73901E1,1.1902244E2,4.1334152E1,5.35352E1,1.5462958E2,8.715033E0,9.462035E0,1.2201045E1,1.5189056E1,9.586536E1,2.3157085E1,1.9920074E1,2.141408E1,2.3406086E1,3.0129112E1,4.4073162E1,1.1055641E2,2.0418076E1,2.73901E0,1.4442054E1,6.972026E0,9.462035E0,1.3944052E1,7.7190285E0,2.2410084E1,3.2868122E1,1.1205042E1,6.723025E0,2.73901E0,1.19520445E1,1.9920074E0,7.4700274E0,1.4940055E1,3.1623117E1,1.2450047E0,8.466031E0,2.73901E0],"tree_param":{"num_deleted":"0","num_feature":"12","num_nodes":"43","size_leaf_vector":"1"}},{"base_weights":[-1.0959409E-2,-1.5241014E0,1.148043E0,-1.8132703E0,-6.9989246E-1,4.2320698E-1,1.4961926E0,-4.61204E-3,-3.6163202E-3,-2.7886038E-3,-3.6559314E-1,2.8792194E-1,8.947147E-1,1.4491262E0,4.646652E-3,-5.640144E-4,-2.7658052E-3,7.1515006E-1,-1.856795E-2,2.6879853E-3,-6.7341805E-4,2.8497966E-3,1.5325583E0,8.5713154E-1,-1.0314733E-3,-5.715018E-1,6.323169E-4,3.618664E-3,4.8406427E-3,2.5732776E-3,-3.9208966E-4,-3.9209024E-4,-2.9709423E-3],"categories":[],"categories_nodes":[],"categories_segments":[],"categories_sizes":[],"default_left":[0,0,0,0,0,0,0,0,0,0,0,0,0,0,0,0,0,0,0,0,0,0,0,0,0,0,0,0,0,0,0,0,0],"id":8,"left_children":[1,3,5,7,9,11,13,-1,-1,-1,15,17,19,21,-1,-1,-1,23,25,-1,-1,-1,27,29,-1,31,-1,-1,-1,-1,-1,-1,-1],"loss_changes":[7.2489166E2,4.2728973E1,5.906555E1,3.0447083E0,6.8097935E0,4.844389E0,2.9693604E0,0E0,0E0,0E0,2.7279758E0,7.727256E0,3.992013E0,3.3841858E0,0E0,0E0,0E0,3.97548E0,5.252873E0,0E0,0E0,0E0,2.7411804E0,4.288105E0,0E0,3.0182617E0,0E0,0E0,0E0,0E0,0E0,0E0,0E0],"parents":[2147483647,0,0,1,1,2,2,3,3,4,4,5,5,6,6,10,10,11,11,12,12,13,13,17,17,18,18,22,22,23,23,25,25],"right_children":[2,4,6,8,10,12,14,-1,-1,-1,16,18,20,22,-1,-1,-1,24,26,-1,-1,-1,28,30,-1,32,-1,-1,-1,-1,-1,-1,-1],"split_conditions":[2.8123736E-1,1.8749157E-1,4.6872893E-1,1.4061868E-1,2.3436446E-1,4.2185605E-1,1E0,-4.61204E-3,-3.6163202E-3,-2.7886038E-3,8.323676E-1,4.318479E-1,7.957412E-1,5.624747E-1,4.646652E-3,-5.640144E-4,-2.7658052E-3,1E0,5.495081E-1,2.6879853E-3,-6.7341805E-4,2.8497966E-3,1E0,1E0,-1.0314733E-3,4.9965042E-1,6.323169E-4,3.618664E-3,4.8406427E-3,2.5732776E-3,-3.9208966E-4,-3.9209024E-4,-2.9709423E-3],"split_indices":[2,2,2,2,2,2,3,0,0,0,0,1,1,2,0,0,0,10,1,0,0,0,7,8,0,1,0,0,0,0,0,0,0],"split_type":[0,0,0,0,0,0,0,0,0,0,0,0,0,0,0,0,0,0,0,0,0,0,0,0,0,0,0,0,0,0,0,0,0],"sum_hessian":[4.1334152E2,1.7928067E2,2.3406087E2,1.327175E2,4.656317E1,7.594528E1,1.5811559E2,1.1055641E2,2.2161081E1,2.0169075E1,2.6394098E1,5.9013218E1,1.6932062E1,1.4143253E2,1.6683062E1,2.2410084E1,3.9840147E0,2.465109E1,3.4362125E1,1.4442054E1,2.4900093E0,3.1872118E1,1.095604E2,2.191208E1,2.73901E0,1.1454042E1,2.2908085E1,9.711036E1,1.2450047E1,1.8426067E1,3.486013E0,6.972026E0,4.4820166E0],"tree_param":{"num_deleted":"0","num_feature":"12","num_nodes":"33","size_leaf_vector":"1"}},{"base_weights":[-1.5340396E-2,-1.5238453E0,1.120111E0,-4.61204E-3,-1.0165173E0,1.0650734E0,1.3758342E0,-3.1201383E-3,-4.5315474E-1,1.1147358E0,6.475398E-1,2.3262635E-1,4.2185932E-3,-6.101816E-1,1.6539393E-3,3.865994E-1,3.6555515E-3,8.905376E-2,4.179515E-3,-3.5115936E-1,2.338459E-3,1.9523124E-3,-1.7794705E-3,2.3052462E-4,7.110935E-1,-2.150396E-3,3.718218E-1,-3.3812046E-3,6.8994536E-4,2.4212075E-3,1.6204377E-4,1.9523225E-3,-1.0954125E-3],"categories":[],"categories_nodes":[],"categories_segments":[],"categories_sizes":[],"default_left":[0,0,0,0,0,0,0,0,0,0,0,0,0,0,0,0,0,0,0,0,0,0,0,0,0,0,0,0,0,0,0,0,0],"id":9,"left_children":[1,3,5,-1,7,9,11,-1,13,15,17,19,-1,21,-1,23,-1,25,-1,27,-1,-1,-1,-1,29,-1,31,-1,-1,-1,-1,-1,-1],"loss_changes":[6.922051E2,3.1454315E1,3.2451477E0,0E0,1.0345375E1,3.934372E0,1.6095627E1,0E0,3.9684935E0,4.6453156E1,1.1907701E1,3.9834757E0,0E0,3.1982536E0,0E0,5.484481E0,0E0,3.6052873E0,0E0,3.4000163E0,0E0,0E0,0E0,0E0,4.883582E0,0E0,3.5472703E0,0E0,0E0,0E0,0E0,0E0,0E0],"parents":[2147483647,0,0,1,1,2,2,4,4,5,5,6,6,8,8,9,9,10,10,11,11,13,13,15,15,17,17,19,19,24,24,26,26],"right_children":[2,4,6,-1,8,10,12,-1,14,16,18,20,-1,22,-1,24,-1,26,-1,28,-1,-1,-1,-1,30,-1,32,-1,-1,-1,-1,-1,-1],"split_conditions":[2.8123736E-1,1.4061868E-1,7.3094946E-1,-4.61204E-3,2.3436446E-1,1E0,4.2185605E-1,-3.1201383E-3,7.804371E-1,4.6872893E-1,6.562205E-1,6.080653E-1,4.2185932E-3,1.4023352E-1,1.6539393E-3,3.7498313E-1,3.6555515E-3,2.6292998E-1,4.179515E-3,7.875693E-1,2.338459E-3,1.9523124E-3,-1.7794705E-3,2.3052462E-4,5.30714E-1,-2.150396E-3,5.3973603E-1,-3.3812046E-3,6.8994536E-4,2.4212075E-3,1.6204377E-4,1.9523225E-3,-1.0954125E-3],"split_indices":[2,2,1,0,2,10,2,0,1,2,2,0,0,1,0,2,0,1,0,1,0,0,0,0,1,0,1,0,0,0,0,0,0],"split_type":[0,0,0,0,0,0,0,0,0,0,0,0,0,0,0,0,0,0,0,0,0,0,0,0,0,0,0,0,0,0,0,0,0],"sum_hessian":[4.041285E2,1.7355365E2,2.3057486E2,1.0184138E2,7.1712265E1,1.8973871E2,4.083615E1,4.930218E1,2.2410084E1,1.6956963E2,2.0169075E1,9.462035E0,3.1374117E1,1.9671072E1,2.73901E0,5.7768215E1,1.11801414E2,1.3197049E1,6.972026E0,5.229019E0,4.2330155E0,1.4940056E0,1.8177067E1,3.0378113E1,2.73901E1,2.9880111E0,1.0209038E1,1.9920074E0,3.237012E0,1.917307E1,8.217031E0,6.723025E0,3.486013E0],"tree_param":{"num_deleted":"0","num_feature":"12","num_nodes":"33","size_leaf_vector":"1"}},{"base_weights":[-3.0381026E-2,-1.5010337E0,1.1100594E0,-4.61204E-3,-2.2808781E-3,8.63553E-1,1.1787635E0,4.2094946E-2,1.3192054E0,3.4447706E-1,1.601187E0,2.2256117E-1,-3.3812046E-3,9.875224E-1,3.8669298E-3,2.868722E-1,1.2743801E0,1.2655113E0,4.137545E-3,5.5225875E-2,3.8278366E-3,1.2943962E0,-6.747909E-5,1.2026677E0,-3.629113E-5,3.1123203E-4,5.234482E-3,4.8242277E-3,1.0346777E0,-1.1181021E-3,1.6897483E-3,3.9038896E-3,-1.3298483E-3,1.447372E-3,4.249848E-3,1.1317786E-3,3.9038896E-3],"categories":[],"categories_nodes":[],"categories_segments":[],"categories_sizes":[],"default_left":[0,0,0,0,0,0,0,0,0,0,0,0,0,0,0,0,0,0,0,0,0,0,0,0,0,0,0,0,0,0,0,0,0,0,0,0,0],"id":10,"left_children":[1,3,5,-1,-1,7,9,11,13,15,17,19,-1,21,-1,23,25,27,-1,29,-1,31,-1,33,-1,-1,-1,-1,35,-1,-1,-1,-1,-1,-1,-1,-1],"loss_changes":[6.769657E2,3.823999E1,3.8501892E0,0E0,0E0,1.8546978E1,6.265596E1,4.5341973E0,2.72715E0,3.2011676E0,3.421692E0,3.5140197E0,0E0,4.343445E0,0E0,1.5546976E1,3.442299E0,3.9145164E0,0E0,4.5195293E0,0E0,5.8578835E0,0E0,4.5312767E0,0E0,0E0,0E0,0E0,5.80809E0,0E0,0E0,0E0,0E0,0E0,0E0,0E0,0E0],"parents":[2147483647,0,0,1,1,2,2,5,5,6,6,7,7,8,8,9,9,10,10,11,11,13,13,15,15,16,16,17,17,19,19,21,21,23,23,28,28],"right_children":[2,4,6,-1,-1,8,10,12,14,16,18,20,-1,22,-1,24,26,28,-1,30,-1,32,-1,34,-1,-1,-1,-1,36,-1,-1,-1,-1,-1,-1,-1,-1],"split_conditions":[2.8123736E-1,1.4061868E-1,3.147409E-1,-4.61204E-3,-2.2808781E-3,4.6872893E-1,4.6872893E-1,1E0,6.562205E-1,9.4451874E-1,5.624747E-1,1E0,-3.3812046E-3,2.4867626E-1,3.8669298E-3,4.270111E-1,5.534961E-1,4.6163255E-1,4.137545E-3,6.080653E-1,3.8278366E-3,1E0,-6.747909E-5,3.8911584E-1,-3.629113E-5,3.1123203E-4,5.234482E-3,4.8242277E-3,6.4793706E-1,-1.1181021E-3,1.6897483E-3,3.9038896E-3,-1.3298483E-3,1.447372E-3,4.249848E-3,1.1317786E-3,3.9038896E-3],"split_indices":[2,2,1,0,0,2,2,7,2,0,2,9,0,1,0,1,1,1,0,0,0,10,0,1,0,0,0,0,1,0,0,0,0,0,0,0,0],"split_type":[0,0,0,0,0,0,0,0,0,0,0,0,0,0,0,0,0,0,0,0,0,0,0,0,0,0,0,0,0,0,0,0,0,0,0,0,0],"sum_hessian":[4.036305E2,1.7629265E2,2.2733784E2,1.0582539E2,7.046726E1,4.955118E1,1.7778665E2,1.7679066E1,3.1872118E1,5.976022E1,1.18026436E2,1.5687058E1,1.9920074E0,1.3944052E1,1.7928066E1,5.6274208E1,3.486013E0,2.415309E1,9.3873344E1,1.3944052E1,1.7430065E0,1.070704E1,3.237012E0,1.3944052E1,4.233016E1,1.4940056E0,1.9920074E0,5.9760222E0,1.8177067E1,7.7190285E0,6.2250233E0,9.213034E0,1.4940056E0,6.474024E0,7.4700274E0,8.964033E0,9.213034E0],"tree_param":{"num_deleted":"0","num_feature":"12","num_nodes":"37","size_leaf_vector":"1"}},{"base_weights":[-3.0145144E-2,-3.1577298E-1,2.1861654E-2,-1.3383739E0,1.1120094E0,1.9224268E-1,-7.097054E-2,-4.240471E-3,-3.5115972E-1,5.2854556E-1,3.7817364E-3,-1.681528E0,1.1036539E0,-1.4843172E0,1.1309533E0,-6.260674E-1,1.2958837E-3,2.1250697E-3,-3.205372E-3,-4.6120384E-3,-3.004438E-3,4.0955186E-1,1.5817342E0,-4.4506206E-3,-5.6674E-1,3.8438007E-1,1.6278194E0,-3.9209006E-4,-3.7168858E-3,-3.0417478E-4,5.753347E-1,1.6706823E0,9.126883E-1,-6.6051936E-1,1.5420449E-3,3.893812E-4,7.9628223E-1,3.6959846E-3,4.9490985E-3,5.2114352E-5,2.2047998E-3,4.3275882E-3,2.4212042E-3,-1.3298515E-3,4.5311702E-3,5.2114297E-5,-2.0021107E-3,5.234482E-3,1.5218742E-3],"categories":[],"categories_nodes":[],"categories_segments":[],"categories_sizes":[],"default_left":[0,0,0,0,0,0,0,0,0,0,0,0,0,0,0,0,0,0,0,0,0,0,0,0,0,0,0,0,0,0,0,0,0,0,0,0,0,0,0,0,0,0,0,0,0,0,0,0,0],"id":11,"left_children":[1,3,5,7,9,11,13,-1,15,17,-1,19,21,23,25,27,-1,-1,-1,-1,-1,29,31,-1,33,35,37,-1,-1,-1,39,41,43,45,-1,-1,47,-1,-1,-1,-1,-1,-1,-1,-1,-1,-1,-1,-1],"loss_changes":[6.0993323E0,9.234279E1,5.494081E0,1.4230774E1,6.628517E0,2.09217E2,3.8195694E2,0E0,2.5291495E0,6.9571047E0,0E0,3.6489868E0,2.7349724E1,3.1378143E1,4.5074677E1,3.3053982E0,0E0,0E0,0E0,0E0,0E0,2.973731E0,2.904335E0,0E0,3.071271E0,4.5113072E0,3.431137E0,0E0,0E0,0E0,4.603116E0,2.7775803E0,7.7950983E0,2.7024555E0,0E0,0E0,4.0379524E0,0E0,0E0,0E0,0E0,0E0,0E0,0E0,0E0,0E0,0E0,0E0,0E0],"parents":[2147483647,0,0,1,1,2,2,3,3,4,4,5,5,6,6,8,8,9,9,11,11,12,12,13,13,14,14,15,15,21,21,22,22,24,24,25,25,26,26,30,30,31,31,32,32,33,33,36,36],"right_children":[2,4,6,8,10,12,14,-1,16,18,-1,20,22,24,26,28,-1,-1,-1,-1,-1,30,32,-1,34,36,38,-1,-1,-1,40,42,44,46,-1,-1,48,-1,-1,-1,-1,-1,-1,-1,-1,-1,-1,-1,-1],"split_conditions":[2.345584E-1,3.7498313E-1,4.6924174E-1,2.3436446E-1,6.0934764E-1,2.3436446E-1,2.8123736E-1,-4.240471E-3,7.2021645E-1,1E0,3.7817364E-3,1.4061868E-1,4.6872893E-1,1.8749157E-1,5.156018E-1,3.2811025E-1,1.2958837E-3,2.1250697E-3,-3.205372E-3,-4.6120384E-3,-3.004438E-3,2.8123736E-1,1E0,-4.4506206E-3,9.244704E-1,4.2185605E-1,8.9058495E-1,-3.9209006E-4,-3.7168858E-3,-3.0417478E-4,1E0,1E0,6.562205E-1,2.7161184E-1,1.5420449E-3,3.893812E-4,5.166207E-1,3.6959846E-3,4.9490985E-3,5.2114352E-5,2.2047998E-3,4.3275882E-3,2.4212042E-3,-1.3298515E-3,4.5311702E-3,5.2114297E-5,-2.0021107E-3,5.234482E-3,1.5218742E-3],"split_indices":[1,2,1,2,2,2,2,0,0,10,0,2,2,2,2,2,0,0,0,0,0,2,9,0,1,2,2,0,0,0,11,10,2,0,0,0,1,0,0,0,0,0,0,0,0,0,0,0,0],"split_type":[0,0,0,0,0,0,0,0,0,0,0,0,0,0,0,0,0,0,0,0,0,0,0,0,0,0,0,0,0,0,0,0,0,0,0,0,0,0,0,0,0,0,0,0,0,0,0,0,0],"sum_hessian":[4.106025E2,6.3246235E1,3.473563E2,3.6852135E1,2.6394098E1,1.2250845E2,2.2484784E2,2.6394098E1,1.0458038E1,1.1205042E1,1.5189056E1,4.008915E1,8.2419304E1,1.0333538E2,1.2151245E2,7.9680295E0,2.4900093E0,9.462035E0,1.7430065E0,2.7888103E1,1.2201045E1,3.3615124E1,4.880418E1,7.594528E1,2.73901E1,4.855518E1,7.295727E1,5.229019E0,2.73901E0,7.9680295E0,2.5647095E1,4.307716E1,5.727021E0,2.5398094E1,1.9920074E0,3.1374117E1,1.7181063E1,5.5776207E1,1.7181063E1,9.462035E0,1.618506E1,3.784814E1,5.229019E0,2.2410083E0,3.486013E0,4.7310176E0,2.0667076E1,1.9920074E0,1.5189056E1],"tree_param":{"num_deleted":"0","num_feature":"12","num_nodes":"49","size_leaf_vector":"1"}},{"base_weights":[-5.163099E-2,-1.5054421E0,1.0897521E0,-4.37233E-3,-7.3661345E-1,5.526053E-1,3.8335763E-3,-2.480312E-3,-4.587326E-1,8.206222E-1,2.770737E-1,-2.718469E-3,-2.1729161E-1,4.1380158E-1,1.0718936E0,-4.4677997E-1,5.3362954E-1,2.2805345E-3,-1.0016384E-3,-2.1503924E-3,5.4968286E-1,3.4968795E-3,8.592791E-1,-3.0616206E-1,-4.612003E-3,1.00862786E-1,9.450248E-1,4.0036696E-3,1.0352444E-3,1.628729E-3,4.5311702E-3,1.7178789E-3,-1.6846862E-3,5.84749E-4,-4.612003E-3,3.2651958E-3,1.1317786E-3],"categories":[],"categories_nodes":[],"categories_segments":[],"categories_sizes":[],"default_left":[0,0,0,0,0,0,0,0,0,0,0,0,0,0,0,0,0,0,0,0,0,0,0,0,0,0,0,0,0,0,0,0,0,0,0,0,0],"id":12,"left_children":[1,3,5,-1,7,9,-1,-1,11,13,15,-1,17,19,21,23,25,-1,-1,-1,27,-1,29,31,-1,33,35,-1,-1,-1,-1,-1,-1,-1,-1,-1,-1],"loss_changes":[6.829882E2,3.8673187E1,5.8684387E1,0E0,3.6726036E0,7.9803925E0,0E0,0E0,3.7516117E0,5.599758E0,9.895723E0,0E0,3.8247995E0,3.6687882E0,2.5513573E0,2.812325E0,7.004404E0,0E0,0E0,0E0,2.6125827E0,0E0,4.080614E0,4.870846E0,0E0,5.2301006E0,3.7706127E0,0E0,0E0,0E0,0E0,0E0,0E0,0E0,0E0,0E0,0E0],"parents":[2147483647,0,0,1,1,2,2,4,4,5,5,8,8,9,9,10,10,12,12,13,13,14,14,15,15,16,16,20,20,22,22,23,23,25,25,26,26],"right_children":[2,4,6,-1,8,10,-1,-1,12,14,16,-1,18,20,22,24,26,-1,-1,-1,28,-1,30,32,-1,34,36,-1,-1,-1,-1,-1,-1,-1,-1,-1,-1],"split_conditions":[2.8123736E-1,1.8749157E-1,5.624747E-1,-4.37233E-3,2.3436446E-1,4.981525E-1,3.8335763E-3,-2.480312E-3,3.7180197E-1,3.7498313E-1,5.746016E-1,-2.718469E-3,4.400935E-1,9.4626784E-2,4.9591413E-1,9.4451874E-1,4.2185605E-1,2.2805345E-3,-1.0016384E-3,-2.1503924E-3,1.5533912E-1,3.4968795E-3,9.4451874E-1,5.1067895E-1,-4.612003E-3,1E0,1E0,4.0036696E-3,1.0352444E-3,1.628729E-3,4.5311702E-3,1.7178789E-3,-1.6846862E-3,5.84749E-4,-4.612003E-3,3.2651958E-3,1.1317786E-3],"split_indices":[2,2,2,0,2,1,0,0,1,2,1,0,1,1,0,0,2,0,0,0,1,0,0,1,0,7,11,0,0,0,0,0,0,0,0,0,0],"split_type":[0,0,0,0,0,0,0,0,0,0,0,0,0,0,0,0,0,0,0,0,0,0,0,0,0,0,0,0,0,0,0,0,0,0,0,0,0],"sum_hessian":[4.115985E2,1.8102367E2,2.3057486E2,1.3296649E2,4.805718E1,1.080664E2,1.2250845E2,2.415309E1,2.3904089E1,5.47802E1,5.3286198E1,6.474024E0,1.7430065E1,2.0916077E1,3.3864124E1,1.3944052E1,3.9342144E1,2.4900093E0,1.4940055E1,1.9920074E0,1.892407E1,1.2699047E1,2.116508E1,1.2699047E1,1.2450047E0,1.917307E1,2.0169075E1,1.9920074E0,1.6932062E1,1.7679066E1,3.486013E0,3.486013E0,9.213034E0,1.7928066E1,1.2450047E0,1.1205042E1,8.964033E0],"tree_param":{"num_deleted":"0","num_feature":"12","num_nodes":"37","size_leaf_vector":"1"}},{"base_weights":[2.7389677E-2,5.9409708E-2,-2.094285E-1,-1.660505E0,1.0369285E0,-1.422106E0,1.1746056E0,-4.61204E-3,-2.9709481E-3,2.209808E-1,1.5602307E0,-4.6120374E-3,-1.0314757E-3,7.9628193E-1,1.4923967E0,-1.4827147E-4,6.7987525E-1,1.6227975E0,1.1309528E0,-9.195798E-4,1.0718926E0,1.2958837E-3,4.249849E-3,4.9879733E-1,3.2651944E-3,2.7281132E-3,4.337036E-3,8.498293E-1,4.3393597E-3,5.2344874E-3,1.5420502E-3,1.9523242E-3,3.1123383E-4,1.2958875E-3,3.9216247E-3],"categories":[],"categories_nodes":[],"categories_segments":[],"categories_sizes":[],"default_left":[0,0,0,0,0,0,0,0,0,0,0,0,0,0,0,0,0,0,0,0,0,0,0,0,0,0,0,0,0,0,0,0,0,0,0],"id":13,"left_children":[1,3,5,7,9,11,13,-1,-1,15,17,-1,-1,19,21,-1,23,25,27,-1,29,-1,-1,31,-1,-1,-1,33,-1,-1,-1,-1,-1,-1,-1],"loss_changes":[3.1230097E0,6.0994763E2,8.233026E1,1.301413E1,9.87715E1,1.2016838E1,2.754181E0,0E0,0E0,1.1674276E1,3.7853088E0,0E0,0E0,3.3762312E0,2.8915443E0,0E0,4.0561304E0,9.168457E0,3.2201157E0,0E0,3.9864817E0,0E0,0E0,2.9748478E0,0E0,0E0,0E0,2.9986296E0,0E0,0E0,0E0,0E0,0E0,0E0,0E0],"parents":[2147483647,0,0,1,1,2,2,3,3,4,4,5,5,6,6,9,9,10,10,13,13,14,14,16,16,17,17,18,18,20,20,23,23,27,27],"right_children":[2,4,6,8,10,12,14,-1,-1,16,18,-1,-1,20,22,-1,24,26,28,-1,30,-1,-1,32,-1,-1,-1,34,-1,-1,-1,-1,-1,-1,-1],"split_conditions":[1E0,2.3436446E-1,3.2811025E-1,1.4061868E-1,4.6872893E-1,1.8749157E-1,4.9591413E-1,-4.61204E-3,-2.9709481E-3,3.7498313E-1,1E0,-4.6120374E-3,-1.0314757E-3,4.2185605E-1,2.1373187E-1,-1.4827147E-4,7.2021645E-1,5.624747E-1,7.968392E-1,-9.195798E-4,3.7180197E-1,1.2958837E-3,4.249849E-3,4.9591413E-1,3.2651944E-3,2.7281132E-3,4.337036E-3,6.452714E-1,4.3393597E-3,5.2344874E-3,1.5420502E-3,1.9523242E-3,3.1123383E-4,1.2958875E-3,3.9216247E-3],"split_indices":[8,2,2,2,2,2,0,0,0,2,9,0,0,2,1,0,0,2,2,0,1,0,0,0,0,0,0,1,0,0,0,0,0,0,0],"split_type":[0,0,0,0,0,0,0,0,0,0,0,0,0,0,0,0,0,0,0,0,0,0,0,0,0,0,0,0,0,0,0,0,0,0,0],"sum_hessian":[4.1184753E2,3.6279434E2,4.905318E1,1.3147249E2,2.3132185E2,2.6145098E1,2.2908085E1,8.8146324E1,4.332616E1,9.038734E1,1.4093452E2,1.7928066E1,8.217031E0,1.0458038E1,1.2450047E1,5.6025208E1,3.4362125E1,1.23006454E2,1.7928066E1,1.9920074E0,8.466031E0,2.4900093E0,9.960037E0,2.68921E1,7.4700274E0,2.73901E1,9.5616356E1,1.2450047E1,5.47802E0,2.4900093E0,5.9760222E0,1.4940055E1,1.19520445E1,8.715033E0,3.7350137E0],"tree_param":{"num_deleted":"0","num_feature":"12","num_nodes":"35","size_leaf_vector":"1"}},{"base_weights":[3.605282E-2,-3.6330605E-3,1.1299108E0,3.5276753E-1,1.5331918E0,2.2619703E-1,2.1015143E-3,1.2328097E0,4.326865E-3,1.2694106E-1,6.596818E-1,1.3350208E0,3.946772E-1,3.934929E-1,-1.7128034E-1,2.8577514E-3,-1.8109295E-4,1.1994085E0,4.109186E-3,-4.612003E-3,8.4982866E-1,1.8167416E-4,2.5732762E-3,-4.612003E-3,-2.0160688E-4,3.4305593E-3,1.5146999E-3,1.088591E-3,5.2344734E-3],"categories":[],"categories_nodes":[],"categories_segments":[],"categories_sizes":[],"default_left":[0,0,0,0,0,0,0,0,0,0,0,0,0,0,0,0,0,0,0,0,0,0,0,0,0,0,0,0,0],"id":14,"left_children":[1,-1,3,5,7,9,-1,11,-1,13,15,17,19,21,23,-1,-1,25,-1,-1,27,-1,-1,-1,-1,-1,-1,-1,-1],"loss_changes":[6.8503406E2,0E0,7.5151245E1,5.229657E0,1.0981537E1,2.8176506E0,0E0,5.887352E0,0E0,4.2358E0,4.527726E0,2.8323364E0,7.737547E0,5.8958445E0,3.8292117E0,0E0,0E0,5.092476E0,0E0,0E0,3.2466187E0,0E0,0E0,0E0,0E0,0E0,0E0,0E0,0E0],"parents":[2147483647,0,0,2,2,3,3,4,4,5,5,7,7,9,9,10,10,11,11,12,12,13,13,14,14,17,17,20,20],"right_children":[2,-1,4,6,8,10,-1,12,-1,14,16,18,20,22,24,-1,-1,26,-1,-1,28,-1,-1,-1,-1,-1,-1,-1,-1],"split_conditions":[2.8123736E-1,-3.6330605E-3,4.6872893E-1,4.2185605E-1,6.562205E-1,6.883678E-1,2.1015143E-3,1E0,4.326865E-3,4.318479E-1,3.7498313E-1,6.4793706E-1,2.3175856E-1,3.7498313E-1,4.485334E-1,2.8577514E-3,-1.8109295E-4,5.0821215E-1,4.109186E-3,-4.612003E-3,7.875693E-1,1.8167416E-4,2.5732762E-3,-4.612003E-3,-2.0160688E-4,3.4305593E-3,1.5146999E-3,1.088591E-3,5.2344734E-3],"split_indices":[2,0,2,2,2,1,0,10,0,1,2,1,1,2,1,0,0,1,0,0,1,0,0,0,0,0,0,0,0],"split_type":[0,0,0,0,0,0,0,0,0,0,0,0,0,0,0,0,0,0,0,0,0,0,0,0,0,0,0,0,0],"sum_hessian":[4.125945E2,1.7280664E2,2.3978789E2,8.19213E1,1.5786658E2,6.548724E1,1.6434061E1,6.872425E1,8.914233E1,5.3286198E1,1.2201045E1,6.1254227E1,7.4700274E0,2.8137104E1,2.5149094E1,7.221027E0,4.9800186E0,4.382416E1,1.7430065E1,1.2450047E0,6.2250233E0,1.892407E1,9.213034E0,1.2450047E0,2.3904089E1,3.261912E1,1.1205042E1,4.7310176E0,1.4940056E0],"tree_param":{"num_deleted":"0","num_feature":"12","num_nodes":"29","size_leaf_vector":"1"}},{"base_weights":[-1.33253485E-2,-2.3650229E-1,6.956895E-2,-3.993657E-3,9.899643E-1,-1.4507926E0,1.1865692E0,-1.1402179E-1,3.1587488E-3,-1.7833958E0,-5.3241014E-1,1.5264732E0,1.078922E0,3.112338E-4,-3.3812046E-3,-4.6120393E-3,-1.4054981E0,-2.1907564E-3,-2.3065224E-1,7.070365E-1,1.8337616E0,1.0454632E0,5.234495E-3,-2.53908E-3,-4.3529156E-3,-8.28525E-2,-4.6120095E-3,5.234482E-3,3.9829534E-1,4.778648E-3,7.9628E-1,8.401737E-1,1.1621338E0,-4.8284206E-4,3.2651725E-3,1.8391443E-3,-2.1503924E-3,-3.9208855E-4,5.2344664E-3,2.4009685E-3,9.825889E-4,6.97373E-4,3.8470395E-3],"categories":[],"categories_nodes":[],"categories_segments":[],"categories_sizes":[],"default_left":[0,0,0,0,0,0,0,0,0,0,0,0,0,0,0,0,0,0,0,0,0,0,0,0,0,0,0,0,0,0,0,0,0,0,0,0,0,0,0,0,0,0,0],"id":15,"left_children":[1,3,5,-1,7,9,11,13,-1,15,17,19,21,-1,-1,-1,23,-1,25,27,29,31,-1,-1,-1,33,-1,-1,35,-1,37,39,41,-1,-1,-1,-1,-1,-1,-1,-1,-1,-1],"loss_changes":[7.5178747E0,1.8794563E2,5.0320865E2,0E0,1.9274998E1,3.833377E1,6.2500305E0,3.795148E0,0E0,3.401062E0,3.63593E0,1.034536E1,4.5838013E0,0E0,0E0,0E0,2.5892715E0,0E0,4.4339595E0,4.939819E0,3.5735397E0,3.0117493E0,0E0,0E0,0E0,2.6923013E0,0E0,0E0,4.133937E0,0E0,3.8247695E0,2.785038E0,2.8636986E1,0E0,0E0,0E0,0E0,0E0,0E0,0E0,0E0,0E0,0E0],"parents":[2147483647,0,0,1,1,2,2,4,4,5,5,6,6,7,7,9,9,10,10,11,11,12,12,16,16,18,18,19,19,20,20,21,21,25,25,28,28,30,30,31,31,32,32],"right_children":[2,4,6,-1,8,10,12,14,-1,16,18,20,22,-1,-1,-1,24,-1,26,28,30,32,-1,-1,-1,34,-1,-1,36,-1,38,40,42,-1,-1,-1,-1,-1,-1,-1,-1,-1,-1],"split_conditions":[3.4493604E-1,2.8123736E-1,2.8123736E-1,-3.993657E-3,3.7498313E-1,1.8749157E-1,4.5790854E-1,1E0,3.1587488E-3,1.4061868E-1,2.3436446E-1,4.2185605E-1,1E0,3.112338E-4,-3.3812046E-3,-4.6120393E-3,1E0,-2.1907564E-3,8.43206E-1,3.688376E-1,1E0,5.7920444E-1,5.234495E-3,-2.53908E-3,-4.3529156E-3,1E0,-4.6120095E-3,5.234482E-3,8.323676E-1,4.778648E-3,4.05675E-1,5.4519725E-1,4.6872893E-1,-4.8284206E-4,3.2651725E-3,1.8391443E-3,-2.1503924E-3,-3.9208855E-4,5.2344664E-3,2.4009685E-3,9.825889E-4,6.97373E-4,3.8470395E-3],"split_indices":[1,2,2,0,2,2,1,8,0,2,2,2,0,0,0,0,11,0,1,1,9,1,0,0,0,4,0,0,0,0,1,1,2,0,0,0,0,0,0,0,0,0,0],"split_type":[0,0,0,0,0,0,0,0,0,0,0,0,0,0,0,0,0,0,0,0,0,0,0,0,0,0,0,0,0,0,0,0,0,0,0,0,0,0,0,0,0,0,0],"sum_hessian":[4.063695E2,1.1005841E2,2.963111E2,5.154319E1,5.8515217E1,1.2549647E2,1.7081464E2,1.2450047E1,4.606517E1,9.213034E1,3.3366123E1,4.108515E1,1.2972948E2,1.0458038E1,1.9920074E0,7.320627E1,1.892407E1,1.5189056E1,1.8177067E1,1.1205042E1,2.988011E1,1.2574547E2,3.9840147E0,9.462035E0,9.462035E0,1.6683062E1,1.4940056E0,1.9920074E0,9.213034E0,2.68921E1,2.9880111E0,4.556717E1,8.01783E1,1.5438057E1,1.2450047E0,7.221027E0,1.9920074E0,1.7430065E0,1.2450047E0,3.461113E1,1.095604E1,2.5398094E1,5.47802E1],"tree_param":{"num_deleted":"0","num_feature":"12","num_nodes":"43","size_leaf_vector":"1"}},{"base_weights":[-4.0497668E-2,-3.2898718E-1,1.7950672E-3,-1.0651649E-3,6.050411E-1,-1.5249807E0,1.1597109E0,-3.205372E-3,3.8278475E-3,-4.61204E-3,-9.812218E-1,5.737669E-1,1.6679832E0,-1.2511148E0,-5.1197565E-1,2.974337E-1,9.3763405E-1,3.9557354E-3,5.2345037E-3,-2.423917E-3,-3.7914922E-3,-3.9365774E-1,-4.6120137E-3,7.35433E-1,2.4379192E-4,2.0670865E-3,4.140438E-3,-4.970644E-4,-3.205381E-3,-4.66124E-4,2.7204936E-3],"categories":[],"categories_nodes":[],"categories_segments":[],"categories_sizes":[],"default_left":[0,0,0,0,0,0,0,0,0,0,0,0,0,0,0,0,0,0,0,0,0,0,0,0,0,0,0,0,0,0,0],"id":16,"left_children":[1,3,5,-1,7,9,11,-1,-1,-1,13,15,17,19,21,23,25,-1,-1,-1,-1,27,-1,29,-1,-1,-1,-1,-1,-1,-1],"loss_changes":[4.918624E0,5.076897E0,6.2156696E2,0E0,9.561985E0,2.9362976E1,5.954828E1,0E0,0E0,0E0,7.5999336E0,9.338684E0,2.729065E0,2.9529648E0,3.5495043E0,4.5779924E0,2.846817E0,0E0,0E0,0E0,0E0,3.5184278E0,0E0,5.6911325E0,0E0,0E0,0E0,0E0,0E0,0E0,0E0],"parents":[2147483647,0,0,1,1,2,2,4,4,5,5,6,6,10,10,11,11,12,12,13,13,14,14,15,15,16,16,21,21,23,23],"right_children":[2,4,6,-1,8,10,12,-1,-1,-1,14,16,18,20,22,24,26,-1,-1,-1,-1,28,-1,30,-1,-1,-1,-1,-1,-1,-1],"split_conditions":[2.2479025E-1,1E0,2.8123736E-1,-1.0651649E-3,2.8123736E-1,1.4061868E-1,5.624747E-1,-3.205372E-3,3.8278475E-3,-4.61204E-3,2.3436446E-1,4.2185605E-1,1E0,1E0,1E0,4.270111E-1,1E0,3.9557354E-3,5.2345037E-3,-2.423917E-3,-3.7914922E-3,8.323676E-1,-4.6120137E-3,1E0,2.4379192E-4,2.0670865E-3,4.140438E-3,-4.970644E-4,-3.205381E-3,-4.66124E-4,2.7204936E-3],"split_indices":[1,3,2,0,2,2,2,0,0,0,2,2,3,11,3,1,10,0,0,0,0,0,0,11,0,0,0,0,0,0,0],"split_type":[0,0,0,0,0,0,0,0,0,0,0,0,0,0,0,0,0,0,0,0,0,0,0,0,0,0,0,0,0,0,0],"sum_hessian":[4.031325E2,5.154319E1,3.515893E2,4.631417E1,5.229019E0,1.5164156E2,1.9994774E2,1.7430065E0,3.486013E0,9.163234E1,6.0009224E1,9.287734E1,1.070704E2,3.809714E1,2.191208E1,5.2788197E1,4.008915E1,9.586536E1,1.1205042E1,2.0169075E1,1.7928066E1,2.0169075E1,1.7430065E0,1.6434061E1,3.6354134E1,3.5607132E1,4.4820166E0,1.6683062E1,3.486013E0,4.7310176E0,1.1703043E1],"tree_param":{"num_deleted":"0","num_feature":"12","num_nodes":"31","size_leaf_vector":"1"}},{"base_weights":[2.7533919E-2,6.405931E-2,-2.656894E-1,-1.2918451E-1,1.3654886E-1,-1.4436916E0,3.0884643E-3,-4.0103057E-3,1.1498969E0,-3.8444325E-3,1.0787388E0,-4.6120374E-3,-5.00566E-1,3.631791E-1,3.7301735E-3,3.1018453E-3,9.9003935E-1,-3.908704E-3,8.582627E-4,-1.4079536E-1,7.610534E-1,6.1462004E-2,1.6181946E0,8.582627E-4,-2.150396E-3,3.8278475E-3,7.215058E-4,-1.4611422E-3,4.0412595E-4,2.564256E-3,4.356177E-3],"categories":[],"categories_nodes":[],"categories_segments":[],"categories_sizes":[],"default_left":[0,0,0,0,0,0,0,0,0,0,0,0,0,0,0,0,0,0,0,0,0,0,0,0,0,0,0,0,0,0,0],"id":17,"left_children":[1,3,5,7,9,11,-1,-1,13,-1,15,-1,17,19,-1,-1,21,-1,-1,23,25,27,29,-1,-1,-1,-1,-1,-1,-1,-1],"loss_changes":[4.3095875E0,5.0123196E0,8.008905E1,1.8808182E2,4.1789417E2,1.0374359E1,0E0,0E0,1.5428383E1,0E0,2.770523E0,0E0,7.412535E0,3.3951945E0,0E0,0E0,6.62294E1,0E0,0E0,2.6996691E0,3.5341535E0,3.11339E0,6.1451263E0,0E0,0E0,0E0,0E0,0E0,0E0,0E0,0E0],"parents":[2147483647,0,0,1,1,2,2,3,3,4,4,5,5,8,8,10,10,12,12,13,13,16,16,19,19,20,20,21,21,22,22],"right_children":[2,4,6,8,10,12,-1,-1,14,-1,16,-1,18,20,-1,-1,22,-1,-1,24,26,28,30,-1,-1,-1,-1,-1,-1,-1,-1],"split_conditions":[1E0,3.552754E-1,3.7498313E-1,2.8123736E-1,2.3436446E-1,1.8749157E-1,3.0884643E-3,-4.0103057E-3,4.6872893E-1,-3.8444325E-3,5.020448E-1,-4.6120374E-3,3.861394E-1,2.345584E-1,3.7301735E-3,3.1018453E-3,4.6872893E-1,-3.908704E-3,8.582627E-4,1.6636944E-1,2.8750074E-1,5.377468E-1,5.624747E-1,8.582627E-4,-2.150396E-3,3.8278475E-3,7.215058E-4,-1.4611422E-3,4.0412595E-4,2.564256E-3,4.356177E-3],"split_indices":[8,1,2,2,2,2,0,0,2,0,1,0,1,1,0,0,2,0,0,1,1,1,2,0,0,0,0,0,0,0,0],"split_type":[0,0,0,0,0,0,0,0,0,0,0,0,0,0,0,0,0,0,0,0,0,0,0,0,0,0,0,0,0,0,0],"sum_hessian":[4.023855E2,3.5781433E2,4.4571163E1,9.760836E1,2.6020596E2,2.5149094E1,1.9422071E1,4.4820168E1,5.2788197E1,9.262834E1,1.6757762E2,1.7181063E1,7.9680295E0,1.6932062E1,3.5856133E1,5.40332E1,1.1354442E2,3.486013E0,4.4820166E0,7.4700274E0,9.462035E0,4.581617E1,6.772825E1,4.4820166E0,2.9880111E0,3.486013E0,5.9760222E0,6.2250233E0,3.959115E1,1.4691054E1,5.3037197E1],"tree_param":{"num_deleted":"0","num_feature":"12","num_nodes":"31","size_leaf_vector":"1"}},{"base_weights":[-4.098441E-3,-1.6732413E0,2.4170305E-3,-4.61204E-3,-1.1855664E0,-3.1018325E-3,-9.1958215E-4],"categories":[],"categories_nodes":[],"categories_segments":[],"categories_sizes":[],"default_left":[0,0,0,0,0,0,0],"id":18,"left_children":[1,3,-1,-1,5,-1,-1],"loss_changes":[6.6198706E2,1.5117889E1,0E0,0E0,2.8740425E0,0E0,0E0],"parents":[2147483647,0,0,1,1,4,4],"right_children":[2,4,-1,-1,6,-1,-1],"split_conditions":[2.3436446E-1,1.4061868E-1,2.4170305E-3,-4.61204E-3,8.819215E-1,-3.1018325E-3,-9.1958215E-4],"split_indices":[2,2,0,0,1,0,0],"split_type":[0,0,0,0,0,0,0],"sum_hessian":[4.006425E2,1.4915155E2,2.5149094E2,1.0458039E2,4.4571163E1,4.058715E1,3.9840147E0],"tree_param":{"num_deleted":"0","num_feature":"12","num_nodes":"7","size_leaf_vector":"1"}},{"base_weights":[7.676585E-3,-3.797449E-3,1.1236401E0,5.815049E-1,1.6111332E0,9.086876E-2,8.6600566E-1,1.5509764E0,5.067614E-3,-1.0204988E0,1.9256276E-1,1.096332E0,7.1066904E-1,1.7188883E0,3.3964855E-3,-4.612017E-3,3.1123203E-4,1.6643187E-4,2.9176665E-3,3.0897143E-3,-1.6984137E-5,4.5870155E-1,1.2190238E0,8.992569E-1,4.480945E-3,9.3783234E-4,5.2344664E-3,4.531177E-3,1.4996085E-3,1.088591E-3,5.234478E-3],"categories":[],"categories_nodes":[],"categories_segments":[],"categories_sizes":[],"default_left":[0,0,0,0,0,0,0,0,0,0,0,0,0,0,0,0,0,0,0,0,0,0,0,0,0,0,0,0,0,0,0],"id":19,"left_children":[1,-1,3,5,7,9,11,13,-1,15,17,19,21,23,-1,-1,-1,-1,-1,-1,-1,25,27,29,-1,-1,-1,-1,-1,-1,-1],"loss_changes":[7.1365625E2,0E0,6.324124E1,1.5814499E1,3.4543762E0,4.699706E0,2.5657196E0,3.096283E0,0E0,3.4423032E0,4.737875E0,5.221363E0,5.4858074E0,4.926117E0,0E0,0E0,0E0,0E0,0E0,0E0,0E0,3.6572585E0,5.4230824E0,3.642046E0,0E0,0E0,0E0,0E0,0E0,0E0,0E0],"parents":[2147483647,0,0,2,2,3,3,4,4,5,5,6,6,7,7,9,9,10,10,11,11,12,12,13,13,21,21,22,22,23,23],"right_children":[2,-1,4,6,8,10,12,14,-1,16,18,20,22,24,-1,-1,-1,-1,-1,-1,-1,26,28,30,-1,-1,-1,-1,-1,-1,-1],"split_conditions":[2.8123736E-1,-3.797449E-3,5.624747E-1,3.7498313E-1,1E0,1.2697405E-1,4.5790854E-1,1E0,5.067614E-3,1E0,1E0,1E0,7.2107476E-1,2.3175856E-1,3.3964855E-3,-4.612017E-3,3.1123203E-4,1.6643187E-4,2.9176665E-3,3.0897143E-3,-1.6984137E-5,1E0,1E0,7.968392E-1,4.480945E-3,9.3783234E-4,5.2344664E-3,4.531177E-3,1.4996085E-3,1.088591E-3,5.234478E-3],"split_indices":[2,0,2,2,3,1,1,11,0,11,7,10,1,1,0,0,0,0,0,0,0,0,11,2,0,0,0,0,0,0,0],"split_type":[0,0,0,0,0,0,0,0,0,0,0,0,0,0,0,0,0,0,0,0,0,0,0,0,0,0,0,0,0,0,0],"sum_hessian":[4.1085153E2,1.7156163E2,2.3928989E2,1.1329542E2,1.2599447E2,4.1583153E1,7.1712265E1,1.1130341E2,1.4691054E1,3.486013E0,3.809714E1,2.8884108E1,4.282816E1,5.5278206E1,5.6025208E1,1.9920074E0,1.4940056E0,3.3864124E1,4.2330155E0,2.5149094E1,3.7350137E0,2.8635105E1,1.4193052E1,6.474024E0,4.880418E1,2.73901E1,1.2450047E0,6.972026E0,7.221027E0,4.7310176E0,1.7430065E0],"tree_param":{"num_deleted":"0","num_feature":"12","num_nodes":"31","size_leaf_vector":"1"}},{"base_weights":[-3.2816086E-2,-1.5089185E0,1.1386681E0,-1.7906659E0,-1.7617231E-3,3.3126637E-1,1.5062551E0,-4.61204E-3,-1.422106E0,2.893548E-1,1.2081815E0,1.0560268E0,3.9936826E-3,-1.5392916E0,-1.0314733E-3,6.74584E-1,-4.7415004E-5,3.1123203E-4,5.234478E-3,2.3139212E-3,4.6190876E-3,-4.046145E-3,-3.9208855E-4,3.1435657E-1,3.0939514E-3,3.1123392E-4,2.9622188E-3],"categories":[],"categories_nodes":[],"categories_segments":[],"categories_sizes":[],"default_left":[0,0,0,0,0,0,0,0,0,0,0,0,0,0,0,0,0,0,0,0,0,0,0,0,0,0,0],"id":20,"left_children":[1,3,5,7,-1,9,11,-1,13,15,17,19,-1,21,-1,23,-1,-1,-1,-1,-1,-1,-1,25,-1,-1,-1],"loss_changes":[7.035678E2,4.008969E1,6.732388E1,4.422699E0,0E0,2.6081743E0,8.60556E0,0E0,3.0681229E0,8.054096E0,3.243701E0,3.1012192E0,0E0,3.5831985E0,0E0,6.3744497E0,0E0,0E0,0E0,0E0,0E0,0E0,0E0,3.128386E0,0E0,0E0,0E0],"parents":[2147483647,0,0,1,1,2,2,3,3,5,5,6,6,8,8,9,9,10,10,11,11,13,13,15,15,23,23],"right_children":[2,4,6,8,-1,10,12,-1,14,16,18,20,-1,22,-1,24,-1,-1,-1,-1,-1,-1,-1,26,-1,-1,-1],"split_conditions":[2.8123736E-1,1.8749157E-1,4.6872893E-1,1.4061868E-1,-1.7617231E-3,1E0,5.624747E-1,-4.61204E-3,1E0,4.270111E-1,4.2185605E-1,1E0,3.9936826E-3,9.4451874E-1,-1.0314733E-3,3.4099448E-1,-4.7415004E-5,3.1123203E-4,5.234478E-3,2.3139212E-3,4.6190876E-3,-4.046145E-3,-3.9208855E-4,7.2021645E-1,3.0939514E-3,3.1123392E-4,2.9622188E-3],"split_indices":[2,2,2,2,0,0,2,0,3,1,2,6,0,0,0,1,0,0,0,0,0,0,0,0,0,0,0],"split_type":[0,0,0,0,0,0,0,0,0,0,0,0,0,0,0,0,0,0,0,0,0,0,0,0,0,0,0],"sum_hessian":[4.068675E2,1.8002766E2,2.2683984E2,1.327175E2,4.7310177E1,7.096526E1,1.5587457E2,1.06572395E2,2.6145098E1,6.772825E1,3.237012E0,3.3366123E1,1.2250845E2,2.3406086E1,2.73901E0,3.0129112E1,3.759914E1,1.4940056E0,1.7430065E0,2.9382109E1,3.9840147E0,2.166308E1,1.7430065E0,1.867507E1,1.1454042E1,1.5438057E1,3.237012E0],"tree_param":{"num_deleted":"0","num_feature":"12","num_nodes":"27","size_leaf_vector":"1"}},{"base_weights":[-1.6747996E-2,-1.4978092E0,1.1224086E0,-4.390769E-3,-6.69894E-1,4.1253597E-4,1.4550607E0,-1.008029E0,-3.4918836E-1,1.2136366E0,1.6849881E0,-2.758571E-3,1.0145532E-3,-3.0573155E-3,-1.3049792E-1,8.7277836E-1,1.3020072E0,4.311394E-3,1.0495459E0,6.7881495E-2,-3.6273706E-3,6.624139E-1,5.2344874E-3,1.3532156E0,-9.195798E-4,5.234482E-3,1.8391443E-3,1.8096188E-3,-6.7342015E-4,1.1472609E-3,5.234478E-3,3.8815464E-3,2.7540792E-3],"categories":[],"categories_nodes":[],"categories_segments":[],"categories_sizes":[],"default_left":[0,0,0,0,0,0,0,0,0,0,0,0,0,0,0,0,0,0,0,0,0,0,0,0,0,0,0,0,0,0,0,0,0],"id":21,"left_children":[1,3,5,-1,7,-1,9,11,13,15,17,-1,-1,-1,19,21,23,-1,25,27,-1,29,-1,31,-1,-1,-1,-1,-1,-1,-1,-1,-1],"loss_changes":[6.986339E2,4.3674805E1,7.4290924E1,0E0,5.1033974E0,0E0,9.633942E0,3.8138466E0,4.742117E0,2.5501251E0,4.150223E0,0E0,0E0,0E0,5.197521E0,4.6279764E0,5.7737274E0,0E0,2.9942188E0,3.8871393E0,0E0,4.278692E0,0E0,3.448883E0,0E0,0E0,0E0,0E0,0E0,0E0,0E0,0E0,0E0],"parents":[2147483647,0,0,1,1,2,2,4,4,6,6,7,7,8,8,9,9,10,10,14,14,15,15,16,16,18,18,19,19,21,21,23,23],"right_children":[2,4,6,-1,8,-1,10,12,14,16,18,-1,-1,-1,20,22,24,-1,26,28,-1,30,-1,32,-1,-1,-1,-1,-1,-1,-1,-1,-1],"split_conditions":[2.8123736E-1,1.8749157E-1,4.2185605E-1,-4.390769E-3,2.3436446E-1,4.1253597E-4,6.562205E-1,1E0,2.841924E-1,4.6872893E-1,1E0,-2.758571E-3,1.0145532E-3,-3.0573155E-3,1E0,9.4451874E-1,1E0,4.311394E-3,7.030934E-1,5.049331E-1,-3.6273706E-3,1E0,5.2344874E-3,1E0,-9.195798E-4,5.234482E-3,1.8391443E-3,1.8096188E-3,-6.7342015E-4,1.1472609E-3,5.234478E-3,3.8815464E-3,2.7540792E-3],"split_indices":[2,2,2,0,2,0,2,8,1,2,6,0,0,0,10,0,0,0,2,1,0,8,0,11,0,0,0,0,0,0,0,0,0],"split_type":[0,0,0,0,0,0,0,0,0,0,0,0,0,0,0,0,0,0,0,0,0,0,0,0,0,0,0,0,0,0,0,0,0],"sum_hessian":[4.1408853E2,1.8002766E2,2.3406087E2,1.3296649E2,4.7061172E1,6.0507225E1,1.7355365E2,2.2908085E1,2.415309E1,8.466032E1,8.8893326E1,2.116508E1,1.7430065E0,4.7310176E0,1.9422071E1,1.7430065E1,6.723025E1,7.96803E1,9.213034E0,1.6932062E1,2.4900093E0,1.4940055E1,2.4900093E0,6.523824E1,1.9920074E0,1.9920074E0,7.221027E0,5.727021E0,1.1205042E1,1.3197049E1,1.7430065E0,3.261912E1,3.261912E1],"tree_param":{"num_deleted":"0","num_feature":"12","num_nodes":"33","size_leaf_vector":"1"}},{"base_weights":[-6.1134417E-3,-1.5102836E0,1.1192168E0,-4.61204E-3,-9.619173E-1,5.572321E-1,1.6299047E0,-3.0054972E-3,-1.0505222E-3,2.6627338E-1,2.2271876E-3,4.1281544E-3,2.7728688E-3,6.364395E-1,1.2694106E-1,2.4572741E-3,3.1123366E-4,4.9576175E-1,-3.2486433E-1,5.615697E-4,2.2047989E-3,-3.381213E-3,-1.5032277E-4],"categories":[],"categories_nodes":[],"categories_segments":[],"categories_sizes":[],"default_left":[0,0,0,0,0,0,0,0,0,0,0,0,0,0,0,0,0,0,0,0,0,0,0],"id":22,"left_children":[1,3,5,-1,7,9,11,-1,-1,13,-1,-1,-1,15,17,-1,-1,19,21,-1,-1,-1,-1],"loss_changes":[6.933361E2,3.5643738E1,6.724667E1,0E0,9.955811E0,1.1397549E1,3.2964478E0,0E0,0E0,3.1464124E0,0E0,0E0,0E0,3.1092424E0,7.385635E0,0E0,0E0,2.6261387E0,5.5346003E0,0E0,0E0,0E0,0E0],"parents":[2147483647,0,0,1,1,2,2,4,4,5,5,6,6,9,9,13,13,14,14,17,17,18,18],"right_children":[2,4,6,-1,8,10,12,-1,-1,14,-1,-1,-1,16,18,-1,-1,20,22,-1,-1,-1,-1],"split_conditions":[2.8123736E-1,1.4061868E-1,5.624747E-1,-4.61204E-3,2.3436446E-1,4.2185605E-1,1E0,-3.0054972E-3,-1.0505222E-3,3.83763E-1,2.2271876E-3,4.1281544E-3,2.7728688E-3,5.662238E-1,4.981525E-1,2.4572741E-3,3.1123366E-4,3.7498313E-1,5.599839E-1,5.615697E-4,2.2047989E-3,-3.381213E-3,-1.5032277E-4],"split_indices":[2,2,2,0,2,2,8,0,0,0,0,0,0,1,1,0,0,2,1,0,0,0,0],"split_type":[0,0,0,0,0,0,0,0,0,0,0,0,0,0,0,0,0,0,0,0,0,0,0],"sum_hessian":[4.096065E2,1.7529665E2,2.3430986E2,1.0458039E2,7.071626E1,1.11552414E2,1.22757454E2,4.7310177E1,2.3406086E1,6.1005226E1,5.0547188E1,1.1080541E2,1.19520445E1,1.6683062E1,4.4322163E1,9.711036E0,6.972026E0,2.440209E1,1.9920074E1,1.4691054E1,9.711036E0,3.9840147E0,1.5936059E1],"tree_param":{"num_deleted":"0","num_feature":"12","num_nodes":"23","size_leaf_vector":"1"}},{"base_weights":[5.8789942E-2,-1.4678379E0,1.1560538E0,-1.7930825E0,-5.993656E-1,3.6131617E-1,1.5478605E0,-4.61204E-3,-3.506814E-3,-5.0056654E-1,-2.8537237E-3,7.674045E-2,6.513296E-1,3.640305E-3,4.4834986E-3,-1.8641653E-3,-4.871344E-4,-8.7706834E-1,1.5407652E-1,1.0718933E0,3.2999963E-1,-4.6120095E-3,3.1123203E-4,4.1404287E-3,1.3413787E-4,8.4679836E-1,4.5780595E-3,3.1123395E-4,5.234485E-3,5.234482E-3,1.5146999E-3],"categories":[],"categories_nodes":[],"categories_segments":[],"categories_sizes":[],"default_left":[0,0,0,0,0,0,0,0,0,0,0,0,0,0,0,0,0,0,0,0,0,0,0,0,0,0,0,0,0,0,0],"id":23,"left_children":[1,3,5,7,9,11,13,-1,-1,15,-1,17,19,-1,-1,-1,-1,21,23,25,27,-1,-1,-1,-1,29,-1,-1,-1,-1,-1],"loss_changes":[6.8822296E2,4.853064E1,7.443338E1,3.99057E0,2.6111069E0,6.5144253E0,2.8373413E0,0E0,0E0,3.1241255E0,0E0,2.9387636E0,5.2830334E0,0E0,0E0,0E0,0E0,3.0120087E0,5.619704E0,3.03125E0,8.122302E0,0E0,0E0,0E0,0E0,3.8930836E0,0E0,0E0,0E0,0E0,0E0],"parents":[2147483647,0,0,1,1,2,2,3,3,4,4,5,5,6,6,9,9,11,11,12,12,17,17,18,18,19,19,20,20,25,25],"right_children":[2,4,6,8,10,12,14,-1,-1,16,-1,18,20,-1,-1,-1,-1,22,24,26,28,-1,-1,-1,-1,30,-1,-1,-1,-1,-1],"split_conditions":[2.8123736E-1,1.8749157E-1,4.6872893E-1,1.4061868E-1,8.323676E-1,3.7498313E-1,7.3094946E-1,-4.61204E-3,-3.506814E-3,2.3436446E-1,-2.8537237E-3,1.2697405E-1,4.2528647E-1,3.640305E-3,4.4834986E-3,-1.8641653E-3,-4.871344E-4,1E0,1.7184308E-1,3.805066E-1,9.4451874E-1,-4.6120095E-3,3.1123203E-4,4.1404287E-3,1.3413787E-4,1.11186035E-1,4.5780595E-3,3.1123395E-4,5.234485E-3,5.234482E-3,1.5146999E-3],"split_indices":[2,2,2,2,0,2,1,0,0,2,0,1,1,0,0,0,0,11,1,1,0,0,0,0,0,1,0,0,0,0,0],"split_type":[0,0,0,0,0,0,0,0,0,0,0,0,0,0,0,0,0,0,0,0,0,0,0,0,0,0,0,0,0,0,0],"sum_hessian":[4.1085153E2,1.7181064E2,2.3904088E2,1.2499847E2,4.6812172E1,7.893329E1,1.6010759E2,1.00596375E2,2.440209E1,3.984015E1,6.972026E0,3.984015E1,3.9093143E1,1.3072548E2,2.9382109E1,2.141408E1,1.8426067E1,2.9880111E0,3.6852135E1,1.6932062E1,2.2161081E1,1.4940056E0,1.4940056E0,2.2410083E0,3.461113E1,1.3197049E1,3.7350137E0,1.9920074E1,2.2410083E0,1.9920074E0,1.1205042E1],"tree_param":{"num_deleted":"0","num_feature":"12","num_nodes":"31","size_leaf_vector":"1"}},{"base_weights":[1.3506995E-2,-1.4975283E0,2.8039003E-3,-4.4226833E-3,-6.6790193E-1,-2.6003784E-3,-2.9900345E-1,-2.6427263E-3,-8.795025E-5],"categories":[],"categories_nodes":[],"categories_segments":[],"categories_sizes":[],"default_left":[0,0,0,0,0,0,0,0,0],"id":24,"left_children":[1,3,-1,-1,5,-1,7,-1,-1],"loss_changes":[7.0753284E2,4.5055084E1,0E0,0E0,6.925764E0,0E0,5.0521207E0,0E0,0E0],"parents":[2147483647,0,0,1,1,4,4,6,6],"right_children":[2,4,-1,-1,6,-1,8,-1,-1],"split_conditions":[2.8123736E-1,1.8749157E-1,2.8039003E-3,-4.4226833E-3,2.3436446E-1,-2.6003784E-3,3.6373737E-1,-2.6427263E-3,-8.795025E-5],"split_indices":[2,2,0,0,2,0,1,0,0],"split_type":[0,0,0,0,0,0,0,0,0],"sum_hessian":[4.1433752E2,1.7728865E2,2.3704887E2,1.2948048E2,4.7808178E1,2.3157085E1,2.465109E1,6.2250233E0,1.8426067E1],"tree_param":{"num_deleted":"0","num_feature":"12","num_nodes":"9","size_leaf_vector":"1"}},{"base_weights":[-5.7861686E-2,-2.4377114E-1,-2.2294013E-2,-1.3110634E0,1.3317554E0,1.5810776E-1,-1.11898854E-1,-4.4988594E-3,-6.408327E-1,9.4502455E-1,4.269157E-3,9.865904E-2,1.1711121E0,-1.1745564E0,1.4474355E0,-2.3815411E-1,-3.381216E-3,2.8275717E-3,-2.3579532E-4,-1.4931694E0,1.2193063E0,1.2694067E-1,5.234492E-3,-1.6780248E0,-2.004542E-1,1.240198E0,4.1091875E-3,5.2114352E-5,-4.6120095E-3,-4.4519324E-3,-7.444653E-1,4.1380155E-1,3.8685123E-3,-2.9709288E-3,3.593393E-3,-4.6120393E-3,-1.2684655E0,-7.857967E-1,-1.6489249E-2,8.645825E-1,3.990732E-3,-4.6120137E-3,-1.4012079E-3,-1.067281E-3,2.0154428E-3,-3.3812204E-3,-1.0954125E-3,-5.839056E-4,-3.2693231E-3,1.9493622E-4,-2.3397524E-3,2.3899488E-3,-9.195798E-4],"categories":[],"categories_nodes":[],"categories_segments":[],"categories_sizes":[],"default_left":[0,0,0,0,0,0,0,0,0,0,0,0,0,0,0,0,0,0,0,0,0,0,0,0,0,0,0,0,0,0,0,0,0,0,0,0,0,0,0,0,0,0,0,0,0,0,0,0,0,0,0,0,0],"id":25,"left_children":[1,3,5,7,9,11,13,-1,15,17,-1,19,21,23,25,27,-1,-1,-1,29,31,33,-1,35,37,39,-1,-1,-1,-1,41,43,-1,-1,-1,-1,45,47,49,51,-1,-1,-1,-1,-1,-1,-1,-1,-1,-1,-1,-1,-1],"loss_changes":[2.6656597E0,1.0886381E2,5.470068E0,1.3550972E1,4.14027E0,6.7628727E0,3.7464453E2,0E0,5.0334687E0,2.91535E0,0E0,1.8922383E2,6.265007E0,6.594342E1,4.340103E0,4.669343E0,0E0,0E0,0E0,1.0585327E1,1.7977173E1,5.3546968E0,0E0,7.372055E0,4.9336014E0,6.994339E0,0E0,0E0,0E0,0E0,2.594421E0,6.6458926E0,0E0,0E0,0E0,0E0,2.6704712E0,3.2858462E0,3.138344E0,3.333271E0,0E0,0E0,0E0,0E0,0E0,0E0,0E0,0E0,0E0,0E0,0E0,0E0,0E0],"parents":[2147483647,0,0,1,1,2,2,3,3,4,4,5,5,6,6,8,8,9,9,11,11,12,12,13,13,14,14,15,15,19,19,20,20,21,21,23,23,24,24,25,25,30,30,31,31,36,36,37,37,38,38,39,39],"right_children":[2,4,6,8,10,12,14,-1,16,18,-1,20,22,24,26,28,-1,-1,-1,30,32,34,-1,36,38,40,-1,-1,-1,-1,42,44,-1,-1,-1,-1,46,48,50,52,-1,-1,-1,-1,-1,-1,-1,-1,-1,-1,-1,-1,-1],"split_conditions":[2.5823176E-1,3.7498313E-1,4.6924174E-1,1.8749157E-1,6.562205E-1,4.6163255E-1,4.2185605E-1,-4.4988594E-3,1.7645764E-1,1E0,4.269157E-3,2.8123736E-1,5.156018E-1,2.3436446E-1,6.509806E-1,1E0,-3.381216E-3,2.8275717E-3,-2.3579532E-4,1.8749157E-1,4.2185605E-1,6.080653E-1,5.234492E-3,1.4061868E-1,5.495081E-1,6.562205E-1,4.1091875E-3,5.2114352E-5,-4.6120095E-3,-4.4519324E-3,2.8750074E-1,1E0,3.8685123E-3,-2.9709288E-3,3.593393E-3,-4.6120393E-3,1E0,1E0,1E0,9.4451874E-1,3.990732E-3,-4.6120137E-3,-1.4012079E-3,-1.067281E-3,2.0154428E-3,-3.3812204E-3,-1.0954125E-3,-5.839056E-4,-3.2693231E-3,1.9493622E-4,-2.3397524E-3,2.3899488E-3,-9.195798E-4],"split_indices":[1,2,1,2,2,1,2,0,1,10,0,2,2,2,1,7,0,0,0,2,2,0,0,2,1,2,0,0,0,0,1,11,0,0,0,0,7,11,7,0,0,0,0,0,0,0,0,0,0,0,0,0,0],"split_type":[0,0,0,0,0,0,0,0,0,0,0,0,0,0,0,0,0,0,0,0,0,0,0,0,0,0,0,0,0,0,0,0,0,0,0,0,0,0,0,0,0,0,0,0,0,0,0,0,0,0,0,0,0],"sum_hessian":[4.031325E2,6.474024E1,3.3839224E2,3.8595142E1,2.6145098E1,1.12299416E2,2.2609283E2,2.166308E1,1.6932062E1,1.344605E1,1.2699047E1,1.06074394E2,6.2250233E0,1.344605E2,9.163234E1,1.095604E1,5.9760222E0,1.1205042E1,2.2410083E0,4.382416E1,6.225023E1,2.9880111E0,3.237012E0,8.8644325E1,4.581617E1,4.805718E1,4.357516E1,9.462035E0,1.4940056E0,3.0627113E1,1.3197049E1,1.917307E1,4.307716E1,1.4940056E0,1.4940056E0,5.926222E1,2.9382109E1,1.095604E1,3.486013E1,2.440209E1,2.3655088E1,1.7430065E0,1.1454042E1,6.2250233E0,1.2948048E1,2.5896095E1,3.486013E0,5.47802E0,5.47802E0,3.1623117E1,3.237012E0,2.2410084E1,1.9920074E0],"tree_param":{"num_deleted":"0","num_feature":"12","num_nodes":"53","size_leaf_vector":"1"}},{"base_weights":[6.216609E-2,-1.6506544E0,1.0736091E0,-4.61204E-3,-2.862653E-3,2.8975388E-1,1.58324E0,6.268428E-2,6.513296E-1,4.280517E-3,1.4437761E0,1.7407778E-1,-1.4185634E-3,2.7728698E-3,2.4506007E-1,3.3574067E-3,4.9753836E-3,-9.5474964E-4,2.8487554E-1,4.870633E-2,5.234482E-3,1.6144528E-3,1.322059E-4,9.3783194E-4,-1.9266143E-3],"categories":[],"categories_nodes":[],"categories_segments":[],"categories_sizes":[],"default_left":[0,0,0,0,0,0,0,0,0,0,0,0,0,0,0,0,0,0,0,0,0,0,0,0,0],"id":26,"left_children":[1,3,5,-1,-1,7,9,11,13,-1,15,17,-1,-1,19,-1,-1,-1,21,23,-1,-1,-1,-1,-1],"loss_changes":[7.087479E2,1.6907898E1,1.02752625E2,0E0,0E0,8.320578E0,3.5353394E0,4.4467053E0,7.617546E0,0E0,3.6559296E0,3.3112693E0,0E0,0E0,7.8541083E0,0E0,0E0,0E0,3.8243163E0,5.3408165E0,0E0,0E0,0E0,0E0,0E0],"parents":[2147483647,0,0,1,1,2,2,5,5,6,6,7,7,8,8,10,10,11,11,14,14,18,18,19,19],"right_children":[2,4,6,-1,-1,8,10,12,14,-1,16,18,-1,-1,20,-1,-1,-1,22,24,-1,-1,-1,-1,-1],"split_conditions":[2.3436446E-1,1.4061868E-1,4.6872893E-1,-4.61204E-3,-2.862653E-3,3.7498313E-1,1E0,8.323676E-1,4.270111E-1,4.280517E-3,1E0,2.7161184E-1,-1.4185634E-3,2.7728698E-3,9.4451874E-1,3.3574067E-3,4.9753836E-3,-9.5474964E-4,4.9591413E-1,6.080653E-1,5.234482E-3,1.6144528E-3,1.322059E-4,9.3783194E-4,-1.9266143E-3],"split_indices":[2,2,2,0,0,2,11,0,1,0,3,0,0,0,0,0,0,0,0,0,0,0,0,0,0],"split_type":[0,0,0,0,0,0,0,0,0,0,0,0,0,0,0,0,0,0,0,0,0,0,0,0,0],"sum_hessian":[4.0910852E2,1.5189056E2,2.5721796E2,1.0283738E2,4.905318E1,1.01343376E2,1.5587457E2,6.225023E1,3.9093143E1,7.1961266E1,8.391331E1,5.3037197E1,9.213034E0,1.7928066E1,2.116508E1,7.445128E1,9.462035E0,8.715033E0,4.4322163E1,1.917307E1,1.9920074E0,1.6932062E1,2.73901E1,1.369505E1,5.47802E0],"tree_param":{"num_deleted":"0","num_feature":"12","num_nodes":"25","size_leaf_vector":"1"}},{"base_weights":[-4.3355092E-2,-1.5028406E0,2.7111287E-3,-1.7920029E0,-6.3854885E-1,-4.61204E-3,-3.4185178E-3,-3.6149722E-1,-1.0778731E0,-1.9266164E-3,5.5225875E-2,-1.288551E0,8.582608E-4,-1.4790448E-3,1.1800458E-3,-3.5570501E-3,1.2958786E-3],"categories":[],"categories_nodes":[],"categories_segments":[],"categories_sizes":[],"default_left":[0,0,0,0,0,0,0,0,0,0,0,0,0,0,0,0,0],"id":27,"left_children":[1,3,-1,5,7,-1,-1,9,11,-1,13,15,-1,-1,-1,-1,-1],"loss_changes":[6.84459E2,4.493039E1,0E0,4.7724915E0,5.485613E0,0E0,0E0,4.887023E0,5.243536E0,0E0,3.9121144E0,4.4778423E0,0E0,0E0,0E0,0E0,0E0],"parents":[2147483647,0,0,1,1,3,3,4,4,7,7,8,8,10,10,11,11],"right_children":[2,4,-1,6,8,-1,-1,10,12,-1,14,16,-1,-1,-1,-1,-1],"split_conditions":[2.8123736E-1,1.8749157E-1,2.7111287E-3,1.4061868E-1,6.080653E-1,-4.61204E-3,-3.4185178E-3,2.3436446E-1,1E0,-1.9266164E-3,3.83763E-1,1E0,8.582608E-4,-1.4790448E-3,1.1800458E-3,-3.5570501E-3,1.2958786E-3],"split_indices":[2,2,0,2,0,0,0,2,8,0,0,4,0,0,0,0,0],"split_type":[0,0,0,0,0,0,0,0,0,0,0,0,0,0,0,0,0],"sum_hessian":[4.0811252E2,1.7977867E2,2.2833385E2,1.347095E2,4.5069168E1,1.1005841E2,2.465109E1,2.7639103E1,1.7430065E1,1.369505E1,1.3944052E1,1.5189056E1,2.2410083E0,5.47802E0,8.466031E0,1.3944052E1,1.2450047E0],"tree_param":{"num_deleted":"0","num_feature":"12","num_nodes":"17","size_leaf_vector":"1"}},{"base_weights":[1.4781144E-2,-1.4625094E0,1.113081E0,-4.435508E-3,-6.2606806E-1,7.679246E-5,1.4582281E0,-1.0063002E0,-2.6715714E-1,2.583514E-3,1.621285E0,-2.7466342E-1,-3.0573204E-3,-9.0739777E-4,3.593393E-3,3.8581088E-3,5.041435E-3,3.1123348E-4,-4.612003E-3],"categories":[],"categories_nodes":[],"categories_segments":[],"categories_sizes":[],"default_left":[0,0,0,0,0,0,0,0,0,0,0,0,0,0,0,0,0,0,0],"id":28,"left_children":[1,3,5,-1,7,-1,9,11,13,-1,15,17,-1,-1,-1,-1,-1,-1,-1],"loss_changes":[6.726699E2,5.1249542E1,8.8785E1,0E0,7.0680523E0,0E0,1.18905945E1,4.428322E0,4.7522593E0,0E0,2.66568E0,4.0160146E0,0E0,0E0,0E0,0E0,0E0,0E0,0E0],"parents":[2147483647,0,0,1,1,2,2,4,4,6,6,7,7,8,8,10,10,11,11],"right_children":[2,4,6,-1,8,-1,10,12,14,-1,16,18,-1,-1,-1,-1,-1,-1,-1],"split_conditions":[2.8123736E-1,1.8749157E-1,4.2185605E-1,-4.435508E-3,2.3436446E-1,7.679246E-5,5.624747E-1,3.83763E-1,1E0,2.583514E-3,1E0,1E0,-3.0573204E-3,-9.0739777E-4,3.593393E-3,3.8581088E-3,5.041435E-3,3.1123348E-4,-4.612003E-3],"split_indices":[2,2,2,0,2,0,2,0,4,0,3,3,0,0,0,0,0,0,0],"split_type":[0,0,0,0,0,0,0,0,0,0,0,0,0,0,0,0,0,0,0],"sum_hessian":[4.1458655E2,1.7679065E2,2.3779588E2,1.2499847E2,5.179219E1,5.7519215E1,1.8027667E2,2.5149094E1,2.6643099E1,5.179219E1,1.2848448E2,6.2250233E0,1.892407E1,2.5149094E1,1.4940056E0,1.1578543E2,1.2699047E1,4.9800186E0,1.2450047E0],"tree_param":{"num_deleted":"0","num_feature":"12","num_nodes":"19","size_leaf_vector":"1"}},{"base_weights":[-6.8963766E-2,-1.4978092E0,1.057596E0,-1.790496E0,-6.825766E-1,3.264963E-1,1.4532498E0,-4.61204E-3,-3.4185178E-3,-2.5333234E-3,-3.700946E-1,5.994173E-1,1.2694106E-1,1.024838E0,1.5648909E0,-4.6120198E-3,-5.4498727E-4,7.9815096E-4,1.1532638E0,-1.2222983E-1,8.236021E-1,1.1133388E0,-2.3579532E-4,1.728053E0,1.413716E0,3.1123287E-4,3.5465243E-3,-2.1287842E-1,3.8278366E-3,6.050416E-1,5.234478E-3,9.3015057E-1,4.4139554E-3,2.4774708E-3,4.454583E-3,3.2833484E-3,4.882839E-3,-1.1367872E-3,6.3945184E-4,9.765404E-4,5.2344664E-3,2.8980372E-3,1.1053092E-3],"categories":[],"categories_nodes":[],"categories_segments":[],"categories_sizes":[],"default_left":[0,0,0,0,0,0,0,0,0,0,0,0,0,0,0,0,0,0,0,0,0,0,0,0,0,0,0,0,0,0,0,0,0,0,0,0,0,0,0,0,0,0,0],"id":29,"left_children":[1,3,5,7,9,11,13,-1,-1,-1,15,17,19,21,23,-1,-1,-1,25,27,29,31,-1,33,35,-1,-1,37,-1,39,-1,41,-1,-1,-1,-1,-1,-1,-1,-1,-1,-1,-1],"loss_changes":[6.5733124E2,4.2955963E1,6.6048386E1,4.7545166E0,5.2114964E0,4.3667355E0,7.0860596E0,0E0,0E0,0E0,5.6169033E0,5.136772E0,8.039571E0,3.0385284E0,2.8989258E0,0E0,0E0,0E0,3.3722E0,5.2057962E0,3.4969263E0,3.5721436E0,0E0,3.6021118E0,2.6281128E0,0E0,0E0,3.845229E0,0E0,3.3078992E0,0E0,2.705391E0,0E0,0E0,0E0,0E0,0E0,0E0,0E0,0E0,0E0,0E0,0E0],"parents":[2147483647,0,0,1,1,2,2,3,3,4,4,5,5,6,6,10,10,11,11,12,12,13,13,14,14,18,18,19,19,20,20,21,21,23,23,24,24,27,27,29,29,31,31],"right_children":[2,4,6,8,10,12,14,-1,-1,-1,16,18,20,22,24,-1,-1,-1,26,28,30,32,-1,34,36,-1,-1,38,-1,40,-1,42,-1,-1,-1,-1,-1,-1,-1,-1,-1,-1,-1],"split_conditions":[2.8123736E-1,1.8749157E-1,4.6872893E-1,1.4061868E-1,2.3436446E-1,4.270111E-1,5.624747E-1,-4.61204E-3,-3.4185178E-3,-2.5333234E-3,2.5100005E-1,3.4099448E-1,4.2185605E-1,1E0,1E0,-4.6120198E-3,-5.4498727E-4,7.9815096E-4,3.2811025E-1,1E0,9.4451874E-1,7.2107476E-1,-2.3579532E-4,2.1373187E-1,1E0,3.1123287E-4,3.5465243E-3,6.883678E-1,3.8278366E-3,1E0,5.234478E-3,5.166207E-1,4.4139554E-3,2.4774708E-3,4.454583E-3,3.2833484E-3,4.882839E-3,-1.1367872E-3,6.3945184E-4,9.765404E-4,5.2344664E-3,2.8980372E-3,1.1053092E-3],"split_indices":[2,2,2,2,2,1,2,0,0,0,1,1,2,5,11,0,0,0,2,5,0,1,0,1,3,0,0,1,0,10,0,1,0,0,0,0,0,0,0,0,0,0,0],"split_type":[0,0,0,0,0,0,0,0,0,0,0,0,0,0,0,0,0,0,0,0,0,0,0,0,0,0,0,0,0,0,0,0,0,0,0,0,0,0,0,0,0,0,0],"sum_hessian":[4.083615E2,1.8002766E2,2.2833385E2,1.3246849E2,4.7559177E1,8.01783E1,1.4815555E2,1.078174E2,2.465109E1,2.2410084E1,2.5149094E1,3.3864124E1,4.631417E1,3.0627113E1,1.17528435E2,2.2410083E0,2.2908085E1,2.2659084E1,1.1205042E1,3.4113125E1,1.2201045E1,2.8386105E1,2.2410083E0,5.652321E1,6.1005226E1,2.4900093E0,8.715033E0,3.237012E1,1.7430065E0,1.0458038E1,1.7430065E0,2.2410084E1,5.9760222E0,6.2250233E0,5.0298187E1,5.40332E1,6.972026E0,2.116508E1,1.1205042E1,9.213034E0,1.2450047E0,1.4691054E1,7.7190285E0],"tree_param":{"num_deleted":"0","num_feature":"12","num_nodes":"43","size_leaf_vector":"1"}},{"base_weights":[-1.25893345E-2,-1.5098522E0,1.1234847E0,-1.6985357E0,-1.4258229E0,5.1637046E-4,1.4360242E0,-4.4565676E-3,-2.3145091E-3,-2.1504005E-3,-1.4689562E0,1.0250022E0,3.9203274E-3,-1.7731895E0,-6.403527E-1,8.912858E-1,1.4960475E0,-4.6120393E-3,-3.3460534E-3,-1.0355989E0,-2.9900336E-1,2.6578405E-3,4.6161148E-1,4.869814E-3,1.7592518E-3,-1.1871516E-3,-3.4536186E-3,-1.4899623E-3,5.0816423E-4,-2.4239074E-3,1.9523236E-3],"categories":[],"categories_nodes":[],"categories_segments":[],"categories_sizes":[],"default_left":[0,0,0,0,0,0,0,0,0,0,0,0,0,0,0,0,0,0,0,0,0,0,0,0,0,0,0,0,0,0,0],"id":30,"left_children":[1,3,5,7,9,-1,11,-1,-1,-1,13,15,-1,17,19,21,23,-1,-1,25,27,-1,29,-1,-1,-1,-1,-1,-1,-1,-1],"loss_changes":[7.009768E2,2.8188171E0,6.685089E1,4.924301E0,2.9114838E0,0E0,1.1689514E1,0E0,0E0,0E0,2.874881E1,3.1210365E0,0E0,3.6760864E0,4.132118E0,3.1964512E0,4.1808777E0,0E0,0E0,2.919177E0,2.5683684E0,0E0,5.800946E0,0E0,0E0,0E0,0E0,0E0,0E0,0E0,0E0],"parents":[2147483647,0,0,1,1,2,2,3,3,4,4,6,6,10,10,11,11,13,13,14,14,15,15,16,16,19,19,20,20,22,22],"right_children":[2,4,6,8,10,-1,12,-1,-1,-1,14,16,-1,18,20,22,24,-1,-1,26,28,-1,30,-1,-1,-1,-1,-1,-1,-1,-1],"split_conditions":[2.8123736E-1,3.688376E-1,4.2185605E-1,2.3436446E-1,4.0902928E-1,5.1637046E-4,5.624747E-1,-4.4565676E-3,-2.3145091E-3,-2.1504005E-3,1.8749157E-1,7.2107476E-1,3.9203274E-3,1.4061868E-1,2.3436446E-1,5.166207E-1,9.009347E-1,-4.6120393E-3,-3.3460534E-3,5.4802555E-1,7.039707E-1,2.6578405E-3,5.3507006E-1,4.869814E-3,1.7592518E-3,-1.1871516E-3,-3.4536186E-3,-1.4899623E-3,5.0816423E-4,-2.4239074E-3,1.9523236E-3],"split_indices":[2,1,2,2,1,0,2,0,0,0,2,1,0,2,2,1,1,0,0,1,1,0,1,0,0,0,0,0,0,0,0],"split_type":[0,0,0,0,0,0,0,0,0,0,0,0,0,0,0,0,0,0,0,0,0,0,0,0,0,0,0,0,0,0,0],"sum_hessian":[4.1209653E2,1.7778665E2,2.3430986E2,5.47802E1,1.23006454E2,5.976022E1,1.7454965E2,4.7310177E1,7.4700274E0,8.964033E0,1.1404242E2,4.955118E1,1.2499847E2,8.3415306E1,3.0627113E1,3.8595142E1,1.095604E1,6.5985245E1,1.7430065E1,1.4193052E1,1.6434061E1,2.6643099E1,1.19520445E1,6.723025E0,4.2330155E0,5.727021E0,8.466031E0,1.0209038E1,6.2250233E0,2.2410083E0,9.711036E0],"tree_param":{"num_deleted":"0","num_feature":"12","num_nodes":"31","size_leaf_vector":"1"}},{"base_weights":[5.4920744E-2,2.4380682E-2,3.4437042E-1,-1.2346473E0,1.4455152E0,-1.2748866E0,1.1695689E0,-1.6922638E0,-1.623506E-1,1.0309521E0,1.6777815E0,-4.294404E-3,-1.4790448E-3,6.84725E-1,1.4262503E0,-4.61204E-3,-3.0219136E-3,-2.434712E-1,3.946772E-1,6.5847665E-1,1.169358E0,4.282424E-3,2.9071402E-3,-5.0930993E-4,2.7728665E-3,4.1380057E-1,4.1404446E-3,-5.607383E-1,-6.933199E-2,3.0463797E-3,-2.150396E-3,3.7426024E-3,-3.9209035E-4,4.6874676E-3,2.6684375E-3,-9.195798E-4,3.593393E-3,-6.7342026E-4,-3.5179714E-3,1.4146598E-4,-2.2951998E-3],"categories":[],"categories_nodes":[],"categories_segments":[],"categories_sizes":[],"default_left":[0,0,0,0,0,0,0,0,0,0,0,0,0,0,0,0,0,0,0,0,0,0,0,0,0,0,0,0,0,0,0,0,0,0,0,0,0,0,0,0,0],"id":31,"left_children":[1,3,5,7,9,11,13,15,17,19,21,-1,-1,23,25,-1,-1,27,29,31,33,-1,-1,-1,-1,35,-1,37,39,-1,-1,-1,-1,-1,-1,-1,-1,-1,-1,-1,-1],"loss_changes":[3.6208444E0,6.629404E2,5.223661E1,9.64039E1,1.6759247E1,4.224802E0,3.2227745E0,1.1953125E1,2.6553469E0,3.2220078E0,3.7799377E0,0E0,0E0,3.5698133E0,4.4997635E0,0E0,0E0,2.8339345E0,8.054389E0,1.2027933E1,2.7404366E0,0E0,0E0,0E0,0E0,2.8924909E0,0E0,4.545392E0,3.6465244E0,0E0,0E0,0E0,0E0,0E0,0E0,0E0,0E0,0E0,0E0,0E0,0E0],"parents":[2147483647,0,0,1,1,2,2,3,3,4,4,5,5,6,6,7,7,8,8,9,9,10,10,13,13,14,14,17,17,18,18,19,19,20,20,25,25,27,27,28,28],"right_children":[2,4,6,8,10,12,14,16,18,20,22,-1,-1,24,26,-1,-1,28,30,32,34,-1,-1,-1,-1,36,-1,38,40,-1,-1,-1,-1,-1,-1,-1,-1,-1,-1,-1,-1],"split_conditions":[1E0,3.7498313E-1,2.8123736E-1,2.3436446E-1,5.624747E-1,1.8749157E-1,4.2528647E-1,1.4061868E-1,7.804371E-1,4.2185605E-1,1E0,-4.294404E-3,-1.4790448E-3,5.156018E-1,3.7498313E-1,-4.61204E-3,-3.0219136E-3,2.8123736E-1,8.605001E-1,4.270111E-1,1.7184308E-1,4.282424E-3,2.9071402E-3,-5.0930993E-4,2.7728665E-3,6.080653E-1,4.1404446E-3,6.3896585E-1,1E0,3.0463797E-3,-2.150396E-3,3.7426024E-3,-3.9209035E-4,4.6874676E-3,2.6684375E-3,-9.195798E-4,3.593393E-3,-6.7342026E-4,-3.5179714E-3,1.4146598E-4,-2.2951998E-3],"split_indices":[10,2,2,2,2,2,1,2,1,2,9,0,0,2,2,0,0,2,1,1,1,0,0,0,0,0,0,1,8,0,0,0,0,0,0,0,0,0,0,0,0],"split_type":[0,0,0,0,0,0,0,0,0,0,0,0,0,0,0,0,0,0,0,0,0,0,0,0,0,0,0,0,0,0,0,0,0,0,0,0,0,0,0,0,0],"sum_hessian":[4.096065E2,3.7051337E2,3.9093143E1,1.9646173E2,1.7405165E2,1.3197049E1,2.5896095E1,1.3769751E2,5.8764217E1,6.2499233E1,1.11552414E2,7.7190285E0,5.47802E0,8.964033E0,1.6932062E1,9.760836E1,4.008915E1,5.129419E1,7.4700274E0,1.6932062E1,4.556717E1,9.785736E1,1.369505E1,2.9880111E0,5.9760222E0,3.486013E0,1.344605E1,1.8177067E1,3.3117123E1,4.4820166E0,2.9880111E0,8.217031E0,8.715033E0,4.4820166E0,4.108515E1,1.9920074E0,1.4940056E0,1.369505E1,4.4820166E0,2.8884108E1,4.2330155E0],"tree_param":{"num_deleted":"0","num_feature":"12","num_nodes":"41","size_leaf_vector":"1"}},{"base_weights":[5.7988246E-3,-1.4772032E0,1.1255844E0,-1.8106265E0,-5.9095365E-1,7.8629225E-1,1.1823448E0,-4.61204E-3,-1.4924331E0,-1.1716796E-3,-3.1532876E-3,2.6703572E-1,4.2088227E-3,1.3155993E0,1.079977E0,-3.9250697E-3,-3.9208855E-4,3.77944E-1,-2.9709288E-3,6.462576E-1,1.6502699E0,2.2861317E-1,1.5359616E0,2.3548284E-1,5.2344734E-3,1.1580877E0,9.967528E-4,4.596304E-3,1.4548279E0,3.2216564E-1,-7.336388E-1,1.1562643E0,4.395313E-3,-9.903867E-5,1.8260849E-3,1.1800444E-3,4.249845E-3,5.234499E-3,3.187205E-3,1.0320837E-4,1.4577492E-3,-4.612003E-3,-2.3579532E-4,1.2229497E-3,3.3080084E-3],"categories":[],"categories_nodes":[],"categories_segments":[],"categories_sizes":[],"default_left":[0,0,0,0,0,0,0,0,0,0,0,0,0,0,0,0,0,0,0,0,0,0,0,0,0,0,0,0,0,0,0,0,0,0,0,0,0,0,0,0,0,0,0,0,0],"id":32,"left_children":[1,3,5,7,9,11,13,-1,15,-1,-1,17,-1,19,21,-1,-1,23,-1,25,27,29,31,33,-1,35,-1,-1,37,39,41,43,-1,-1,-1,-1,-1,-1,-1,-1,-1,-1,-1,-1,-1],"loss_changes":[6.785567E2,5.1946686E1,4.4836426E0,2.863678E0,3.777296E0,1.6118568E1,2.7206726E0,0E0,3.3467712E0,0E0,0E0,3.5120823E0,0E0,1.9410889E1,4.378894E1,0E0,0E0,4.9860973E0,0E0,3.5439339E0,2.5334625E0,3.541624E0,7.1602936E0,2.5889974E0,0E0,3.5869703E0,0E0,0E0,3.2525024E0,2.7354832E0,2.5498428E0,3.7589912E0,0E0,0E0,0E0,0E0,0E0,0E0,0E0,0E0,0E0,0E0,0E0,0E0,0E0],"parents":[2147483647,0,0,1,1,2,2,3,3,4,4,5,5,6,6,8,8,11,11,13,13,14,14,17,17,19,19,20,20,21,21,22,22,23,23,25,25,28,28,29,29,30,30,31,31],"right_children":[2,4,6,8,10,12,14,-1,16,-1,-1,18,-1,20,22,-1,-1,24,-1,26,28,30,32,34,-1,36,-1,-1,38,40,42,44,-1,-1,-1,-1,-1,-1,-1,-1,-1,-1,-1,-1,-1],"split_conditions":[2.8123736E-1,1.8749157E-1,2.5100005E-1,1.4061868E-1,8.323676E-1,6.562205E-1,4.9591413E-1,-4.61204E-3,8.819215E-1,-1.1716796E-3,-3.1532876E-3,1E0,4.2088227E-3,4.6872893E-1,4.6872893E-1,-3.9250697E-3,-3.9208855E-4,1E0,-2.9709288E-3,4.270111E-1,1E0,8.379747E-1,6.562205E-1,5.156018E-1,5.2344734E-3,1E0,9.967528E-4,4.596304E-3,3.805066E-1,3.7498313E-1,8.9515656E-1,4.000873E-1,4.395313E-3,-9.903867E-5,1.8260849E-3,1.1800444E-3,4.249845E-3,5.234499E-3,3.187205E-3,1.0320837E-4,1.4577492E-3,-4.612003E-3,-2.3579532E-4,1.2229497E-3,3.3080084E-3],"split_indices":[2,2,1,2,0,2,0,0,1,0,0,5,0,2,2,0,0,4,0,1,11,1,2,2,0,11,0,0,1,2,1,1,0,0,0,0,0,0,0,0,0,0,0,0,0],"split_type":[0,0,0,0,0,0,0,0,0,0,0,0,0,0,0,0,0,0,0,0,0,0,0,0,0,0,0,0,0,0,0,0,0,0,0,0,0,0,0,0,0,0,0,0,0],"sum_hessian":[4.086105E2,1.7579465E2,2.3281586E2,1.2773747E2,4.805718E1,3.3366123E1,1.9944974E2,1.0458039E2,2.3157085E1,4.1334152E1,6.723025E0,2.141408E1,1.19520445E1,8.665232E1,1.1279742E2,2.141408E1,1.7430065E0,1.9920074E1,1.4940056E0,2.8884108E1,5.7768215E1,3.9342144E1,7.345527E1,1.8426067E1,1.4940056E0,9.213034E0,1.9671072E1,2.68921E1,3.0876114E1,3.5856133E1,3.486013E0,2.963111E1,4.382416E1,1.19520445E1,6.474024E0,4.2330155E0,4.9800186E0,5.727021E0,2.5149094E1,1.7679066E1,1.8177067E1,1.2450047E0,2.2410083E0,6.723025E0,2.2908085E1],"tree_param":{"num_deleted":"0","num_feature":"12","num_nodes":"45","size_leaf_vector":"1"}},{"base_weights":[1.8902648E-2,-1.0287941E-2,2.4764197E-1,-1.6806664E0,9.429073E-1,-1.2117416E0,1.6599485E0,-4.61204E-3,-1.2243708E0,1.1560729E-4,1.3856537E0,-4.1504805E-3,-2.7522314E-2,2.8329084E-3,5.045148E-3,-3.6273836E-3,-9.6603394E-1,1.31979E0,4.5691985E-3,1.0145571E-3,-4.612003E-3,-6.453756E-1,-3.8826603E-3,9.230217E-1,3.6826064E-3,-2.2574288E-3,3.593393E-3,2.4212082E-3,-9.195798E-4],"categories":[],"categories_nodes":[],"categories_segments":[],"categories_sizes":[],"default_left":[0,0,0,0,0,0,0,0,0,0,0,0,0,0,0,0,0,0,0,0,0,0,0,0,0,0,0,0,0],"id":33,"left_children":[1,3,5,7,9,11,13,-1,15,-1,17,-1,19,-1,-1,-1,21,23,-1,-1,-1,25,-1,27,-1,-1,-1,-1,-1],"loss_changes":[2.688405E0,5.6852155E2,9.391839E1,1.1863647E1,9.016046E1,1.2767361E1,4.6472588E0,0E0,2.609188E0,0E0,4.789337E0,0E0,5.2958527E0,0E0,0E0,0E0,3.8953857E0,9.666885E0,0E0,0E0,0E0,7.5261497E0,0E0,3.5233803E0,0E0,0E0,0E0,0E0,0E0],"parents":[2147483647,0,0,1,1,2,2,3,3,4,4,5,5,6,6,8,8,10,10,12,12,16,16,17,17,21,21,23,23],"right_children":[2,4,6,8,10,12,14,-1,16,-1,18,-1,20,-1,-1,-1,22,24,-1,-1,-1,26,-1,28,-1,-1,-1,-1,-1],"split_conditions":[1E0,2.3436446E-1,3.7498313E-1,1.4061868E-1,4.2185605E-1,2.3436446E-1,6.0934764E-1,-4.61204E-3,1.8749157E-1,1.1560729E-4,1E0,-4.1504805E-3,8.323676E-1,2.8329084E-3,5.045148E-3,-3.6273836E-3,5.4802555E-1,5.624747E-1,4.5691985E-3,1.0145571E-3,-4.612003E-3,5.190523E-1,-3.8826603E-3,9.5746696E-1,3.6826064E-3,-2.2574288E-3,3.593393E-3,2.4212082E-3,-9.195798E-4],"split_indices":[7,2,2,2,2,2,2,0,2,0,3,0,0,0,0,0,1,2,0,0,0,1,0,1,0,0,0,0,0],"split_type":[0,0,0,0,0,0,0,0,0,0,0,0,0,0,0,0,0,0,0,0,0,0,0,0,0,0,0,0,0],"sum_hessian":[4.026345E2,3.5706732E2,4.556717E1,1.2972948E2,2.2733784E2,2.2410084E1,2.3157085E1,9.0138336E1,3.959115E1,7.519828E1,1.5213956E2,1.5936059E1,6.474024E0,1.0209038E1,1.2948048E1,1.9920074E1,1.9671072E1,1.337135E2,1.8426067E1,5.229019E0,1.2450047E0,1.2948048E1,6.723025E0,4.2081158E1,9.163234E1,1.1454042E1,1.4940056E0,4.008915E1,1.9920074E0],"tree_param":{"num_deleted":"0","num_feature":"12","num_nodes":"29","size_leaf_vector":"1"}},{"base_weights":[2.8065702E-2,-1.4398209E0,1.1678178E0,-4.3433234E-3,-6.1388344E-1,3.351309E-1,1.5649045E0,-2.458106E-3,-4.3869957E-1,3.8278366E-3,3.0573776E-1,2.9900735E-3,1.6605648E0,-8.078556E-2,-6.8583053E-1,1.5444189E-4,5.880429E-1,4.198029E-3,1.2425095E0,-2.140441E-1,3.2651725E-3,-3.8546014E-3,-5.235455E-1,9.4502455E-1,3.5005477E-1,9.875222E-1,5.234491E-3,3.1123377E-4,-2.2951998E-3,-8.994065E-4,-3.6273706E-3,8.035599E-4,3.207274E-3,3.1123392E-4,2.6433058E-3,1.8585466E-3,5.234478E-3],"categories":[],"categories_nodes":[],"categories_segments":[],"categories_sizes":[],"default_left":[0,0,0,0,0,0,0,0,0,0,0,0,0,0,0,0,0,0,0,0,0,0,0,0,0,0,0,0,0,0,0,0,0,0,0,0,0],"id":34,"left_children":[1,3,5,-1,7,9,11,-1,13,-1,15,-1,17,19,21,-1,23,-1,25,27,-1,-1,29,31,33,35,-1,-1,-1,-1,-1,-1,-1,-1,-1,-1,-1],"loss_changes":[6.852827E2,4.9042664E1,7.623932E1,0E0,3.4927235E0,2.6831493E0,5.1578674E0,0E0,3.1274838E0,0E0,4.9825964E0,0E0,2.6403198E0,2.718458E0,3.0084925E0,0E0,2.8558502E0,0E0,3.0598068E0,3.2493815E0,0E0,0E0,2.6483836E0,3.0137777E0,3.2762403E0,2.7538214E0,0E0,0E0,0E0,0E0,0E0,0E0,0E0,0E0,0E0,0E0,0E0],"parents":[2147483647,0,0,1,1,2,2,4,4,5,5,6,6,8,8,10,10,12,12,13,13,14,14,16,16,18,18,19,19,22,22,23,23,24,24,25,25],"right_children":[2,4,6,-1,8,10,12,-1,14,-1,16,-1,18,20,22,-1,24,-1,26,28,-1,-1,30,32,34,36,-1,-1,-1,-1,-1,-1,-1,-1,-1,-1,-1],"split_conditions":[2.8123736E-1,1.8749157E-1,4.6872893E-1,-4.3433234E-3,3.7180197E-1,3.4238912E-2,5.624747E-1,-2.458106E-3,5.4802555E-1,3.8278366E-3,3.7498313E-1,2.9900735E-3,1E0,1E0,5.9290135E-1,1.5444189E-4,4.485334E-1,4.198029E-3,7.2021645E-1,6.080653E-1,3.2651725E-3,-3.8546014E-3,1E0,1E0,7.565547E-1,9.843308E-1,5.234491E-3,3.1123377E-4,-2.2951998E-3,-8.994065E-4,-3.6273706E-3,8.035599E-4,3.207274E-3,3.1123392E-4,2.6433058E-3,1.8585466E-3,5.234478E-3],"split_indices":[2,2,2,0,1,1,2,0,1,0,2,0,9,6,1,0,1,0,0,0,0,0,3,11,1,2,0,0,0,0,0,0,0,0,0,0,0],"split_type":[0,0,0,0,0,0,0,0,0,0,0,0,0,0,0,0,0,0,0,0,0,0,0,0,0,0,0,0,0,0,0,0,0,0,0,0,0],"sum_hessian":[4.096065E2,1.7903166E2,2.3057486E2,1.2773747E2,5.129419E1,7.445128E1,1.5612358E2,1.5936059E1,3.535813E1,1.7430065E0,7.270827E1,3.3864124E1,1.2225945E2,1.4442054E1,2.0916077E1,3.9093143E1,3.3615124E1,1.088134E2,1.344605E1,1.3197049E1,1.2450047E0,3.237012E0,1.7679066E1,1.344605E1,2.0169075E1,1.0458038E1,2.9880111E0,8.964033E0,4.2330155E0,1.5189056E1,2.4900093E0,4.9800186E0,8.466031E0,1.5438057E1,4.7310176E0,8.715033E0,1.7430065E0],"tree_param":{"num_deleted":"0","num_feature":"12","num_nodes":"37","size_leaf_vector":"1"}},{"base_weights":[6.064903E-3,-3.6102107E-3,1.0882295E0,5.9101784E-1,1.5448524E0,3.3466774E-1,9.45025E-1,1.4703048E0,5.073086E-3,6.808787E-1,5.769884E-2,7.7615184E-1,3.3003627E-3,3.4584727E-3,4.6664346E-3,1.9673917E-4,1.0346777E0,-9.195837E-4,6.6652166E-4,2.449625E-3,1.2694094E-1,8.035599E-4,3.1908825E-3,-9.843623E-4,1.9523203E-3],"categories":[],"categories_nodes":[],"categories_segments":[],"categories_sizes":[],"default_left":[0,0,0,0,0,0,0,0,0,0,0,0,0,0,0,0,0,0,0,0,0,0,0,0,0],"id":35,"left_children":[1,-1,3,5,7,9,11,13,-1,15,17,19,-1,-1,-1,-1,21,-1,-1,-1,23,-1,-1,-1,-1],"loss_changes":[6.486067E2,0E0,5.314081E1,1.0168545E1,4.768524E0,6.2317967E0,3.1874657E0,2.7619781E0,0E0,6.1379995E0,3.346111E0,4.793665E0,0E0,0E0,0E0,0E0,3.4279594E0,0E0,0E0,0E0,2.9944153E0,0E0,0E0,0E0,0E0],"parents":[2147483647,0,0,2,2,3,3,4,4,5,5,6,6,7,7,9,9,10,10,11,11,16,16,20,20],"right_children":[2,-1,4,6,8,10,12,14,-1,16,18,20,-1,-1,-1,-1,22,-1,-1,-1,24,-1,-1,-1,-1],"split_conditions":[2.8123736E-1,-3.6102107E-3,5.624747E-1,4.2185605E-1,1E0,4.318479E-1,6.708283E-1,1E0,5.073086E-3,2.2773747E-1,3.2811025E-1,5.166207E-1,3.3003627E-3,3.4584727E-3,4.6664346E-3,1.9673917E-4,1E0,-9.195837E-4,6.6652166E-4,2.449625E-3,6.1832017E-1,8.035599E-4,3.1908825E-3,-9.843623E-4,1.9523203E-3],"split_indices":[2,0,2,2,3,1,1,7,0,1,2,1,0,0,0,0,11,0,0,0,1,0,0,0,0],"split_type":[0,0,0,0,0,0,0,0,0,0,0,0,0,0,0,0,0,0,0,0,0,0,0,0,0],"sum_hessian":[4.053735E2,1.7131264E2,2.3406087E2,1.12050415E2,1.2201045E2,6.498924E1,4.7061172E1,1.06821396E2,1.5189056E1,2.8884108E1,3.6105133E1,3.3117123E1,1.3944052E1,9.3873344E1,1.2948048E1,1.070704E1,1.8177067E1,1.19520445E1,2.415309E1,2.465109E1,8.466031E0,4.9800186E0,1.3197049E1,4.7310176E0,3.7350137E0],"tree_param":{"num_deleted":"0","num_feature":"12","num_nodes":"25","size_leaf_vector":"1"}},{"base_weights":[-2.3727803E-3,-2.172917E-1,4.1680884E-2,-1.3488358E0,1.4303952E0,-3.5881354E-3,1.142406E0,-1.4406134E0,-1.3633579E-4,2.6518053E-3,4.4913692E-3,3.4208655E-1,1.5826603E0,-4.6120384E-3,-8.1432E-1,7.962823E-1,1.5721278E-1,4.3800552E-3,3.4274634E-3,-2.6427282E-3,1.2694073E-1,9.4711965E-1,-6.7341805E-4,3.9635655E-2,3.9216247E-3,2.7728574E-3,-2.9709288E-3,9.266422E-4,3.4671756E-3,-1.6152617E-3,3.4181334E-4],"categories":[],"categories_nodes":[],"categories_segments":[],"categories_sizes":[],"default_left":[0,0,0,0,0,0,0,0,0,0,0,0,0,0,0,0,0,0,0,0,0,0,0,0,0,0,0,0,0,0,0],"id":36,"left_children":[1,3,5,7,9,-1,11,13,-1,-1,-1,15,17,-1,19,21,23,-1,-1,-1,25,27,-1,29,-1,-1,-1,-1,-1,-1,-1],"loss_changes":[3.8804984E0,1.2998862E2,5.635217E2,4.905922E0,3.9752083E0,0E0,6.922211E1,1.0646965E1,0E0,0E0,0E0,5.85433E0,4.7714844E0,0E0,3.9532938E0,3.2580862E0,8.402823E0,0E0,0E0,0E0,4.685364E0,4.699339E0,0E0,3.19288E0,0E0,0E0,0E0,0E0,0E0,0E0,0E0],"parents":[2147483647,0,0,1,1,2,2,3,3,4,4,6,6,7,7,11,11,12,12,14,14,15,15,16,16,20,20,21,21,23,23],"right_children":[2,4,6,8,10,-1,12,14,-1,-1,-1,16,18,-1,20,22,24,-1,-1,-1,26,28,-1,30,-1,-1,-1,-1,-1,-1,-1],"split_conditions":[2.5823176E-1,3.7498313E-1,2.8123736E-1,1E0,6.562205E-1,-3.5881354E-3,4.6872893E-1,1.8749157E-1,-1.3633579E-4,2.6518053E-3,4.4913692E-3,4.270111E-1,1E0,-4.6120384E-3,7.2021645E-1,8.323676E-1,9.4451874E-1,4.3800552E-3,3.4274634E-3,-2.6427282E-3,8.323676E-1,3.4493604E-1,-6.7341805E-4,4.7692958E-1,3.9216247E-3,2.7728574E-3,-2.9709288E-3,9.266422E-4,3.4671756E-3,-1.6152617E-3,3.4181334E-4],"split_indices":[1,2,2,3,2,0,2,2,0,0,0,1,11,0,0,0,0,0,0,0,0,1,0,1,0,0,0,0,0,0,0],"split_type":[0,0,0,0,0,0,0,0,0,0,0,0,0,0,0,0,0,0,0,0,0,0,0,0,0,0,0,0,0,0,0],"sum_hessian":[4.0985553E2,6.972026E1,3.4013525E2,4.1334152E1,2.8386105E1,1.4367354E2,1.9646173E2,3.8595142E1,2.73901E0,1.5189056E1,1.3197049E1,6.972026E1,1.2674147E2,2.2659084E1,1.5936059E1,2.0169075E1,4.955118E1,6.0258224E1,6.6483246E1,1.2450047E1,3.486013E0,1.7679066E1,2.4900093E0,4.581617E1,3.7350137E0,1.9920074E0,1.4940056E0,7.9680295E0,9.711036E0,5.727021E0,4.008915E1],"tree_param":{"num_deleted":"0","num_feature":"12","num_nodes":"31","size_leaf_vector":"1"}},{"base_weights":[3.611356E-2,-3.7328838E-3,1.1226214E0,2.0599714E-1,1.4505404E0,5.210392E-1,-5.717416E-5,2.5707074E-3,3.962091E-3,-4.900543E-5,8.5713136E-1,-3.041744E-4,2.8713343E-3],"categories":[],"categories_nodes":[],"categories_segments":[],"categories_sizes":[],"default_left":[0,0,0,0,0,0,0,0,0,0,0,0,0],"id":37,"left_children":[1,-1,3,5,7,9,-1,-1,-1,-1,11,-1,-1],"loss_changes":[6.898548E2,0E0,7.214993E1,4.5691814E0,1.1759949E1,4.844647E0,0E0,0E0,0E0,0E0,5.062954E0,0E0,0E0],"parents":[2147483647,0,0,2,2,3,3,4,4,5,5,10,10],"right_children":[2,-1,4,6,8,10,-1,-1,-1,-1,12,-1,-1],"split_conditions":[2.8123736E-1,-3.7328838E-3,4.2185605E-1,4.318479E-1,5.624747E-1,1E0,-5.717416E-5,2.5707074E-3,3.962091E-3,-4.900543E-5,2.5522164E-1,-3.041744E-4,2.8713343E-3],"split_indices":[2,0,2,1,2,11,0,0,0,0,1,0,0],"split_type":[0,0,0,0,0,0,0,0,0,0,0,0,0],"sum_hessian":[4.073655E2,1.6732861E2,2.400369E2,6.3246235E1,1.7679065E2,2.6643099E1,3.6603134E1,5.154319E1,1.2524747E2,1.0209038E1,1.6434061E1,3.9840147E0,1.2450047E1],"tree_param":{"num_deleted":"0","num_feature":"12","num_nodes":"13","size_leaf_vector":"1"}},{"base_weights":[-4.2647295E-2,-1.5273974E0,1.0812926E0,-4.61204E-3,-1.0012423E0,4.49757E-1,1.4929684E0,-2.7139098E-3,-2.2741595E-1,3.7127396E-4,6.9077057E-1,1.0128337E0,1.5589263E0,-1.6152617E-3,1.6539393E-3,7.487151E-1,-2.9709288E-3,6.745836E-1,4.003683E-3,3.6856127E-3,5.037573E-3,6.2894714E-1,1.4425415E0,3.6797824E-3,4.6620023E-2,1.806912E-3,-2.6427198E-3,4.7421716E-3,8.582608E-4,-1.3298538E-3,2.2805345E-3],"categories":[],"categories_nodes":[],"categories_segments":[],"categories_sizes":[],"default_left":[0,0,0,0,0,0,0,0,0,0,0,0,0,0,0,0,0,0,0,0,0,0,0,0,0,0,0,0,0,0,0],"id":38,"left_children":[1,3,5,-1,7,9,11,-1,13,-1,15,17,19,-1,-1,21,-1,23,-1,-1,-1,25,27,-1,29,-1,-1,-1,-1,-1,-1],"loss_changes":[6.7896826E2,3.2621582E1,6.0205627E1,0E0,5.761734E0,6.5705585E0,4.4395447E0,0E0,3.294254E0,0E0,5.572319E0,3.5516052E0,3.4031372E0,0E0,0E0,4.0762215E0,0E0,5.6847095E0,0E0,0E0,0E0,7.713089E0,3.8783169E0,0E0,3.2396019E0,0E0,0E0,0E0,0E0,0E0,0E0],"parents":[2147483647,0,0,1,1,2,2,4,4,5,5,6,6,8,8,10,10,11,11,12,12,15,15,17,17,21,21,22,22,24,24],"right_children":[2,4,6,-1,8,10,12,-1,14,-1,16,18,20,-1,-1,22,-1,24,-1,-1,-1,26,28,-1,30,-1,-1,-1,-1,-1,-1],"split_conditions":[2.8123736E-1,1.4061868E-1,5.156018E-1,-4.61204E-3,7.804371E-1,3.7498313E-1,5.624747E-1,-2.7139098E-3,1E0,3.7127396E-4,9.771636E-1,6.4793706E-1,1E0,-1.6152617E-3,1.6539393E-3,7.565547E-1,-2.9709288E-3,3.9169726E-1,4.003683E-3,3.6856127E-3,5.037573E-3,7.0170516E-1,8.605001E-1,3.6797824E-3,5.62579E-1,1.806912E-3,-2.6427198E-3,4.7421716E-3,8.582608E-4,-1.3298538E-3,2.2805345E-3],"split_indices":[2,2,2,0,1,2,2,0,11,0,1,1,3,0,0,1,0,1,0,0,0,1,1,0,1,0,0,0,0,0,0],"split_type":[0,0,0,0,0,0,0,0,0,0,0,0,0,0,0,0,0,0,0,0,0,0,0,0,0,0,0,0,0,0,0],"sum_hessian":[4.068675E2,1.7529665E2,2.3157086E2,1.0482939E2,7.046726E1,9.138334E1,1.4018752E2,6.200123E1,8.466031E0,4.083615E1,5.0547188E1,1.6932062E1,1.23255455E2,5.727021E0,2.73901E0,4.905318E1,1.4940056E0,1.095604E1,5.9760222E0,1.1080541E2,1.2450047E1,4.1832153E1,7.221027E0,4.7310176E0,6.2250233E0,3.9342144E1,2.4900093E0,4.9800186E0,2.2410083E0,3.7350137E0,2.4900093E0],"tree_param":{"num_deleted":"0","num_feature":"12","num_nodes":"31","size_leaf_vector":"1"}},{"base_weights":[1.6632492E-3,3.3513095E-2,-2.3450333E-1,-1.5290272E0,1.1436918E0,-1.4986022E0,1.1626586E0,-1.7219571E0,-3.4004125E-1,3.018561E-1,1.5602552E0,-4.487398E-3,-4.9091193E-1,3.1123348E-4,1.4388498E0,-4.61204E-3,-3.327707E-3,-1.3298566E-3,4.8129725E-1,8.300282E-5,5.994173E-1,3.0004166E-3,1.6471158E0,-2.9709388E-3,3.1123322E-4,1.0872998E0,4.8949653E-3,4.0036696E-3,-1.3298515E-3,4.8904374E-1,3.8278475E-3,3.9058172E-3,5.2345037E-3,3.6377667E-3,-1.3298515E-3,2.3384627E-3,3.805758E-4],"categories":[],"categories_nodes":[],"categories_segments":[],"categories_sizes":[],"default_left":[0,0,0,0,0,0,0,0,0,0,0,0,0,0,0,0,0,0,0,0,0,0,0,0,0,0,0,0,0,0,0,0,0,0,0,0,0],"id":39,"left_children":[1,3,5,7,9,11,13,15,17,19,21,-1,23,-1,25,-1,-1,-1,27,-1,29,-1,31,-1,-1,33,-1,-1,-1,35,-1,-1,-1,-1,-1,-1,-1],"loss_changes":[3.1521792E0,6.405695E2,8.7954666E1,3.5184998E1,7.570566E1,8.737545E0,6.7666874E0,7.6588135E0,3.559135E0,5.6989865E0,4.221161E0,0E0,2.8833058E0,0E0,3.6609344E0,0E0,0E0,0E0,4.990505E0,0E0,3.5950031E0,0E0,3.0281372E0,0E0,0E0,7.3997116E0,0E0,0E0,0E0,4.7127576E0,0E0,0E0,0E0,0E0,0E0,0E0,0E0],"parents":[2147483647,0,0,1,1,2,2,3,3,4,4,5,5,6,6,7,7,8,8,9,9,10,10,12,12,14,14,18,18,20,20,22,22,25,25,29,29],"right_children":[2,4,6,8,10,12,14,16,18,20,22,-1,24,-1,26,-1,-1,-1,28,-1,30,-1,32,-1,-1,34,-1,-1,-1,36,-1,-1,-1,-1,-1,-1,-1],"split_conditions":[1E0,2.8123736E-1,3.2811025E-1,2.3436446E-1,4.6872893E-1,1.8749157E-1,4.2185605E-1,1.4061868E-1,7.804371E-1,3.7498313E-1,5.624747E-1,-4.487398E-3,3.861394E-1,3.1123348E-4,5.62579E-1,-4.61204E-3,-3.327707E-3,-1.3298566E-3,8.43206E-1,8.300282E-5,9.4451874E-1,3.0004166E-3,1E0,-2.9709388E-3,3.1123322E-4,5.1067895E-1,4.8949653E-3,4.0036696E-3,-1.3298515E-3,4.2178094E-1,3.8278475E-3,3.9058172E-3,5.2345037E-3,3.6377667E-3,-1.3298515E-3,2.3384627E-3,3.805758E-4],"split_indices":[8,2,2,2,2,2,2,2,1,2,2,0,1,0,1,0,0,0,1,0,0,0,3,0,0,1,0,0,0,1,0,0,0,0,0,0,0],"split_type":[0,0,0,0,0,0,0,0,0,0,0,0,0,0,0,0,0,0,0,0,0,0,0,0,0,0,0,0,0,0,0,0,0,0,0,0,0],"sum_hessian":[4.1906854E2,3.6926837E2,4.9800186E1,1.5338457E2,2.158838E2,2.6145098E1,2.3655088E1,1.3197049E2,2.141408E1,7.1463264E1,1.4442053E2,1.9671072E1,6.474024E0,4.9800186E0,1.867507E1,9.188134E1,4.008915E1,1.7181063E1,4.2330155E0,3.759914E1,3.3864124E1,2.963111E1,1.1478943E2,2.9880111E0,3.486013E0,1.1454042E1,7.221027E0,1.9920074E0,2.2410083E0,3.0378113E1,3.486013E0,1.0333538E2,1.1454042E1,9.213034E0,2.2410083E0,1.2699047E1,1.7679066E1],"tree_param":{"num_deleted":"0","num_feature":"12","num_nodes":"37","size_leaf_vector":"1"}},{"base_weights":[7.512924E-2,-1.6855195E0,1.0735247E0,-4.61204E-3,-3.009113E-3,1.5098926E-1,3.7430455E-3,8.678058E-2,7.1753573E-1,-2.334735E-1,4.886493E-4,5.2344734E-3,1.0145576E-3,-8.6757756E-4,2.421195E-3],"categories":[],"categories_nodes":[],"categories_segments":[],"categories_sizes":[],"default_left":[0,0,0,0,0,0,0,0,0,0,0,0,0,0,0],"id":40,"left_children":[1,3,5,-1,-1,7,-1,9,11,13,-1,-1,-1,-1,-1],"loss_changes":[6.955049E2,1.2829895E1,1.0554617E2,0E0,0E0,3.0253577E0,0E0,2.6918657E0,3.6447759E0,2.8547144E0,0E0,0E0,0E0,0E0,0E0],"parents":[2147483647,0,0,1,1,2,2,5,5,7,7,8,8,9,9],"right_children":[2,4,6,-1,-1,8,-1,10,12,14,-1,-1,-1,-1,-1],"split_conditions":[2.3436446E-1,1.4061868E-1,4.2185605E-1,-4.61204E-3,-3.009113E-3,7.804371E-1,3.7430455E-3,2.8123736E-1,7.9223305E-1,1E0,4.886493E-4,5.2344734E-3,1.0145576E-3,-8.6757756E-4,2.421195E-3],"split_indices":[2,2,2,0,0,1,0,2,1,9,0,0,0,0,0],"split_type":[0,0,0,0,0,0,0,0,0,0,0,0,0,0,0],"sum_hessian":[3.9566248E2,1.4317554E2,2.5248694E2,1.00347374E2,4.282816E1,8.3166306E1,1.6932063E2,7.470028E1,8.466031E0,1.9422071E1,5.5278206E1,1.4940056E0,6.972026E0,1.7679066E1,1.7430065E0],"tree_param":{"num_deleted":"0","num_feature":"12","num_nodes":"15","size_leaf_vector":"1"}},{"base_weights":[-9.406273E-3,-1.4794786E0,1.1666516E0,-1.782947E0,-6.207276E-1,1.1369511E0,1.5612435E0,-4.61204E-3,-1.3483418E0,-2.2315548E-3,-3.4918836E-1,3.0543214E-1,1.5329125E0,1.2533928E0,5.2344985E-3,-1.4397589E0,-3.9208855E-4,-5.1197565E-1,3.046373E-3,6.116365E-1,1.833568E-4,1.4839264E0,4.8764483E-3,7.9628134E-1,4.6552885E-3,-1.616869E0,-5.4239905E-1,-2.7886012E-3,-2.3516159E-1,2.2256117E-1,1.0741217E0,1.4225844E0,4.750249E-3,3.5934048E-3,1.2694067E-1,-4.3266304E-3,-3.9208855E-4,3.1123287E-4,-4.612003E-3,4.3747143E-4,-2.3741839E-3,1.5420507E-3,-4.8284174E-4,1.9523236E-3,4.5311702E-3,3.8778721E-3,3.0996366E-3,2.421195E-3,-2.6427093E-3],"categories":[],"categories_nodes":[],"categories_segments":[],"categories_sizes":[],"default_left":[0,0,0,0,0,0,0,0,0,0,0,0,0,0,0,0,0,0,0,0,0,0,0,0,0,0,0,0,0,0,0,0,0,0,0,0,0,0,0,0,0,0,0,0,0,0,0,0,0],"id":41,"left_children":[1,3,5,7,9,11,13,-1,15,-1,17,19,21,23,-1,25,-1,27,-1,29,-1,31,-1,33,-1,35,37,-1,39,41,43,45,-1,-1,47,-1,-1,-1,-1,-1,-1,-1,-1,-1,-1,-1,-1,-1,-1],"loss_changes":[6.9740234E2,4.672119E1,2.6263428E0,5.6498413E0,3.6792011E0,6.862012E1,2.7706184E0,0E0,2.6510925E0,0E0,6.2582545E0,4.7481556E0,3.1537476E0,3.01153E0,0E0,3.6012344E0,0E0,3.7933683E0,0E0,5.1974516E0,0E0,3.546753E0,0E0,2.677351E0,0E0,4.0752296E0,3.3466754E0,0E0,4.605887E0,2.674278E0,2.837906E0,2.8285217E0,0E0,0E0,3.0980742E0,0E0,0E0,0E0,0E0,0E0,0E0,0E0,0E0,0E0,0E0,0E0,0E0,0E0,0E0],"parents":[2147483647,0,0,1,1,2,2,3,3,4,4,5,5,6,6,8,8,10,10,11,11,12,12,13,13,15,15,17,17,19,19,21,21,23,23,25,25,26,26,28,28,29,29,30,30,31,31,34,34],"right_children":[2,4,6,8,10,12,14,-1,16,-1,18,20,22,24,-1,26,-1,28,-1,30,-1,32,-1,34,-1,36,38,-1,40,42,44,46,-1,-1,48,-1,-1,-1,-1,-1,-1,-1,-1,-1,-1,-1,-1,-1,-1],"split_conditions":[2.8123736E-1,1.8749157E-1,9.4451874E-1,1.4061868E-1,2.3436446E-1,4.6872893E-1,6.562205E-1,-4.61204E-3,9.4451874E-1,-2.2315548E-3,1E0,4.2528647E-1,1E0,5.599839E-1,5.2344985E-3,1E0,-3.9208855E-4,3.6373737E-1,3.046373E-3,3.7498313E-1,1.833568E-4,1E0,4.8764483E-3,5.156018E-1,4.6552885E-3,8.43206E-1,6.6765964E-1,-2.7886012E-3,6.080653E-1,3.2811025E-1,3.805066E-1,1E0,4.750249E-3,3.5934048E-3,4.183289E-1,-4.3266304E-3,-3.9208855E-4,3.1123287E-4,-4.612003E-3,4.3747143E-4,-2.3741839E-3,1.5420507E-3,-4.8284174E-4,1.9523236E-3,4.5311702E-3,3.8778721E-3,3.0996366E-3,2.421195E-3,-2.6427093E-3],"split_indices":[2,2,0,2,2,2,2,0,0,0,5,1,3,1,0,3,0,1,0,2,0,7,0,2,0,1,1,0,0,2,1,11,0,0,1,0,0,0,0,0,0,0,0,0,0,0,0,0,0],"split_type":[0,0,0,0,0,0,0,0,0,0,0,0,0,0,0,0,0,0,0,0,0,0,0,0,0,0,0,0,0,0,0,0,0,0,0,0,0,0,0,0,0,0,0,0,0,0,0,0,0],"sum_hessian":[4.033815E2,1.7928067E2,2.2410083E2,1.3246849E2,4.6812172E1,2.0841377E2,1.5687058E1,1.080664E2,2.440209E1,2.2659084E1,2.415309E1,6.723025E1,1.4118352E2,1.0209038E1,5.47802E0,2.2659084E1,1.7430065E0,2.191208E1,2.2410083E0,2.8884108E1,3.834614E1,1.2748847E2,1.369505E1,5.9760222E0,4.2330155E0,1.892407E1,3.7350137E0,6.723025E0,1.5189056E1,1.5687058E1,1.3197049E1,1.12299416E2,1.5189056E1,2.9880111E0,2.9880111E0,1.7181063E1,1.7430065E0,2.4900093E0,1.2450047E0,9.711036E0,5.47802E0,7.9680295E0,7.7190285E0,9.711036E0,3.486013E0,5.6025208E1,5.6274208E1,1.7430065E0,1.2450047E0],"tree_param":{"num_deleted":"0","num_feature":"12","num_nodes":"49","size_leaf_vector":"1"}},{"base_weights":[8.821983E-3,-1.3731247E0,2.9674333E-3,-4.4119065E-3,-5.8752453E-1,-2.4479625E-3,-3.7506503E-1,4.870633E-2,-1.727697E-3,-3.867393E-1,5.994168E-1,-2.502062E-3,1.9523203E-3,8.205372E-4,5.2344664E-3],"categories":[],"categories_nodes":[],"categories_segments":[],"categories_sizes":[],"default_left":[0,0,0,0,0,0,0,0,0,0,0,0,0,0,0],"id":42,"left_children":[1,3,-1,-1,5,-1,7,9,-1,11,13,-1,-1,-1,-1],"loss_changes":[6.7473193E2,6.329831E1,0E0,0E0,5.8041077E0,0E0,6.121139E0,4.5977926E0,0E0,8.027637E0,3.441703E0,0E0,0E0,0E0,0E0],"parents":[2147483647,0,0,1,1,4,4,6,6,7,7,9,9,10,10],"right_children":[2,4,-1,-1,6,-1,8,10,-1,12,14,-1,-1,-1,-1],"split_conditions":[3.2811025E-1,1.8749157E-1,2.9674333E-3,-4.4119065E-3,2.3436446E-1,-2.4479625E-3,4.485334E-1,2.8123736E-1,-1.727697E-3,3.7180197E-1,1E0,-2.502062E-3,1.9523203E-3,8.205372E-4,5.2344664E-3],"split_indices":[2,2,0,0,2,0,1,2,0,1,9,0,0,0,0],"split_type":[0,0,0,0,0,0,0,0,0,0,0,0,0,0,0],"sum_hessian":[4.063695E2,1.889917E2,2.173778E2,1.2250845E2,6.6483246E1,2.2659084E1,4.382416E1,1.917307E1,2.465109E1,1.070704E1,8.466031E0,6.972026E0,3.7350137E0,7.221027E0,1.2450047E0],"tree_param":{"num_deleted":"0","num_feature":"12","num_nodes":"15","size_leaf_vector":"1"}},{"base_weights":[-2.7903512E-2,-1.5247298E0,1.1386681E0,-4.4784625E-3,-1.7697371E-3,2.5041184E-1,1.5946003E0,7.258254E-1,-2.7522352E-2,1.2127615E0,4.1802735E-3,2.8758284E-1,2.6190171E-3,-1.3785335E-1,3.7196432E-3,2.711838E-3,5.2344934E-3,5.2114352E-5,2.772862E-3,-6.4606906E-4,8.294726E-4],"categories":[],"categories_nodes":[],"categories_segments":[],"categories_sizes":[],"default_left":[0,0,0,0,0,0,0,0,0,0,0,0,0,0,0,0,0,0,0,0,0],"id":43,"left_children":[1,3,5,-1,-1,7,9,11,13,15,-1,17,-1,19,-1,-1,-1,-1,-1,-1,-1],"loss_changes":[7.048015E2,4.285028E1,9.186664E1,0E0,0E0,1.0166536E1,6.317932E0,4.259165E0,8.274805E0,3.3076973E0,0E0,2.7964268E0,0E0,2.7114964E0,0E0,0E0,0E0,0E0,0E0,0E0,0E0],"parents":[2147483647,0,0,1,1,2,2,5,5,6,6,7,7,8,8,9,9,11,11,13,13],"right_children":[2,4,6,-1,-1,8,10,12,14,16,-1,18,-1,20,-1,-1,-1,-1,-1,-1,-1],"split_conditions":[2.8123736E-1,1.8749157E-1,4.6872893E-1,-4.4784625E-3,-1.7697371E-3,4.1330963E-1,5.624747E-1,1E0,9.4451874E-1,8.164651E-1,4.1802735E-3,4.2185605E-1,2.6190171E-3,4.2185605E-1,3.7196432E-3,2.711838E-3,5.2344934E-3,5.2114352E-5,2.772862E-3,-6.4606906E-4,8.294726E-4],"split_indices":[2,2,2,0,0,1,2,11,0,1,0,2,0,2,0,0,0,0,0,0,0],"split_type":[0,0,0,0,0,0,0,0,0,0,0,0,0,0,0,0,0,0,0,0,0],"sum_hessian":[4.036305E2,1.7679065E2,2.2683984E2,1.2848448E2,4.830618E1,7.6941284E1,1.4989856E2,2.8386105E1,4.855518E1,3.3615124E1,1.1628343E2,1.2450047E1,1.5936059E1,4.531817E1,3.237012E0,3.0129112E1,3.486013E0,9.462035E0,2.9880111E0,3.5856133E1,9.462035E0],"tree_param":{"num_deleted":"0","num_feature":"12","num_nodes":"21","size_leaf_vector":"1"}},{"base_weights":[2.4503436E-2,-3.6930288E-3,1.1098608E0,6.86167E-2,1.4627999E0,4.7448364E-1,-2.3948672E-1,2.5532881E-3,1.64304E0,6.008381E-4,9.078386E-1,-1.2406197E-1,-4.6120198E-3,3.838176E-3,4.9026E-3,1.3626466E0,-6.7341805E-4,-2.1504003E-3,3.1123398E-4,1.2958837E-3,4.6190876E-3],"categories":[],"categories_nodes":[],"categories_segments":[],"categories_sizes":[],"default_left":[0,0,0,0,0,0,0,0,0,0,0,0,0,0,0,0,0,0,0,0,0],"id":44,"left_children":[1,-1,3,5,7,9,11,-1,13,-1,15,17,-1,-1,-1,19,-1,-1,-1,-1,-1],"loss_changes":[6.7308075E2,0E0,8.711447E1,7.504095E0,1.3446869E1,2.5746365E0,6.4637527E0,0E0,3.4303894E0,0E0,4.820966E0,6.024067E0,0E0,0E0,0E0,2.8150759E0,0E0,0E0,0E0,0E0,0E0],"parents":[2147483647,0,0,2,2,3,3,4,4,5,5,6,6,8,8,10,10,11,11,15,15],"right_children":[2,-1,4,6,8,10,12,-1,14,-1,16,18,-1,-1,-1,20,-1,-1,-1,-1,-1],"split_conditions":[2.8123736E-1,-3.6930288E-3,4.2185605E-1,4.3037453E-1,5.624747E-1,6.080653E-1,1E0,2.5532881E-3,7.23231E-1,6.008381E-4,8.323676E-1,5.228202E-1,-4.6120198E-3,3.838176E-3,4.9026E-3,1E0,-6.7341805E-4,-2.1504003E-3,3.1123398E-4,1.2958837E-3,4.6190876E-3],"split_indices":[2,0,2,1,2,0,9,0,1,0,0,1,0,0,0,11,0,0,0,0,0],"split_type":[0,0,0,0,0,0,0,0,0,0,0,0,0,0,0,0,0,0,0,0,0],"sum_hessian":[4.051245E2,1.6807562E2,2.3704887E2,6.0009224E1,1.7703966E2,2.5896095E1,3.4113125E1,5.3037197E1,1.2400246E2,1.6932062E1,8.964033E0,3.1872118E1,2.2410083E0,1.0184138E2,2.2161081E1,6.474024E0,2.4900093E0,7.9680295E0,2.3904089E1,2.4900093E0,3.9840147E0],"tree_param":{"num_deleted":"0","num_feature":"12","num_nodes":"21","size_leaf_vector":"1"}},{"base_weights":[-5.898713E-2,-1.5185236E0,1.108642E0,-4.4814986E-3,-6.6790193E-1,5.64286E-1,1.6000584E0,-9.742333E-1,-3.8013572E-1,2.630783E-1,9.364587E-1,1.4856642E0,4.5969607E-3,-2.642729E-3,3.1123252E-4,-1.8756872E-1,-3.381213E-3,5.0642993E-4,4.1404287E-3,6.6241413E-1,3.4316173E-3,3.483276E-3,4.9609877E-3,-8.6757756E-4,7.9628E-1,9.342909E-1,-4.8419604E-1,5.2344734E-3,-1.3298483E-3,2.0260816E-3,5.234482E-3,-2.9709388E-3,7.5880176E-4],"categories":[],"categories_nodes":[],"categories_segments":[],"categories_sizes":[],"default_left":[0,0,0,0,0,0,0,0,0,0,0,0,0,0,0,0,0,0,0,0,0,0,0,0,0,0,0,0,0,0,0,0,0],"id":45,"left_children":[1,3,5,-1,7,9,11,13,15,17,19,21,-1,-1,-1,23,-1,-1,-1,25,-1,-1,-1,-1,27,29,31,-1,-1,-1,-1,-1,-1],"loss_changes":[6.8744165E2,4.7170807E1,5.994818E1,0E0,4.2143745E0,1.1918991E1,3.7033997E0,2.6428165E0,4.7419467E0,4.7354236E0,6.036682E0,2.905243E0,0E0,0E0,0E0,3.3811164E0,0E0,0E0,0E0,9.314732E0,0E0,0E0,0E0,0E0,5.3546906E0,3.1298065E0,3.3070107E0,0E0,0E0,0E0,0E0,0E0,0E0],"parents":[2147483647,0,0,1,1,2,2,4,4,5,5,6,6,7,7,8,8,9,9,10,10,11,11,15,15,19,19,24,24,25,25,26,26],"right_children":[2,4,6,-1,8,10,12,14,16,18,20,22,-1,-1,-1,24,-1,-1,-1,26,-1,-1,-1,-1,28,30,32,-1,-1,-1,-1,-1,-1],"split_conditions":[2.8123736E-1,1.8749157E-1,5.624747E-1,-4.4814986E-3,2.3436446E-1,4.2185605E-1,6.509806E-1,1E0,8.323676E-1,