{"learner":{"attributes":{"scikit_learn":"{\"_estimator_type\": \"classifier\"}"},"feature_names":["purchases","time_spent","n_visits","customer_group_2","customer_group_3","customer_group_4","customer_group_5","customer_group_6","customer_group_7","customer_group_8","customer_group_9","onboarding_True"],"feature_types":["float","float","float","float","float","float","float","float","float","float","float","float"],"gradient_booster":{"model":{"cats":{"enc":[],"feature_segments":[],"sorted_idx":[]},"gbtree_model_param":{"num_parallel_tree":"100","num_trees":"100"},"iteration_indptr":[0,100],"tree_info":[0,0,0,0,0,0,0,0,0,0,0,0,0,0,0,0,0,0,0,0,0,0,0,0,0,0,0,0,0,0,0,0,0,0,0,0,0,0,0,0,0,0,0,0,0,0,0,0,0,0,0,0,0,0,0,0,0,0,0,0,0,0,0,0,0,0,0,0,0,0,0,0,0,0,0,0,0,0,0,0,0,0,0,0,0,0,0,0,0,0,0,0,0,0,0,0,0,0,0,0],"trees":[{"base_weights":[-8.742772E-2,-1.5525745E0,1.108457E0,-5.0063315E-3,-2.252223E-3,2.8957525E-1,1.4889599E0,-4.258205E-2,5.720084E-1,1.1893889E0,4.780729E-3,-3.843037E-4,5.917718E-3,6.0527585E-4,2.6771107E-3,1.0044136E0,4.510399E-3,2.3584533E-3,4.9356124E-3],"categories":[],"categories_nodes":[],"categories_segments":[],"categories_sizes":[],"default_left":[0,0,0,0,0,0,0,0,0,0,0,0,0,0,0,0,0,0,0],"id":0,"left_children":[1,3,5,-1,-1,7,9,11,13,15,-1,-1,-1,-1,-1,17,-1,-1,-1],"loss_changes":[7.7178186E2,3.7166718E1,7.556738E1,0E0,0E0,7.217955E0,1.1704163E1,7.3978667E0,5.792226E0,5.9106827E0,0E0,0E0,0E0,0E0,0E0,6.1117363E0,0E0,0E0,0E0],"parents":[2147483647,0,0,1,1,2,2,5,5,6,6,7,7,8,8,9,9,15,15],"right_children":[2,4,6,-1,-1,8,10,12,14,16,-1,-1,-1,-1,-1,18,-1,-1,-1],"split_conditions":[2.8123736E-1,1.8749157E-1,4.6872893E-1,-5.0063315E-3,-2.252223E-3,1E0,6.562205E-1,9.4451874E-1,3.7498313E-1,6.4793706E-1,4.780729E-3,-3.843037E-4,5.917718E-3,6.0527585E-4,2.6771107E-3,1E0,4.510399E-3,2.3584533E-3,4.9356124E-3],"split_indices":[2,2,2,0,0,11,2,0,2,1,0,0,0,0,0,6,0,0,0],"split_type":[0,0,0,0,0,0,0,0,0,0,0,0,0,0,0,0,0,0,0],"sum_hessian":[4.4047787E2,1.979536E2,2.4252429E2,1.4740695E2,5.0546642E1,7.694045E1,1.6558383E2,3.535775E1,4.1582706E1,7.295648E1,9.262734E1,3.386376E1,1.4939895E0,2.1911844E1,1.967086E1,5.1293636E1,2.1662848E1,4.2827698E1,8.46594E0],"tree_param":{"num_deleted":"0","num_feature":"12","num_nodes":"19","size_leaf_vector":"1"}},{"base_weights":[6.63316E-2,-1.4727948E0,1.1876299E0,-1.7827966E0,-6.722073E-1,3.5294086E-1,1.5891105E0,-5.213156E-3,-3.7804628E-3,-2.8756633E-3,-9.078024E-4,1.3261168E-4,1.7043606E-3,3.3077498E-3,4.6993457E-3],"categories":[],"categories_nodes":[],"categories_segments":[],"categories_sizes":[],"default_left":[0,0,0,0,0,0,0,0,0,0,0,0,0,0,0],"id":1,"left_children":[1,3,5,7,9,11,13,-1,-1,-1,-1,-1,-1,-1,-1],"loss_changes":[7.5245044E2,4.5606354E1,8.4526886E1,5.4441833E0,6.4590607E0,6.548313E0,7.1724854E0,0E0,0E0,0E0,0E0,0E0,0E0,0E0,0E0],"parents":[2147483647,0,0,1,1,2,2,3,3,4,4,5,5,6,6],"right_children":[2,4,6,8,10,12,14,-1,-1,-1,-1,-1,-1,-1,-1],"split_conditions":[2.8123736E-1,1.8749157E-1,4.6872893E-1,1.4061868E-1,2.3436446E-1,1E0,5.624747E-1,-5.213156E-3,-3.7804628E-3,-2.8756633E-3,-9.078024E-4,1.3261168E-4,1.7043606E-3,3.3077498E-3,4.6993457E-3],"split_indices":[2,2,2,2,2,11,2,0,0,0,0,0,0,0,0],"split_type":[0,0,0,0,0,0,0,0,0,0,0,0,0,0,0],"sum_hessian":[4.359959E2,1.837607E2,2.5223521E2,1.3246706E2,5.1293636E1,8.192042E1,1.7031479E2,1.07318245E2,2.5148823E1,2.4899824E1,2.6393814E1,3.7847733E1,4.407269E1,3.6104744E1,1.3421005E2],"tree_param":{"num_deleted":"0","num_feature":"12","num_nodes":"15","size_leaf_vector":"1"}},{"base_weights":[4.0416878E-2,-1.4765552E0,3.1941165E-3,-1.7816771E0,-6.70052E-1,-5.213156E-3,-3.640308E-3,-1.0604419E0,-9.078024E-4,-3.2940316E-3,2.2074385E-3],"categories":[],"categories_nodes":[],"categories_segments":[],"categories_sizes":[],"default_left":[0,0,0,0,0,0,0,0,0,0,0],"id":2,"left_children":[1,3,-1,5,7,-1,-1,9,-1,-1,-1],"loss_changes":[7.199529E2,4.4423553E1,0E0,6.087036E0,6.625574E0,0E0,0E0,5.50667E0,0E0,0E0,0E0],"parents":[2147483647,0,0,1,1,3,3,4,4,7,7],"right_children":[2,4,-1,6,8,-1,-1,10,-1,-1,-1],"split_conditions":[2.8123736E-1,1.8749157E-1,3.1941165E-3,1.4061868E-1,2.3436446E-1,-5.213156E-3,-3.640308E-3,1E0,-9.078024E-4,-3.2940316E-3,2.2074385E-3],"split_indices":[2,2,0,2,2,0,0,8,0,0,0],"split_type":[0,0,0,0,0,0,0,0,0,0,0],"sum_hessian":[4.26783E2,1.8052373E2,2.4625926E2,1.3097307E2,4.955065E1,1.0806524E2,2.2907839E1,2.3156836E1,2.6393814E1,2.1662848E1,1.4939895E0],"tree_param":{"num_deleted":"0","num_feature":"12","num_nodes":"11","size_leaf_vector":"1"}},{"base_weights":[1.6730767E-2,-1.511031E0,3.1377024E-3,-4.9711796E-3,-2.1093432E-3],"categories":[],"categories_nodes":[],"categories_segments":[],"categories_sizes":[],"default_left":[0,0,0,0,0],"id":3,"left_children":[1,3,-1,-1,-1],"loss_changes":[7.641597E2,4.0106995E1,0E0,0E0,0E0],"parents":[2147483647,0,0,1,1],"right_children":[2,4,-1,-1,-1],"split_conditions":[2.8123736E-1,1.8749157E-1,3.1377024E-3,-4.9711796E-3,-2.1093432E-3],"split_indices":[2,2,0,0,0],"split_type":[0,0,0,0,0],"sum_hessian":[4.4844583E2,1.8923866E2,2.5920715E2,1.3744702E2,5.1791634E1],"tree_param":{"num_deleted":"0","num_feature":"12","num_nodes":"5","size_leaf_vector":"1"}},{"base_weights":[-5.6271233E-2,-2.4137484E-1,1.4585324E-2,-1.3789226E0,1.3123488E0,-1.4867622E0,1.1297541E0,-5.082969E-3,-6.6505283E-1,1.7436632E-3,4.096335E-3,-4.935577E-3,-1.7697794E-3,4.4064128E-4,4.076398E-3,-2.9492395E-3,-1.9417526E-1,2.064746E-3,-3.357998E-3],"categories":[],"categories_nodes":[],"categories_segments":[],"categories_sizes":[],"default_left":[0,0,0,0,0,0,0,0,0,0,0,0,0,0,0,0,0,0,0],"id":4,"left_children":[1,3,5,7,9,11,13,-1,15,-1,-1,-1,-1,-1,-1,-1,17,-1,-1],"loss_changes":[5.7217035E0,2.1344278E2,5.281955E2,2.2647614E1,5.776352E0,3.353308E1,5.992958E1,0E0,5.0998363E0,0E0,0E0,0E0,0E0,0E0,0E0,0E0,1.1895852E1,0E0,0E0],"parents":[2147483647,0,0,1,1,2,2,3,3,4,4,5,5,6,6,8,8,16,16],"right_children":[2,4,6,8,10,12,14,-1,16,-1,-1,-1,-1,-1,-1,-1,18,-1,-1],"split_conditions":[3.552754E-1,3.7498313E-1,2.8123736E-1,1.8749157E-1,4.6872893E-1,1.8749157E-1,4.2185605E-1,-5.082969E-3,2.8123736E-1,1.7436632E-3,4.096335E-3,-4.935577E-3,-1.7697794E-3,4.4064128E-4,4.076398E-3,-2.9492395E-3,3.2811025E-1,2.064746E-3,-3.357998E-3],"split_indices":[1,2,2,2,2,2,2,0,2,0,0,0,0,0,0,0,2,0,0],"split_type":[0,0,0,0,0,0,0,0,0,0,0,0,0,0,0,0,0,0,0],"sum_hessian":[4.362449E2,1.20764145E2,3.1548077E2,6.9719505E1,5.104464E1,1.3445905E2,1.8102171E2,4.2578697E1,2.7140808E1,9.959929E0,4.108471E1,9.98483E1,3.4610756E1,4.706067E1,1.3396106E2,1.4690896E1,1.2449912E1,6.473954E0,5.975958E0],"tree_param":{"num_deleted":"0","num_feature":"12","num_nodes":"19","size_leaf_vector":"1"}},{"base_weights":[6.1754704E-2,-1.4935123E0,1.1560917E0,-1.7835289E0,-7.1626735E-1,3.3999938E-1,4.3367525E-3,-5.213156E-3,-3.8350415E-3,-2.9869722E-3,-3.5481897E-1,6.931145E-5,6.641475E-1,-4.5174626E-3,-3.1025344E-4,1.615625E-3,5.917731E-3],"categories":[],"categories_nodes":[],"categories_segments":[],"categories_sizes":[],"default_left":[0,0,0,0,0,0,0,0,0,0,0,0,0,0,0,0,0],"id":5,"left_children":[1,3,5,7,9,11,-1,-1,-1,-1,13,-1,15,-1,-1,-1,-1],"loss_changes":[7.551966E2,4.1309906E1,8.6855865E1,5.1977234E0,6.5060616E0,8.8728695E0,0E0,0E0,0E0,0E0,7.7113504E0,0E0,5.116905E0,0E0,0E0,0E0,0E0],"parents":[2147483647,0,0,1,1,2,2,3,3,4,4,5,5,10,10,12,12],"right_children":[2,4,6,8,10,12,-1,-1,-1,-1,14,-1,16,-1,-1,-1,-1],"split_conditions":[2.8123736E-1,1.8749157E-1,4.6872893E-1,1.4061868E-1,2.3436446E-1,3.7498313E-1,4.3367525E-3,-5.213156E-3,-3.8350415E-3,-2.9869722E-3,2.841924E-1,6.931145E-5,1E0,-4.5174626E-3,-3.1025344E-4,1.615625E-3,5.917731E-3],"split_indices":[2,2,2,2,2,2,0,0,0,0,1,0,0,0,0,0,0],"split_type":[0,0,0,0,0,0,0,0,0,0,0,0,0,0,0,0,0],"sum_hessian":[4.4371487E2,1.8326271E2,2.6045215E2,1.3346306E2,4.979965E1,8.690038E1,1.7355177E2,1.07318245E2,2.6144815E1,2.4899824E1,2.4899824E1,4.407269E1,4.2827698E1,3.9839718E0,2.0915852E1,4.058671E1,2.2409842E0],"tree_param":{"num_deleted":"0","num_feature":"12","num_nodes":"17","size_leaf_vector":"1"}},{"base_weights":[-1.9651733E-2,-1.5110996E0,1.1371956E0,-5.213156E-3,-9.7283685E-1,3.2910478E-1,1.5535594E0,-3.3401654E-3,-1.4328453E-3,4.8172998E-4,2.3002096E-3,3.0140402E-3,4.6499507E-3],"categories":[],"categories_nodes":[],"categories_segments":[],"categories_sizes":[],"default_left":[0,0,0,0,0,0,0,0,0,0,0,0,0],"id":6,"left_children":[1,3,5,-1,7,9,11,-1,-1,-1,-1,-1,-1],"loss_changes":[7.5827216E2,3.8216583E1,8.327524E1,0E0,8.279968E0,6.545639E0,9.452911E0,0E0,0E0,0E0,0E0,0E0,0E0],"parents":[2147483647,0,0,1,1,2,2,4,4,5,5,6,6],"right_children":[2,4,6,-1,8,10,12,-1,-1,-1,-1,-1,-1],"split_conditions":[2.8123736E-1,1.4061868E-1,4.6872893E-1,-5.213156E-3,2.3436446E-1,4.2185605E-1,5.624747E-1,-3.3401654E-3,-1.4328453E-3,4.8172998E-4,2.3002096E-3,3.0140402E-3,4.6499507E-3],"split_indices":[2,2,2,0,2,2,2,0,0,0,0,0,0],"split_type":[0,0,0,0,0,0,0,0,0,0,0,0,0],"sum_hessian":[4.394819E2,1.9197765E2,2.4750426E2,1.137922E2,7.818545E1,8.416141E1,1.6334285E2,5.1791634E1,2.6393814E1,6.424155E1,1.9919859E1,3.4361755E1,1.289811E2],"tree_param":{"num_deleted":"0","num_feature":"12","num_nodes":"13","size_leaf_vector":"1"}},{"base_weights":[1.9777667E-2,-1.5167807E0,1.1781987E0,-5.0009545E-3,-6.6580874E-1,2.9248047E-1,1.4719024E0,-2.9363772E-3,-9.480393E-4,6.613626E-1,4.734424E-5,3.0319649E-3,4.488653E-3,2.3653375E-3,-1.5028475E-3],"categories":[],"categories_nodes":[],"categories_segments":[],"categories_sizes":[],"default_left":[0,0,0,0,0,0,0,0,0,0,0,0,0,0,0],"id":7,"left_children":[1,3,5,-1,7,9,11,-1,-1,13,-1,-1,-1,-1,-1],"loss_changes":[7.960093E2,4.7043854E1,6.632864E1,0E0,6.188053E0,6.450384E0,1.0683868E1,0E0,0E0,6.2740774E0,0E0,0E0,0E0,0E0,0E0],"parents":[2147483647,0,0,1,1,2,2,4,4,5,5,6,6,9,9],"right_children":[2,4,6,-1,8,10,12,-1,-1,14,-1,-1,-1,-1,-1],"split_conditions":[2.8123736E-1,1.8749157E-1,4.2185605E-1,-5.0009545E-3,2.3436446E-1,4.318479E-1,5.624747E-1,-2.9363772E-3,-9.480393E-4,1E0,4.734424E-5,3.0319649E-3,4.488653E-3,2.3653375E-3,-1.5028475E-3],"split_indices":[2,2,2,0,2,1,2,0,0,8,0,0,0,0,0],"split_type":[0,0,0,0,0,0,0,0,0,0,0,0,0,0,0],"sum_hessian":[4.4720084E2,1.9222664E2,2.549742E2,1.4367198E2,4.8554657E1,6.3494553E1,1.9147964E2,2.1911844E1,2.664281E1,2.7140808E1,3.6353745E1,5.378362E1,1.3769603E2,2.3405834E1,3.7349737E0],"tree_param":{"num_deleted":"0","num_feature":"12","num_nodes":"15","size_leaf_vector":"1"}},{"base_weights":[5.897351E-3,-1.5182952E0,3.107586E-3,-5.213156E-3,-9.9580854E-1,-3.4840817E-3,-4.4661534E-1,-1.7185662E-3,2.207446E-3],"categories":[],"categories_nodes":[],"categories_segments":[],"categories_sizes":[],"default_left":[0,0,0,0,0,0,0,0,0],"id":8,"left_children":[1,3,-1,-1,5,-1,7,-1,-1],"loss_changes":[7.433039E2,3.500656E1,0E0,0E0,1.0861206E1,0E0,5.261384E0,0E0,0E0],"parents":[2147483647,0,0,1,1,4,4,6,6],"right_children":[2,4,-1,-1,6,-1,8,-1,-1],"split_conditions":[2.8123736E-1,1.4061868E-1,3.107586E-3,-5.213156E-3,2.3436446E-1,-3.4840817E-3,7.804371E-1,-1.7185662E-3,2.207446E-3],"split_indices":[2,2,0,0,2,0,1,0,0],"split_type":[0,0,0,0,0,0,0,0,0],"sum_hessian":[4.372409E2,1.847567E2,2.5248422E2,1.09061226E2,7.5695465E1,5.1293636E1,2.4401827E1,2.1413849E1,2.987979E0],"tree_param":{"num_deleted":"0","num_feature":"12","num_nodes":"9","size_leaf_vector":"1"}},{"base_weights":[-1.0457099E-2,-4.120732E-3,3.1095515E-3],"categories":[],"categories_nodes":[],"categories_segments":[],"categories_sizes":[],"default_left":[0,0,0],"id":9,"left_children":[1,-1,-1],"loss_changes":[7.2306573E2,0E0,0E0],"parents":[2147483647,0,0],"right_children":[2,-1,-1],"split_conditions":[2.8123736E-1,-4.120732E-3,3.1095515E-3],"split_indices":[2,0,0],"split_type":[0,0,0],"sum_hessian":[4.3250995E2,1.8774467E2,2.4476527E2],"tree_param":{"num_deleted":"0","num_feature":"12","num_nodes":"3","size_leaf_vector":"1"}},{"base_weights":[-6.605378E-3,-4.1015274E-3,1.1190385E0,5.338049E-1,4.5743715E-3,1.491784E-1,2.1439202E-3,-3.3579925E-3,6.796805E-4],"categories":[],"categories_nodes":[],"categories_segments":[],"categories_sizes":[],"default_left":[0,0,0,0,0,0,0,0,0],"id":10,"left_children":[1,-1,3,5,-1,7,-1,-1,-1],"loss_changes":[7.2551215E2,0E0,7.712973E1,1.088282E1,0E0,5.9233103E0,0E0,0E0,0E0],"parents":[2147483647,0,0,2,2,3,3,5,5],"right_children":[2,-1,4,6,-1,8,-1,-1,-1],"split_conditions":[2.8123736E-1,-4.1015274E-3,5.624747E-1,3.7498313E-1,4.5743715E-3,9.4626784E-2,2.1439202E-3,-3.3579925E-3,6.796805E-4],"split_indices":[2,0,2,2,0,1,0,0,0],"split_type":[0,0,0,0,0,0,0,0,0],"sum_hessian":[4.374899E2,1.8948766E2,2.4800224E2,1.1802517E2,1.2997708E2,4.531768E1,7.270749E1,2.987979E0,4.23297E1],"tree_param":{"num_deleted":"0","num_feature":"12","num_nodes":"9","size_leaf_vector":"1"}},{"base_weights":[-9.956015E-3,-1.4851301E0,3.0931628E-3,-1.7799911E0,-6.8004376E-1,-5.213156E-3,-3.670256E-3,-2.8123695E-3,-9.572182E-4],"categories":[],"categories_nodes":[],"categories_segments":[],"categories_sizes":[],"default_left":[0,0,0,0,0,0,0,0,0],"id":11,"left_children":[1,3,-1,5,7,-1,-1,-1,-1],"loss_changes":[7.270951E2,4.498221E1,0E0,6.380432E0,5.689457E0,0E0,0E0,0E0,0E0],"parents":[2147483647,0,0,1,1,3,3,4,4],"right_children":[2,4,-1,6,8,-1,-1,-1,-1],"split_conditions":[2.8123736E-1,1.8749157E-1,3.0931628E-3,1.4061868E-1,2.3436446E-1,-5.213156E-3,-3.670256E-3,-2.8123695E-3,-9.572182E-4],"split_indices":[2,2,0,2,2,0,0,0,0],"split_type":[0,0,0,0,0,0,0,0,0],"sum_hessian":[4.377389E2,1.8948766E2,2.4825125E2,1.3869202E2,5.079564E1,1.135432E2,2.5148823E1,2.539782E1,2.539782E1],"tree_param":{"num_deleted":"0","num_feature":"12","num_nodes":"9","size_leaf_vector":"1"}},{"base_weights":[1.8446576E-2,-1.0789984E-2,1.2310568E-3,-1.6814167E0,2.758985E-3,-5.213156E-3,-3.4436258E-3],"categories":[],"categories_nodes":[],"categories_segments":[],"categories_sizes":[],"default_left":[0,0,0,0,0,0,0],"id":12,"left_children":[1,3,-1,5,-1,-1,-1],"loss_changes":[5.4980106E0,6.9484534E2,0E0,1.3607117E1,0E0,0E0,0E0],"parents":[2147483647,0,0,1,1,3,3],"right_children":[2,4,-1,6,-1,-1,-1],"split_conditions":[9.4451874E-1,2.3436446E-1,1.2310568E-3,1.4061868E-1,2.758985E-3,-5.213156E-3,-3.4436258E-3],"split_indices":[0,2,0,2,0,0,0],"split_type":[0,0,0,0,0,0,0],"sum_hessian":[4.4172287E2,4.1333707E2,2.83858E1,1.5537491E2,2.579622E2,1.06820244E2,4.8554657E1],"tree_param":{"num_deleted":"0","num_feature":"12","num_nodes":"7","size_leaf_vector":"1"}},{"base_weights":[3.6044132E-2,-1.5044255E0,1.1389486E0,-5.213156E-3,-2.5829056E-3,3.963472E-1,1.5357414E0,7.1265403E-4,2.439346E-3,3.4358643E-3,4.9058557E-3],"categories":[],"categories_nodes":[],"categories_segments":[],"categories_sizes":[],"default_left":[0,0,0,0,0,0,0,0,0,0,0],"id":13,"left_children":[1,3,5,-1,-1,7,9,-1,-1,-1,-1],"loss_changes":[7.4625275E2,3.950244E1,7.542389E1,0E0,0E0,6.003765E0,1.1573364E1,0E0,0E0,0E0,0E0],"parents":[2147483647,0,0,1,1,2,2,5,5,6,6],"right_children":[2,4,6,-1,-1,8,10,-1,-1,-1,-1],"split_conditions":[2.8123736E-1,1.4061868E-1,4.6872893E-1,-5.213156E-3,-2.5829056E-3,4.2185605E-1,6.562205E-1,7.1265403E-4,2.439346E-3,3.4358643E-3,4.9058557E-3],"split_indices":[2,2,2,0,0,2,2,0,0,0,0],"split_type":[0,0,0,0,0,0,0,0,0,0,0],"sum_hessian":[4.3923288E2,1.8326271E2,2.5597018E2,1.1055522E2,7.270749E1,8.914137E1,1.6682883E2,6.922151E1,1.9919859E1,7.3703476E1,9.312534E1],"tree_param":{"num_deleted":"0","num_feature":"12","num_nodes":"11","size_leaf_vector":"1"}},{"base_weights":[-6.9104945E-3,-4.0913234E-3,1.1280895E0,3.435481E-1,4.235375E-3,2.5578993E-4,1.7004546E-3],"categories":[],"categories_nodes":[],"categories_segments":[],"categories_sizes":[],"default_left":[0,0,0,0,0,0,0],"id":14,"left_children":[1,-1,3,5,-1,-1,-1],"loss_changes":[7.27902E2,0E0,7.729108E1,5.641592E0,0E0,0E0,0E0],"parents":[2147483647,0,0,2,2,3,3],"right_children":[2,-1,4,6,-1,-1,-1],"split_conditions":[2.8123736E-1,-4.0913234E-3,4.6872893E-1,3.7498313E-1,4.235375E-3,2.5578993E-4,1.7004546E-3],"split_indices":[2,0,2,2,0,0,0],"split_type":[0,0,0,0,0,0,0],"sum_hessian":[4.3649393E2,1.9023465E2,2.4625926E2,8.316541E1,1.6309384E2,4.3076694E1,4.008872E1],"tree_param":{"num_deleted":"0","num_feature":"12","num_nodes":"7","size_leaf_vector":"1"}},{"base_weights":[-2.5222555E-2,-1.535178E0,1.1321545E0,-5.213156E-3,-2.80947E-3,7.066557E-4,4.041935E-3],"categories":[],"categories_nodes":[],"categories_segments":[],"categories_sizes":[],"default_left":[0,0,0,0,0,0,0],"id":15,"left_children":[1,3,5,-1,-1,-1,-1],"loss_changes":[7.571545E2,3.389789E1,7.01788E1,0E0,0E0,0E0,0E0],"parents":[2147483647,0,0,1,1,2,2],"right_children":[2,4,6,-1,-1,-1,-1],"split_conditions":[2.8123736E-1,1.4061868E-1,4.2185605E-1,-5.213156E-3,-2.80947E-3,7.066557E-4,4.041935E-3],"split_indices":[2,2,2,0,0,0,0],"split_type":[0,0,0,0,0,0,0],"sum_hessian":[4.3325693E2,1.8799367E2,2.4526326E2,1.13045204E2,7.494847E1,6.648253E1,1.7878073E2],"tree_param":{"num_deleted":"0","num_feature":"12","num_nodes":"7","size_leaf_vector":"1"}},{"base_weights":[3.1712342E-2,-4.085023E-3,1.1616834E0,1.0587518E-3,4.272464E-3],"categories":[],"categories_nodes":[],"categories_segments":[],"categories_sizes":[],"default_left":[0,0,0,0,0],"id":16,"left_children":[1,-1,3,-1,-1],"loss_changes":[7.311677E2,0E0,7.2710144E1,0E0,0E0],"parents":[2147483647,0,0,2,2],"right_children":[2,-1,4,-1,-1],"split_conditions":[2.8123736E-1,-4.085023E-3,4.6872893E-1,1.0587518E-3,4.272464E-3],"split_indices":[2,0,2,0,0],"split_type":[0,0,0,0,0],"sum_hessian":[4.2977097E2,1.842587E2,2.4551227E2,8.042643E1,1.6508583E2],"tree_param":{"num_deleted":"0","num_feature":"12","num_nodes":"5","size_leaf_vector":"1"}},{"base_weights":[2.3628423E-2,-1.482057E0,1.139232E0,-5.213156E-3,-8.699868E-1,6.452195E-4,4.077937E-3,-3.2623769E-3,-6.9122214E-4],"categories":[],"categories_nodes":[],"categories_segments":[],"categories_sizes":[],"default_left":[0,0,0,0,0,0,0,0,0],"id":17,"left_children":[1,3,5,-1,7,-1,-1,-1,-1],"loss_changes":[7.223253E2,4.468112E1,7.435748E1,0E0,1.3761745E1,0E0,0E0,0E0,0E0],"parents":[2147483647,0,0,1,1,2,2,4,4],"right_children":[2,4,6,-1,8,-1,-1,-1,-1],"split_conditions":[2.8123736E-1,1.4061868E-1,4.2185605E-1,-5.213156E-3,2.3436446E-1,6.452195E-4,4.077937E-3,-3.2623769E-3,-6.9122214E-4],"split_indices":[2,2,2,0,2,0,0,0,0],"split_type":[0,0,0,0,0,0,0,0,0],"sum_hessian":[4.3001996E2,1.830137E2,2.4700626E2,1.10804214E2,7.220949E1,6.623353E1,1.8077272E2,4.830566E1,2.3903831E1],"tree_param":{"num_deleted":"0","num_feature":"12","num_nodes":"9","size_leaf_vector":"1"}},{"base_weights":[-1.8266926E-2,-1.5391392E0,1.1074181E0,-5.213156E-3,-9.8222816E-1,5.338049E-1,4.459649E-3,-3.2254925E-3,-1.6265276E-3,6.276834E-5,2.293739E-3],"categories":[],"categories_nodes":[],"categories_segments":[],"categories_sizes":[],"default_left":[0,0,0,0,0,0,0,0,0,0,0],"id":18,"left_children":[1,3,5,-1,7,9,-1,-1,-1,-1,-1],"loss_changes":[7.5368195E2,3.5642273E1,7.279596E1,0E0,5.1115417E0,1.7724094E1,0E0,0E0,0E0,0E0,0E0],"parents":[2147483647,0,0,1,1,2,2,4,4,5,5],"right_children":[2,4,6,-1,8,10,-1,-1,-1,-1,-1],"split_conditions":[2.8123736E-1,1.4061868E-1,5.624747E-1,-5.213156E-3,2.3436446E-1,3.7498313E-1,4.459649E-3,-3.2254925E-3,-1.6265276E-3,6.276834E-5,2.293739E-3],"split_indices":[2,2,2,0,2,2,0,0,0,0,0],"split_type":[0,0,0,0,0,0,0,0,0,0,0],"sum_hessian":[4.4022888E2,1.8724667E2,2.5298221E2,1.1603318E2,7.121349E1,1.1802517E2,1.3495705E2,4.8803654E1,2.2409842E1,4.3076694E1,7.494847E1],"tree_param":{"num_deleted":"0","num_feature":"12","num_nodes":"11","size_leaf_vector":"1"}},{"base_weights":[-2.9820321E-2,-1.5252085E0,3.2321676E-3,-1.7896594E0,-2.201894E-3,-5.213156E-3,-3.8733226E-3],"categories":[],"categories_nodes":[],"categories_segments":[],"categories_sizes":[],"default_left":[0,0,0,0,0,0,0],"id":19,"left_children":[1,3,-1,5,-1,-1,-1],"loss_changes":[7.806648E2,3.7484314E1,0E0,5.0978394E0,0E0,0E0,0E0],"parents":[2147483647,0,0,1,1,3,3],"right_children":[2,4,-1,6,-1,-1,-1],"split_conditions":[2.8123736E-1,1.8749157E-1,3.2321676E-3,1.4061868E-1,-2.201894E-3,-5.213156E-3,-3.8733226E-3],"split_indices":[2,2,0,2,0,0,0],"split_type":[0,0,0,0,0,0,0],"sum_hessian":[4.3649393E2,1.9396964E2,2.4252429E2,1.4242699E2,5.1542637E1,1.1553519E2,2.689181E1],"tree_param":{"num_deleted":"0","num_feature":"12","num_nodes":"7","size_leaf_vector":"1"}},{"base_weights":[-2.3320535E-2,-1.5039347E0,1.1180172E0,-4.9796402E-3,-6.4521337E-1,3.73789E-4,1.4639906E0,-2.7526373E-3,-8.720994E-4,3.0025179E-3,4.47878E-3],"categories":[],"categories_nodes":[],"categories_segments":[],"categories_sizes":[],"default_left":[0,0,0,0,0,0,0,0,0,0,0],"id":20,"left_children":[1,3,5,-1,7,-1,9,-1,-1,-1,-1],"loss_changes":[7.414097E2,4.8010284E1,8.427194E1,0E0,5.5846405E0,0E0,1.0602142E1,0E0,0E0,0E0,0E0],"parents":[2147483647,0,0,1,1,2,2,4,4,6,6],"right_children":[2,4,6,-1,8,-1,10,-1,-1,-1,-1],"split_conditions":[2.8123736E-1,1.8749157E-1,4.2185605E-1,-4.9796402E-3,2.3436446E-1,3.73789E-4,5.624747E-1,-2.7526373E-3,-8.720994E-4,3.0025179E-3,4.47878E-3],"split_indices":[2,2,2,0,2,0,2,0,0,0,0],"split_type":[0,0,0,0,0,0,0,0,0,0,0],"sum_hessian":[4.387349E2,1.9098164E2,2.4775325E2,1.4242699E2,4.8554657E1,6.449055E1,1.8326271E2,2.3654833E1,2.4899824E1,5.228963E1,1.3097307E2],"tree_param":{"num_deleted":"0","num_feature":"12","num_nodes":"11","size_leaf_vector":"1"}},{"base_weights":[-1.0582612E-2,-1.509565E0,1.1321462E0,-5.213156E-3,-9.469592E-1,5.425698E-1,4.5711063E-3,-3.3856921E-3,-1.0947176E-3,2.7442038E-1,2.4427404E-3,1.9891993E-3,-3.763567E-5],"categories":[],"categories_nodes":[],"categories_segments":[],"categories_sizes":[],"default_left":[0,0,0,0,0,0,0,0,0,0,0,0,0],"id":21,"left_children":[1,3,5,-1,7,9,-1,-1,-1,11,-1,-1,-1],"loss_changes":[7.464042E2,3.9382446E1,7.538553E1,0E0,1.136087E1,1.0495754E1,0E0,0E0,0E0,8.233395E0,0E0,0E0,0E0],"parents":[2147483647,0,0,1,1,2,2,4,4,5,5,9,9],"right_children":[2,4,6,-1,8,10,-1,-1,-1,12,-1,-1,-1],"split_conditions":[2.8123736E-1,1.4061868E-1,5.624747E-1,-5.213156E-3,2.3436446E-1,4.2185605E-1,4.5711063E-3,-3.3856921E-3,-1.0947176E-3,4.270111E-1,2.4427404E-3,1.9891993E-3,-3.763567E-5],"split_indices":[2,2,2,0,2,2,0,0,0,1,0,0,0],"split_type":[0,0,0,0,0,0,0,0,0,0,0,0,0],"sum_hessian":[4.3574692E2,1.8849167E2,2.4725525E2,1.135432E2,7.494847E1,1.1553519E2,1.3172006E2,5.0048645E1,2.4899824E1,6.449055E1,5.104464E1,2.539782E1,3.9092724E1],"tree_param":{"num_deleted":"0","num_feature":"12","num_nodes":"13","size_leaf_vector":"1"}},{"base_weights":[5.731665E-2],"categories":[],"categories_nodes":[],"categories_segments":[],"categories_sizes":[],"default_left":[0],"id":22,"left_children":[-1],"loss_changes":[0E0],"parents":[2147483647],"right_children":[-1],"split_conditions":[1.5885757E-4],"split_indices":[0],"split_type":[0],"sum_hessian":[4.369919E2],"tree_param":{"num_deleted":"0","num_feature":"12","num_nodes":"1","size_leaf_vector":"1"}},{"base_weights":[1.976005E-2,-1.4961904E0,1.1578431E0,-4.992145E-3,-1.8952873E-3,1.0501102E-3,4.2351778E-3],"categories":[],"categories_nodes":[],"categories_segments":[],"categories_sizes":[],"default_left":[0,0,0,0,0,0,0],"id":23,"left_children":[1,3,5,-1,-1,-1,-1],"loss_changes":[7.6338336E2,4.701129E1,7.288687E1,0E0,0E0,0E0,0E0],"parents":[2147483647,0,0,1,1,2,2],"right_children":[2,4,6,-1,-1,-1,-1],"split_conditions":[2.8123736E-1,1.8749157E-1,4.6872893E-1,-4.992145E-3,-1.8952873E-3,1.0501102E-3,4.2351778E-3],"split_indices":[2,2,2,0,0,0,0],"split_type":[0,0,0,0,0,0,0],"sum_hessian":[4.4246988E2,1.8973666E2,2.5273322E2,1.3794502E2,5.1791634E1,8.1422424E1,1.7131079E2],"tree_param":{"num_deleted":"0","num_feature":"12","num_nodes":"7","size_leaf_vector":"1"}},{"base_weights":[-5.860327E-2,-1.3448282E0,1.1953192E0,-5.010037E-3,-5.1598775E-1,1.9556807E-1,1.4466852E0,-2.6929483E-3,-2.744972E-1,-1.9151047E-3,3.5621786E-1,3.016334E-3,4.438188E-3,2.021934E-3,-3.8605532E-1,5.917728E-3,7.075425E-4,-3.976379E-3,-7.470485E-4],"categories":[],"categories_nodes":[],"categories_segments":[],"categories_sizes":[],"default_left":[0,0,0,0,0,0,0,0,0,0,0,0,0,0,0,0,0,0,0],"id":24,"left_children":[1,3,5,-1,7,9,11,-1,13,-1,15,-1,-1,-1,17,-1,-1,-1,-1],"loss_changes":[6.947524E2,8.157117E1,5.481491E1,0E0,8.383814E0,6.241538E0,9.659271E0,0E0,5.5779E0,0E0,6.661519E0,0E0,0E0,0E0,5.476246E0,0E0,0E0,0E0,0E0],"parents":[2147483647,0,0,1,1,2,2,4,4,5,5,6,6,8,8,10,10,14,14],"right_children":[2,4,6,-1,8,10,12,-1,14,-1,16,-1,-1,-1,18,-1,-1,-1,-1],"split_conditions":[3.2811025E-1,1.8749157E-1,4.2185605E-1,-5.010037E-3,2.3436446E-1,2.6292998E-1,5.624747E-1,-2.6929483E-3,1.5533912E-1,-1.9151047E-3,2.9662734E-1,3.016334E-3,4.438188E-3,2.021934E-3,2.5823176E-1,5.917728E-3,7.075425E-4,-3.976379E-3,-7.470485E-4],"split_indices":[2,2,2,0,2,1,2,0,1,0,1,0,0,0,1,0,0,0,0],"split_type":[0,0,0,0,0,0,0,0,0,0,0,0,0,0,0,0,0,0,0],"sum_hessian":[4.3076697E2,2.126445E2,2.1812245E2,1.3645103E2,7.619346E1,4.382369E1,1.7429877E2,2.6393814E1,4.979965E1,6.7229524E0,3.710074E1,5.2538628E1,1.2176014E2,4.9799647E0,4.4819683E1,1.9919859E0,3.5108753E1,4.4819684E0,4.0337715E1],"tree_param":{"num_deleted":"0","num_feature":"12","num_nodes":"19","size_leaf_vector":"1"}},{"base_weights":[3.980563E-2,-1.657818E0,1.0629888E0,-5.213156E-3,-3.261289E-3,2.6826715E-1,4.409049E-3,2.0854358E-4,5.759693E-1,2.842109E-3,2.1256068E-1,1.6038843E-4,5.917724E-3],"categories":[],"categories_nodes":[],"categories_segments":[],"categories_sizes":[],"default_left":[0,0,0,0,0,0,0,0,0,0,0,0,0],"id":25,"left_children":[1,3,5,-1,-1,7,-1,-1,9,-1,11,-1,-1],"loss_changes":[7.659662E2,1.7801666E1,1.15414154E2,0E0,0E0,6.5219216E0,0E0,0E0,6.914322E0,0E0,6.9610844E0,0E0,0E0],"parents":[2147483647,0,0,1,1,2,2,5,5,8,8,10,10],"right_children":[2,4,6,-1,-1,8,-1,-1,10,-1,12,-1,-1],"split_conditions":[2.3436446E-1,1.4061868E-1,4.6872893E-1,-5.213156E-3,-3.261289E-3,3.7498313E-1,4.409049E-3,2.0854358E-4,4.270111E-1,2.842109E-3,9.4451874E-1,1.6038843E-4,5.917724E-3],"split_indices":[2,2,2,0,0,2,0,0,1,0,0,0,0],"split_type":[0,0,0,0,0,0,0,0,0,0,0,0,0],"sum_hessian":[4.409759E2,1.6583282E2,2.7514307E2,1.132942E2,5.2538628E1,1.0980822E2,1.6533482E2,6.747852E1,4.23297E1,1.8923866E1,2.3405834E1,2.1662848E1,1.7429876E0],"tree_param":{"num_deleted":"0","num_feature":"12","num_nodes":"13","size_leaf_vector":"1"}},{"base_weights":[-1.7704522E-2,-1.5144069E0,1.1371956E0,-4.9808584E-3,-1.8506922E-3,3.6262354E-1,1.5117648E0,8.517648E-4,4.9901647E-3,1.2803817E0,4.6975235E-3,-2.9869496E-3,3.660974E-3],"categories":[],"categories_nodes":[],"categories_segments":[],"categories_sizes":[],"default_left":[0,0,0,0,0,0,0,0,0,0,0,0,0],"id":26,"left_children":[1,3,5,-1,-1,7,9,-1,-1,11,-1,-1,-1],"loss_changes":[7.579412E2,4.571411E1,7.1808624E1,0E0,0E0,6.415036E0,7.0689087E0,0E0,0E0,7.0418777E0,0E0,0E0,0E0],"parents":[2147483647,0,0,1,1,2,2,5,5,6,6,9,9],"right_children":[2,4,6,-1,-1,8,10,-1,-1,12,-1,-1,-1],"split_conditions":[2.8123736E-1,1.8749157E-1,4.6872893E-1,-4.9808584E-3,-1.8506922E-3,1E0,6.562205E-1,8.517648E-4,4.9901647E-3,1.5946066E-1,4.6975235E-3,-2.9869496E-3,3.660974E-3],"split_indices":[2,2,2,0,0,0,2,0,0,0,0,0,0],"split_type":[0,0,0,0,0,0,0,0,0,0,0,0,0],"sum_hessian":[4.384859E2,1.9098164E2,2.4750426E2,1.4317398E2,4.7807663E1,8.067543E1,1.6682883E2,7.7687454E1,2.987979E0,7.3703476E1,9.312534E1,1.2449912E0,7.245849E1],"tree_param":{"num_deleted":"0","num_feature":"12","num_nodes":"13","size_leaf_vector":"1"}},{"base_weights":[1.323626E-2,-4.103025E-3,1.1047904E0,1.9952352E-4,1.4450544E0,2.8471604E-3,4.5007225E-3],"categories":[],"categories_nodes":[],"categories_segments":[],"categories_sizes":[],"default_left":[0,0,0,0,0,0,0],"id":27,"left_children":[1,-1,3,-1,5,-1,-1],"loss_changes":[7.230168E2,0E0,9.00419E1,0E0,1.4398865E1,0E0,0E0],"parents":[2147483647,0,0,2,2,4,4],"right_children":[2,-1,4,-1,6,-1,-1],"split_conditions":[2.8123736E-1,-4.103025E-3,4.2185605E-1,1.9952352E-4,5.624747E-1,2.8471604E-3,4.5007225E-3],"split_indices":[2,0,2,0,2,0,0],"split_type":[0,0,0,0,0,0,0],"sum_hessian":[4.4346585E2,1.8724667E2,2.5621918E2,6.3494553E1,1.9272464E2,5.7767593E1,1.3495705E2],"tree_param":{"num_deleted":"0","num_feature":"12","num_nodes":"7","size_leaf_vector":"1"}},{"base_weights":[-6.258824E-2,-1.511031E0,1.0652975E0,-4.9742097E-3,-2.0012504E-3,3.0122003E-1,1.4849337E0,6.6077286E-5,1.6216153E-3,2.9438485E-3,4.4232258E-3],"categories":[],"categories_nodes":[],"categories_segments":[],"categories_sizes":[],"default_left":[0,0,0,0,0,0,0,0,0,0,0],"id":28,"left_children":[1,3,5,-1,-1,7,9,-1,-1,-1,-1],"loss_changes":[7.0617523E2,4.2355896E1,7.7921326E1,0E0,0E0,6.783618E0,7.360901E0,0E0,0E0,0E0,0E0],"parents":[2147483647,0,0,1,1,2,2,5,5,6,6],"right_children":[2,4,6,-1,-1,8,10,-1,-1,-1,-1],"split_conditions":[2.8123736E-1,1.8749157E-1,4.6872893E-1,-4.9742097E-3,-2.0012504E-3,3.7498313E-1,5.624747E-1,6.6077286E-5,1.6216153E-3,2.9438485E-3,4.4232258E-3],"split_indices":[2,2,2,0,0,2,2,0,0,0,0],"split_type":[0,0,0,0,0,0,0,0,0,0,0],"sum_hessian":[4.3226096E2,1.8923866E2,2.4302228E2,1.3919002E2,5.0048645E1,8.615339E1,1.568689E2,4.357469E1,4.2578697E1,3.261877E1,1.2425012E2],"tree_param":{"num_deleted":"0","num_feature":"12","num_nodes":"11","size_leaf_vector":"1"}},{"base_weights":[7.799823E-3,-1.8375708E-1,7.7910244E-2,-4.697835E-3,1.0621563E0,-1.3043665E0,1.274567E0,-4.7659667E-4,1.3319396E0,-1.7690936E0,-1.2039169E-3,2.102568E-3,4.503037E-3,2.7969398E-3,4.577924E-3,-5.213156E-3,-3.602101E-3],"categories":[],"categories_nodes":[],"categories_segments":[],"categories_sizes":[],"default_left":[0,0,0,0,0,0,0,0,0,0,0,0,0,0,0,0,0],"id":29,"left_children":[1,3,5,-1,7,9,11,-1,13,15,-1,-1,-1,-1,-1,-1,-1],"loss_changes":[5.965839E0,2.2410287E2,5.379031E2,0E0,2.1720428E1,6.100699E1,3.1488983E1,0E0,5.526245E0,5.1637573E0,0E0,0E0,0E0,0E0,0E0,0E0,0E0],"parents":[2147483647,0,0,1,1,2,2,4,4,5,5,6,6,8,8,9,9],"right_children":[2,4,6,-1,8,10,12,-1,14,16,-1,-1,-1,-1,-1,-1,-1],"split_conditions":[3.4493604E-1,2.8123736E-1,3.2811025E-1,-4.697835E-3,3.7498313E-1,1.8749157E-1,5.624747E-1,-4.7659667E-4,6.0934764E-1,1.4061868E-1,-1.2039169E-3,2.102568E-3,4.503037E-3,2.7969398E-3,4.577924E-3,-5.213156E-3,-3.602101E-3],"split_indices":[1,2,2,0,2,2,2,0,2,2,0,0,0,0,0,0,0],"split_type":[0,0,0,0,0,0,0,0,0,0,0,0,0,0,0,0,0],"sum_hessian":[4.4421286E2,1.1902116E2,3.251917E2,5.378362E1,6.523754E1,1.5089293E2,1.7429877E2,1.1702917E1,5.3534622E1,9.83543E1,5.2538628E1,7.04665E1,1.0383227E2,2.664281E1,2.689181E1,7.9430435E1,1.8923866E1],"tree_param":{"num_deleted":"0","num_feature":"12","num_nodes":"17","size_leaf_vector":"1"}},{"base_weights":[3.506233E-2,-1.5080874E0,1.1836654E0,-4.9737813E-3,-1.9193139E-3,2.3779167E-1,1.5002029E0,5.070125E-1,-3.8275943E-4,3.1476202E-3,4.5729442E-3,5.244281E-4,3.0804637E-3],"categories":[],"categories_nodes":[],"categories_segments":[],"categories_sizes":[],"default_left":[0,0,0,0,0,0,0,0,0,0,0,0,0],"id":30,"left_children":[1,3,5,-1,-1,7,9,11,-1,-1,-1,-1,-1],"loss_changes":[7.7984973E2,4.3866394E1,7.5520355E1,0E0,0E0,6.400345E0,1.0315735E1,7.078743E0,0E0,0E0,0E0,0E0,0E0],"parents":[2147483647,0,0,1,1,2,2,5,5,6,6,7,7],"right_children":[2,4,6,-1,-1,8,10,12,-1,-1,-1,-1,-1],"split_conditions":[2.8123736E-1,1.8749157E-1,4.2185605E-1,-4.9737813E-3,-1.9193139E-3,5.0604844E-1,5.624747E-1,3.7498313E-1,-3.8275943E-4,3.1476202E-3,4.5729442E-3,5.244281E-4,3.0804637E-3],"split_indices":[2,2,2,0,0,1,2,2,0,0,0,0,0],"split_type":[0,0,0,0,0,0,0,0,0,0,0,0,0],"sum_hessian":[4.399799E2,1.8774467E2,2.5223521E2,1.3894102E2,4.8803654E1,6.3245552E1,1.8898967E2,3.6851738E1,2.6393814E1,5.502861E1,1.3396106E2,2.415283E1,1.269891E1],"tree_param":{"num_deleted":"0","num_feature":"12","num_nodes":"13","size_leaf_vector":"1"}},{"base_weights":[2.41939E-2,-1.482555E0,3.1515604E-3,-4.986415E-3,-1.8090414E-3],"categories":[],"categories_nodes":[],"categories_segments":[],"categories_sizes":[],"default_left":[0,0,0,0,0],"id":31,"left_children":[1,3,-1,-1,-1],"loss_changes":[7.33196E2,4.8797882E1,0E0,0E0,0E0],"parents":[2147483647,0,0,1,1],"right_children":[2,4,-1,-1,-1],"split_conditions":[2.8123736E-1,1.8749157E-1,3.1515604E-3,-4.986415E-3,-1.8090414E-3],"split_indices":[2,2,0,0,0],"split_type":[0,0,0,0,0],"sum_hessian":[4.372409E2,1.8575269E2,2.5148822E2,1.3445905E2,5.1293636E1],"tree_param":{"num_deleted":"0","num_feature":"12","num_nodes":"5","size_leaf_vector":"1"}},{"base_weights":[2.3604449E-2,-1.6712332E0,9.8512816E-1,-5.213156E-3,-3.3197526E-3,1.3824475E-4,3.988399E-3],"categories":[],"categories_nodes":[],"categories_segments":[],"categories_sizes":[],"default_left":[0,0,0,0,0,0,0],"id":32,"left_children":[1,3,5,-1,-1,-1,-1],"loss_changes":[7.084816E2,1.5623779E1,1.1775406E2,0E0,0E0,0E0,0E0],"parents":[2147483647,0,0,1,1,2,2],"right_children":[2,4,6,-1,-1,-1,-1],"split_conditions":[2.3436446E-1,1.4061868E-1,4.2185605E-1,-5.213156E-3,-3.3197526E-3,1.3824475E-4,3.988399E-3],"split_indices":[2,2,2,0,0,0,0],"split_type":[0,0,0,0,0,0,0],"sum_hessian":[4.3475092E2,1.5736688E2,2.7738403E2,1.09061226E2,4.830566E1,9.063536E1,1.8674867E2],"tree_param":{"num_deleted":"0","num_feature":"12","num_nodes":"7","size_leaf_vector":"1"}},{"base_weights":[1.5173119E-2,-1.4557009E0,1.1483238E0,-4.9707405E-3,-1.6242163E-3,1.0416775E-3,4.2531644E-3],"categories":[],"categories_nodes":[],"categories_segments":[],"categories_sizes":[],"default_left":[0,0,0,0,0,0,0],"id":33,"left_children":[1,3,5,-1,-1,-1,-1],"loss_changes":[7.295891E2,5.5954285E1,7.377197E1,0E0,0E0,0E0,0E0],"parents":[2147483647,0,0,1,1,2,2],"right_children":[2,4,6,-1,-1,-1,-1],"split_conditions":[2.8123736E-1,1.8749157E-1,4.6872893E-1,-4.9707405E-3,-1.6242163E-3,1.0416775E-3,4.2531644E-3],"split_indices":[2,2,2,0,0,0,0],"split_type":[0,0,0,0,0,0,0],"sum_hessian":[4.377389E2,1.9048366E2,2.4725525E2,1.3719803E2,5.328562E1,8.241842E1,1.6483684E2],"tree_param":{"num_deleted":"0","num_feature":"12","num_nodes":"7","size_leaf_vector":"1"}},{"base_weights":[2.7635043E-2,-1.5066948E0,3.0830412E-3,-5.213156E-3,-9.401013E-1,-3.2355823E-3,-1.2110292E-3],"categories":[],"categories_nodes":[],"categories_segments":[],"categories_sizes":[],"default_left":[0,0,0,0,0,0,0],"id":34,"left_children":[1,3,-1,-1,5,-1,-1],"loss_changes":[7.1943475E2,3.796173E1,0E0,0E0,8.144981E0,0E0,0E0],"parents":[2147483647,0,0,1,1,4,4],"right_children":[2,4,-1,-1,6,-1,-1],"split_conditions":[2.8123736E-1,1.4061868E-1,3.0830412E-3,-5.213156E-3,2.3436446E-1,-3.2355823E-3,-1.2110292E-3],"split_indices":[2,2,0,0,2,0,0],"split_type":[0,0,0,0,0,0,0],"sum_hessian":[4.3226096E2,1.7902974E2,2.5323122E2,1.0781624E2,7.121349E1,4.9052654E1,2.2160843E1],"tree_param":{"num_deleted":"0","num_feature":"12","num_nodes":"7","size_leaf_vector":"1"}},{"base_weights":[-6.301647E-3,-1.5067314E0,1.1381704E0,-1.7872013E0,-2.0639217E-3,3.3878636E-1,1.5711699E0,-5.213156E-3,-3.8082823E-3,7.5706124E-4,3.7975763E-3,3.1778396E-3,4.6499507E-3],"categories":[],"categories_nodes":[],"categories_segments":[],"categories_sizes":[],"default_left":[0,0,0,0,0,0,0,0,0,0,0,0,0],"id":35,"left_children":[1,3,5,7,-1,9,11,-1,-1,-1,-1,-1,-1],"loss_changes":[7.5296796E2,4.055316E1,8.610031E1,5.371002E0,0E0,5.916478E0,7.299988E0,0E0,0E0,0E0,0E0,0E0,0E0],"parents":[2147483647,0,0,1,1,2,2,3,3,5,5,6,6],"right_children":[2,4,6,8,-1,10,12,-1,-1,-1,-1,-1,-1],"split_conditions":[2.8123736E-1,1.8749157E-1,4.6872893E-1,1.4061868E-1,-2.0639217E-3,9.4451874E-1,5.624747E-1,-5.213156E-3,-3.8082823E-3,7.5706124E-4,3.7975763E-3,3.1778396E-3,4.6499507E-3],"split_indices":[2,2,2,2,0,0,2,0,0,0,0,0,0],"split_type":[0,0,0,0,0,0,0,0,0,0,0,0,0],"sum_hessian":[4.384859E2,1.8973666E2,2.4874924E2,1.3869202E2,5.104464E1,8.7398384E1,1.6135086E2,1.13045204E2,2.5646818E1,8.216942E1,5.228963E0,3.236977E1,1.289811E2],"tree_param":{"num_deleted":"0","num_feature":"12","num_nodes":"13","size_leaf_vector":"1"}},{"base_weights":[1.9723661E-2,-1.5319496E0,3.1295407E-3,-1.7915221E0,-2.161131E-3,-5.213156E-3,-3.792187E-3],"categories":[],"categories_nodes":[],"categories_segments":[],"categories_sizes":[],"default_left":[0,0,0,0,0,0,0],"id":36,"left_children":[1,3,-1,5,-1,-1,-1],"loss_changes":[7.4541223E2,3.5247375E1,0E0,5.0793457E0,0E0,0E0,0E0],"parents":[2147483647,0,0,1,1,3,3],"right_children":[2,4,-1,6,-1,-1,-1],"split_conditions":[2.8123736E-1,1.8749157E-1,3.1295407E-3,1.4061868E-1,-2.161131E-3,-5.213156E-3,-3.792187E-3],"split_indices":[2,2,0,2,0,0,0],"split_type":[0,0,0,0,0,0,0],"sum_hessian":[4.3300793E2,1.8052373E2,2.5248422E2,1.3421005E2,4.631367E1,1.10804214E2,2.3405834E1],"tree_param":{"num_deleted":"0","num_feature":"12","num_nodes":"7","size_leaf_vector":"1"}},{"base_weights":[-2.5586784E-2,-4.1192817E-3,1.0787163E0,1.4267599E-3,4.3365434E-3],"categories":[],"categories_nodes":[],"categories_segments":[],"categories_sizes":[],"default_left":[0,0,0,0,0],"id":37,"left_children":[1,-1,3,-1,-1],"loss_changes":[7.0246875E2,0E0,6.7960846E1,0E0,0E0],"parents":[2147483647,0,0,2,2],"right_children":[2,-1,4,-1,-1],"split_conditions":[2.8123736E-1,-4.1192817E-3,5.624747E-1,1.4267599E-3,4.3365434E-3],"split_indices":[2,0,2,0,0],"split_type":[0,0,0,0,0],"sum_hessian":[4.3549792E2,1.8749568E2,2.4800224E2,1.14788185E2,1.3321407E2],"tree_param":{"num_deleted":"0","num_feature":"12","num_nodes":"5","size_leaf_vector":"1"}},{"base_weights":[-7.958388E-3,-4.1841264E-3,1.1271822E0,4.1483395E-4,1.4756397E0,3.1865607E-3,4.4559115E-3],"categories":[],"categories_nodes":[],"categories_segments":[],"categories_sizes":[],"default_left":[0,0,0,0,0,0,0],"id":38,"left_children":[1,-1,3,-1,5,-1,-1],"loss_changes":[7.572216E2,0E0,8.617078E1,0E0,8.027985E0,0E0,0E0],"parents":[2147483647,0,0,2,2,4,4],"right_children":[2,-1,4,-1,6,-1,-1],"split_conditions":[2.8123736E-1,-4.1841264E-3,4.2185605E-1,4.1483395E-4,5.624747E-1,3.1865607E-3,4.4559115E-3],"split_indices":[2,0,2,0,2,0,0],"split_type":[0,0,0,0,0,0,0],"sum_hessian":[4.4421286E2,1.9123065E2,2.5298221E2,6.648253E1,1.8649968E2,5.378362E1,1.3271606E2],"tree_param":{"num_deleted":"0","num_feature":"12","num_nodes":"7","size_leaf_vector":"1"}},{"base_weights":[3.8073763E-2,9.1392705E-3,4.441718E-1,-1.7063215E0,2.8628663E-3,-3.91886E-3,4.350021E-3,-5.213156E-3,-3.578106E-3],"categories":[],"categories_nodes":[],"categories_segments":[],"categories_sizes":[],"default_left":[0,0,0,0,0,0,0,0,0],"id":39,"left_children":[1,3,5,7,-1,-1,-1,-1,-1],"loss_changes":[5.014803E0,6.9969916E2,5.9355072E1,1.079834E1,0E0,0E0,0E0,0E0,0E0],"parents":[2147483647,0,0,1,1,2,2,3,3],"right_children":[2,4,6,8,-1,-1,-1,-1,-1],"split_conditions":[9.4451874E-1,2.3436446E-1,2.8123736E-1,1.4061868E-1,2.8628663E-3,-3.91886E-3,4.350021E-3,-5.213156E-3,-3.578106E-3],"split_indices":[0,2,2,2,0,0,0,0,0],"split_type":[0,0,0,0,0,0,0,0,0],"sum_hessian":[4.26783E2,3.983972E2,2.83858E1,1.4890094E2,2.4949623E2,1.0706924E1,1.7678875E1,1.0482826E2,4.407269E1],"tree_param":{"num_deleted":"0","num_feature":"12","num_nodes":"9","size_leaf_vector":"1"}},{"base_weights":[-2.0044316E-2,-4.1303826E-3,1.1582708E0,3.4296057E-1,4.269363E-3,5.393749E-4,2.3687694E-3],"categories":[],"categories_nodes":[],"categories_segments":[],"categories_sizes":[],"default_left":[0,0,0,0,0,0,0],"id":40,"left_children":[1,-1,3,5,-1,-1,-1],"loss_changes":[7.4754694E2,0E0,7.463013E1,5.8028917E0,0E0,0E0,0E0],"parents":[2147483647,0,0,2,2,3,3],"right_children":[2,-1,4,6,-1,-1,-1],"split_conditions":[2.8123736E-1,-4.1303826E-3,4.6872893E-1,4.2185605E-1,4.269363E-3,5.393749E-4,2.3687694E-3],"split_indices":[2,0,2,2,0,0,0],"split_type":[0,0,0,0,0,0,0],"sum_hessian":[4.3151395E2,1.9197765E2,2.395363E2,7.644246E1,1.6309384E2,5.926158E1,1.7180878E1],"tree_param":{"num_deleted":"0","num_feature":"12","num_nodes":"7","size_leaf_vector":"1"}},{"base_weights":[-3.6714277E-3,-1.5049365E0,1.1049782E0,-5.0051017E-3,-7.0791703E-1,2.6580584E-1,1.5251952E0,-2.94154E-3,-1.0390631E-3,1.5754779E-3,-2.7427377E-4,3.598817E-3,4.7072335E-3],"categories":[],"categories_nodes":[],"categories_segments":[],"categories_sizes":[],"default_left":[0,0,0,0,0,0,0,0,0,0,0,0,0],"id":41,"left_children":[1,3,5,-1,7,9,11,-1,-1,-1,-1,-1,-1],"loss_changes":[7.190307E2,4.40148E1,8.762982E1,0E0,5.919548E0,9.153202E0,6.5021667E0,0E0,0E0,0E0,0E0,0E0,0E0],"parents":[2147483647,0,0,1,1,2,2,4,4,5,5,6,6],"right_children":[2,4,6,-1,8,10,12,-1,-1,-1,-1,-1,-1],"split_conditions":[2.8123736E-1,1.8749157E-1,4.6872893E-1,-5.0051017E-3,2.3436446E-1,4.981525E-1,6.562205E-1,-2.94154E-3,-1.0390631E-3,1.5754779E-3,-2.7427377E-4,3.598817E-3,4.7072335E-3],"split_indices":[2,2,2,0,2,1,2,0,0,0,0,0,0],"split_type":[0,0,0,0,0,0,0,0,0,0,0,0,0],"sum_hessian":[4.3201193E2,1.835117E2,2.4850024E2,1.3321407E2,5.0297646E1,8.291641E1,1.6558383E2,2.4401827E1,2.5895817E1,4.531768E1,3.7598736E1,7.1711494E1,9.387234E1],"tree_param":{"num_deleted":"0","num_feature":"12","num_nodes":"13","size_leaf_vector":"1"}},{"base_weights":[-6.61697E-2,-1.5276428E0,1.1081741E0,-5.0157993E-3,-2.124194E-3,2.0645726E-1,1.5768389E0,1.574015E-4,2.052856E-3,3.2365879E-3,4.6834825E-3],"categories":[],"categories_nodes":[],"categories_segments":[],"categories_sizes":[],"default_left":[0,0,0,0,0,0,0,0,0,0,0],"id":42,"left_children":[1,3,5,-1,-1,7,9,-1,-1,-1,-1],"loss_changes":[7.4145E2,4.1330048E1,1.0122873E2,0E0,0E0,6.54996E0,7.284729E0,0E0,0E0,0E0,0E0],"parents":[2147483647,0,0,1,1,2,2,5,5,6,6],"right_children":[2,4,6,-1,-1,8,10,-1,-1,-1,-1],"split_conditions":[2.8123736E-1,1.8749157E-1,4.6872893E-1,-5.0157993E-3,-2.124194E-3,4.2185605E-1,5.624747E-1,1.574015E-4,2.052856E-3,3.2365879E-3,4.6834825E-3],"split_indices":[2,2,2,0,0,2,2,0,0,0,0],"split_type":[0,0,0,0,0,0,0,0,0,0,0],"sum_hessian":[4.3201193E2,1.9247563E2,2.395363E2,1.4043501E2,5.204063E1,8.192042E1,1.5761589E2,6.3992546E1,1.7927874E1,3.411276E1,1.2350313E2],"tree_param":{"num_deleted":"0","num_feature":"12","num_nodes":"11","size_leaf_vector":"1"}},{"base_weights":[2.779418E-2,-1.498969E0,1.1262279E0,-5.213156E-3,-9.469592E-1,2.2506544E-1,1.5515246E0,-3.2554572E-3,-1.3937243E-3,1.7420614E-4,2.064748E-3,3.5588883E-3,4.869809E-3],"categories":[],"categories_nodes":[],"categories_segments":[],"categories_sizes":[],"default_left":[0,0,0,0,0,0,0,0,0,0,0,0,0],"id":43,"left_children":[1,3,5,-1,7,9,11,-1,-1,-1,-1,-1,-1],"loss_changes":[7.3452673E2,3.8640625E1,9.762634E1,0E0,7.5764084E0,6.887721E0,9.512817E0,0E0,0E0,0E0,0E0,0E0,0E0],"parents":[2147483647,0,0,1,1,2,2,4,4,5,5,6,6],"right_children":[2,4,6,-1,8,10,12,-1,-1,-1,-1,-1,-1],"split_conditions":[2.8123736E-1,1.4061868E-1,4.6872893E-1,-5.213156E-3,2.3436446E-1,4.2185605E-1,6.562205E-1,-3.2554572E-3,-1.3937243E-3,1.7420614E-4,2.064748E-3,3.5588883E-3,4.869809E-3],"split_indices":[2,2,2,0,2,2,2,0,0,0,0,0,0],"split_type":[0,0,0,0,0,0,0,0,0,0,0,0,0],"sum_hessian":[4.379879E2,1.8326271E2,2.547252E2,1.0831423E2,7.494847E1,8.1671425E1,1.7305377E2,4.955065E1,2.539782E1,6.224956E1,1.9421864E1,7.519747E1,9.785631E1],"tree_param":{"num_deleted":"0","num_feature":"12","num_nodes":"13","size_leaf_vector":"1"}},{"base_weights":[-5.3334564E-2,-1.5280993E0,1.1332225E0,-4.981262E-3,-2.0650185E-3,3.5165387E-1,1.5101577E0,8.6155825E-4,5.917724E-3,1.3875738E0,5.0249025E-3,2.6151778E-3,4.147612E-3],"categories":[],"categories_nodes":[],"categories_segments":[],"categories_sizes":[],"default_left":[0,0,0,0,0,0,0,0,0,0,0,0,0],"id":44,"left_children":[1,3,5,-1,-1,7,9,-1,-1,11,-1,-1,-1],"loss_changes":[7.5641016E2,4.061963E1,7.0567566E1,0E0,0E0,5.671032E0,5.9993896E0,0E0,0E0,5.562607E0,0E0,0E0,0E0],"parents":[2147483647,0,0,1,1,2,2,5,5,6,6,9,9],"right_children":[2,4,6,-1,-1,8,10,-1,-1,12,-1,-1,-1],"split_conditions":[2.8123736E-1,1.8749157E-1,4.6872893E-1,-4.981262E-3,-2.0650185E-3,1E0,6.509806E-1,8.6155825E-4,5.917724E-3,5.624747E-1,5.0249025E-3,2.6151778E-3,4.147612E-3],"split_indices":[2,2,2,0,0,0,1,0,0,2,0,0,0],"split_type":[0,0,0,0,0,0,0,0,0,0,0,0,0],"sum_hessian":[4.3226096E2,1.9272464E2,2.395363E2,1.4342299E2,4.930165E1,7.793645E1,1.6159985E2,7.619346E1,1.7429876E0,1.15037186E2,4.656267E1,2.265884E1,9.237835E1],"tree_param":{"num_deleted":"0","num_feature":"12","num_nodes":"13","size_leaf_vector":"1"}},{"base_weights":[-4.637653E-3,-1.4866843E0,3.1128563E-3,-1.7815962E0,-1.7839349E-3,-5.213156E-3,-3.796493E-3],"categories":[],"categories_nodes":[],"categories_segments":[],"categories_sizes":[],"default_left":[0,0,0,0,0,0,0],"id":45,"left_children":[1,3,-1,5,-1,-1,-1],"loss_changes":[7.358037E2,4.7296143E1,0E0,5.7651978E0,0E0,0E0,0E0],"parents":[2147483647,0,0,1,1,3,3],"right_children":[2,4,-1,6,-1,-1,-1],"split_conditions":[2.8123736E-1,1.8749157E-1,3.1128563E-3,1.4061868E-1,-1.7839349E-3,-5.213156E-3,-3.796493E-3],"split_indices":[2,2,0,2,0,0,0],"split_type":[0,0,0,0,0,0,0],"sum_hessian":[4.4022888E2,1.9023465E2,2.4999423E2,1.40933E2,4.930165E1,1.135432E2,2.7389807E1],"tree_param":{"num_deleted":"0","num_feature":"12","num_nodes":"7","size_leaf_vector":"1"}},{"base_weights":[1.8691042E-2],"categories":[],"categories_nodes":[],"categories_segments":[],"categories_sizes":[],"default_left":[0],"id":46,"left_children":[-1],"loss_changes":[0E0],"parents":[2147483647],"right_children":[-1],"split_conditions":[5.1803683E-5],"split_indices":[0],"split_type":[0],"sum_hessian":[4.4271887E2],"tree_param":{"num_deleted":"0","num_feature":"12","num_nodes":"1","size_leaf_vector":"1"}},{"base_weights":[4.079326E-2,-2.7449724E-1,9.51537E-2,-1.314562E0,3.5631398E-3,-4.05739E-3,1.2017127E0,-5.0959866E-3,-4.9834472E-1,1.08857006E-1,4.337235E-3,-2.948451E-4,-3.976379E-3,-7.8608777E-4,3.7051144E-1,2.6439575E-3,3.1585144E-3,-5.0995284E-4,3.6915604E-3],"categories":[],"categories_nodes":[],"categories_segments":[],"categories_sizes":[],"default_left":[0,0,0,0,0,0,0,0,0,0,0,0,0,0,0,0,0,0,0],"id":47,"left_children":[1,3,5,7,-1,-1,9,-1,11,13,-1,-1,-1,-1,15,-1,17,-1,-1],"loss_changes":[7.545228E0,1.0504653E2,6.478001E2,1.6616447E1,0E0,0E0,8.716766E1,0E0,5.5745716E0,5.6255703E0,0E0,0E0,0E0,0E0,7.044526E0,0E0,5.015663E0,0E0,0E0],"parents":[2147483647,0,0,1,1,2,2,3,3,6,6,8,8,9,9,14,14,16,16],"right_children":[2,4,6,8,-1,-1,10,-1,12,14,-1,-1,-1,-1,16,-1,18,-1,-1],"split_conditions":[2.2773747E-1,3.7498313E-1,2.8123736E-1,1.8749157E-1,3.5631398E-3,-4.05739E-3,4.2185605E-1,-5.0959866E-3,1.7645764E-1,1E0,4.337235E-3,-2.948451E-4,-3.976379E-3,-7.8608777E-4,4.270111E-1,2.6439575E-3,1E0,-5.0995284E-4,3.6915604E-3],"split_indices":[1,2,2,2,0,0,2,0,1,11,0,0,0,0,1,0,8,0,0],"split_type":[0,0,0,0,0,0,0,0,0,0,0,0,0,0,0,0,0,0,0],"sum_hessian":[4.4022888E2,6.473954E1,3.7548935E2,3.8843727E1,2.5895817E1,1.558729E2,2.1961644E2,2.3654833E1,1.5188892E1,5.4779613E1,1.6483684E2,1.0706924E1,4.4819684E0,2.1911844E1,3.2867767E1,1.269891E1,2.0168858E1,1.7678875E1,2.4899824E0],"tree_param":{"num_deleted":"0","num_feature":"12","num_nodes":"19","size_leaf_vector":"1"}},{"base_weights":[2.166405E-2,-1.513872E0,1.134068E0,-5.0043208E-3,-7.769846E-1,2.660146E-4,1.4823474E0,-1.8254863E-3,-4.388638E-3,2.8603387E-3,4.650993E-3],"categories":[],"categories_nodes":[],"categories_segments":[],"categories_sizes":[],"default_left":[0,0,0,0,0,0,0,0,0,0,0],"id":48,"left_children":[1,3,5,-1,7,-1,9,-1,-1,-1,-1],"loss_changes":[7.5324695E2,3.9822357E1,9.245468E1,0E0,5.0140667E0,0E0,1.6879486E1,0E0,0E0,0E0,0E0],"parents":[2147483647,0,0,1,1,2,2,4,4,6,6],"right_children":[2,4,6,-1,8,-1,10,-1,-1,-1,-1],"split_conditions":[2.8123736E-1,1.8749157E-1,4.2185605E-1,-5.0043208E-3,1E0,2.660146E-4,5.624747E-1,-1.8254863E-3,-4.388638E-3,2.8603387E-3,4.650993E-3],"split_indices":[2,2,2,0,3,0,2,0,0,0,0],"split_type":[0,0,0,0,0,0,0,0,0,0,0],"sum_hessian":[4.409759E2,1.8525468E2,2.5572119E2,1.3271606E2,5.2538628E1,6.424155E1,1.9147964E2,4.5815678E1,6.7229524E0,5.801659E1,1.3346306E2],"tree_param":{"num_deleted":"0","num_feature":"12","num_nodes":"11","size_leaf_vector":"1"}},{"base_weights":[4.4917967E-3,-4.171924E-3,1.1213493E0,1.7206822E-1,1.456979E0,4.833781E-1,-9.600424E-2,2.966771E-3,4.4623343E-3,-2.898671E-4,9.080184E-1,-4.2012394E-3,5.9381997E-5,3.5230024E-4,3.7399672E-3],"categories":[],"categories_nodes":[],"categories_segments":[],"categories_sizes":[],"default_left":[0,0,0,0,0,0,0,0,0,0,0,0,0,0,0],"id":49,"left_children":[1,-1,3,5,7,9,11,-1,-1,-1,13,-1,-1,-1,-1],"loss_changes":[7.4943787E2,0E0,8.139523E1,5.5689883E0,1.1166534E1,7.7088547E0,5.9782124E0,0E0,0E0,0E0,6.1793413E0,0E0,0E0,0E0,0E0],"parents":[2147483647,0,0,2,2,3,3,4,4,5,5,6,6,10,10],"right_children":[2,-1,4,6,8,10,12,-1,-1,-1,14,-1,-1,-1,-1],"split_conditions":[2.8123736E-1,-4.171924E-3,4.2185605E-1,4.318479E-1,5.624747E-1,1E0,4.6626616E-1,2.966771E-3,4.4623343E-3,-2.898671E-4,2.5823176E-1,-4.2012394E-3,5.9381997E-5,3.5230024E-4,3.7399672E-3],"split_indices":[2,0,2,1,2,11,1,0,0,0,1,0,0,0,0],"split_type":[0,0,0,0,0,0,0,0,0,0,0,0,0,0,0],"sum_hessian":[4.4446185E2,1.8898967E2,2.554722E2,6.673153E1,1.8874066E2,3.0875782E1,3.5855747E1,5.3534622E1,1.3520604E2,1.2947908E1,1.7927874E1,2.7389805E0,3.3116764E1,6.473954E0,1.1453919E1],"tree_param":{"num_deleted":"0","num_feature":"12","num_nodes":"15","size_leaf_vector":"1"}},{"base_weights":[6.172839E-3],"categories":[],"categories_nodes":[],"categories_segments":[],"categories_sizes":[],"default_left":[0],"id":50,"left_children":[-1],"loss_changes":[0E0],"parents":[2147483647],"right_children":[-1],"split_conditions":[1.7108505E-5],"split_indices":[0],"split_type":[0],"sum_hessian":[4.382369E2],"tree_param":{"num_deleted":"0","num_feature":"12","num_nodes":"1","size_leaf_vector":"1"}},{"base_weights":[4.0597524E-2,-1.4412552E0,1.1341027E0,-1.7625962E0,-5.9422493E-1,2.9958218E-1,4.2376197E-3,-5.213156E-3,-3.548719E-3,-2.6623206E-3,-7.6079037E-4,5.539604E-2,5.5922306E-1,-4.1000484E-3,4.2274955E-4,1.8701523E-3,-1.5028475E-3],"categories":[],"categories_nodes":[],"categories_segments":[],"categories_sizes":[],"default_left":[0,0,0,0,0,0,0,0,0,0,0,0,0,0,0,0,0],"id":51,"left_children":[1,3,5,7,9,11,-1,-1,-1,-1,-1,13,15,-1,-1,-1,-1],"loss_changes":[7.1173895E2,5.0762512E1,8.327884E1,7.7151794E0,6.008213E0,5.146454E0,0E0,0E0,0E0,0E0,0E0,6.2359967E0,5.006632E0,0E0,0E0,0E0,0E0],"parents":[2147483647,0,0,1,1,2,2,3,3,4,4,5,5,11,11,12,12],"right_children":[2,4,6,8,10,12,-1,-1,-1,-1,-1,14,16,-1,-1,-1,-1],"split_conditions":[2.8123736E-1,1.8749157E-1,4.6872893E-1,1.4061868E-1,2.3436446E-1,3.7498313E-1,4.2376197E-3,-5.213156E-3,-3.548719E-3,-2.6623206E-3,-7.6079037E-4,1.0201767E-1,1E0,-4.1000484E-3,4.2274955E-4,1.8701523E-3,-1.5028475E-3],"split_indices":[2,2,2,2,2,2,0,0,0,0,0,1,6,0,0,0,0],"split_type":[0,0,0,0,0,0,0,0,0,0,0,0,0,0,0,0,0],"sum_hessian":[4.3923288E2,1.8649968E2,2.5273322E2,1.3520604E2,5.1293636E1,8.117342E1,1.7155978E2,1.0856323E2,2.664281E1,2.3903831E1,2.7389807E1,4.1831703E1,3.934172E1,2.4899824E0,3.934172E1,3.5606747E1,3.7349737E0],"tree_param":{"num_deleted":"0","num_feature":"12","num_nodes":"17","size_leaf_vector":"1"}},{"base_weights":[7.245668E-3,-4.198542E-3,1.1281617E0,2.4485952E-4,1.4853395E0,3.135029E-3,4.4907173E-3],"categories":[],"categories_nodes":[],"categories_segments":[],"categories_sizes":[],"default_left":[0,0,0,0,0,0,0],"id":52,"left_children":[1,-1,3,-1,5,-1,-1],"loss_changes":[7.472723E2,0E0,9.367987E1,0E0,8.973206E0,0E0,0E0],"parents":[2147483647,0,0,2,2,4,4],"right_children":[2,-1,4,-1,6,-1,-1],"split_conditions":[2.8123736E-1,-4.198542E-3,4.2185605E-1,2.4485952E-4,5.624747E-1,3.135029E-3,4.4907173E-3],"split_indices":[2,0,2,0,2,0,0],"split_type":[0,0,0,0,0,0,0],"sum_hessian":[4.379879E2,1.8575269E2,2.5223521E2,6.449055E1,1.8774467E2,5.1791634E1,1.3595303E2],"tree_param":{"num_deleted":"0","num_feature":"12","num_nodes":"7","size_leaf_vector":"1"}},{"base_weights":[-6.4559137E-3,-1.5225428E0,1.1351036E0,-4.9579497E-3,-7.481901E-1,4.960579E-4,1.4847789E0,-5.9868777E-1,-4.4455007E-3,2.9804327E-3,4.582048E-3,-4.061677E-3,-1.1507785E-3],"categories":[],"categories_nodes":[],"categories_segments":[],"categories_sizes":[],"default_left":[0,0,0,0,0,0,0,0,0,0,0,0,0],"id":53,"left_children":[1,3,5,-1,7,-1,9,11,-1,-1,-1,-1,-1],"loss_changes":[7.6449133E2,3.912732E1,8.424719E1,0E0,6.212055E0,0E0,1.2724823E1,6.573654E0,0E0,0E0,0E0,0E0,0E0],"parents":[2147483647,0,0,1,1,2,2,4,4,6,6,7,7],"right_children":[2,4,6,-1,8,-1,10,12,-1,-1,-1,-1,-1],"split_conditions":[2.8123736E-1,1.8749157E-1,4.2185605E-1,-4.9579497E-3,8.323676E-1,4.960579E-4,5.624747E-1,2.7515766E-1,-4.4455007E-3,2.9804327E-3,4.582048E-3,-4.061677E-3,-1.1507785E-3],"split_indices":[2,2,2,0,0,0,2,1,0,0,0,0,0],"split_type":[0,0,0,0,0,0,0,0,0,0,0,0,0],"sum_hessian":[4.4172287E2,1.8973666E2,2.5198622E2,1.41182E2,4.8554657E1,6.747852E1,1.8450769E2,4.1333706E1,7.220949E0,5.378362E1,1.3072408E2,7.220949E0,3.411276E1],"tree_param":{"num_deleted":"0","num_feature":"12","num_nodes":"13","size_leaf_vector":"1"}},{"base_weights":[6.0711373E-2,-1.4615833E0,3.298069E-3,-1.7777685E0,-1.6865297E-3,-5.213156E-3,-3.670256E-3],"categories":[],"categories_nodes":[],"categories_segments":[],"categories_sizes":[],"default_left":[0,0,0,0,0,0,0],"id":54,"left_children":[1,3,-1,5,-1,-1,-1],"loss_changes":[7.507829E2,5.0170135E1,0E0,6.349304E0,0E0,0E0,0E0],"parents":[2147483647,0,0,1,1,3,3],"right_children":[2,4,-1,6,-1,-1,-1],"split_conditions":[2.8123736E-1,1.8749157E-1,3.298069E-3,1.4061868E-1,-1.6865297E-3,-5.213156E-3,-3.670256E-3],"split_indices":[2,2,0,2,0,0,0],"split_type":[0,0,0,0,0,0,0],"sum_hessian":[4.3674292E2,1.8600168E2,2.5074123E2,1.3570404E2,5.0297646E1,1.1055522E2,2.5148823E1],"tree_param":{"num_deleted":"0","num_feature":"12","num_nodes":"7","size_leaf_vector":"1"}},{"base_weights":[4.933555E-2,-1.7022942E0,1.01856E0,-5.213156E-3,-3.6396757E-3,1.0528539E-1,4.100777E-3,6.1565044E-4,-6.209832E-1,-3.1261058E-3,6.4521824E-4],"categories":[],"categories_nodes":[],"categories_segments":[],"categories_sizes":[],"default_left":[0,0,0,0,0,0,0,0,0,0,0],"id":55,"left_children":[1,3,5,-1,-1,7,-1,-1,9,-1,-1],"loss_changes":[7.203318E2,1.0505096E1,1.1500748E2,0E0,0E0,7.7758865E0,0E0,0E0,5.496215E0,0E0,0E0],"parents":[2147483647,0,0,1,1,2,2,5,5,8,8],"right_children":[2,4,6,-1,-1,8,-1,-1,10,-1,-1],"split_conditions":[2.3436446E-1,1.4061868E-1,4.2185605E-1,-5.213156E-3,-3.6396757E-3,8.323676E-1,4.100777E-3,6.1565044E-4,3.2811025E-1,-3.1261058E-3,6.4521824E-4],"split_indices":[2,2,2,0,0,0,0,0,2,0,0],"split_type":[0,0,0,0,0,0,0,0,0,0,0],"sum_hessian":[4.24293E2,1.5114194E2,2.7315106E2,1.0358327E2,4.7558662E1,9.1631355E1,1.8151971E2,7.893244E1,1.269891E1,7.9679437E0,4.7309666E0],"tree_param":{"num_deleted":"0","num_feature":"12","num_nodes":"11","size_leaf_vector":"1"}},{"base_weights":[-3.898425E-2],"categories":[],"categories_nodes":[],"categories_segments":[],"categories_sizes":[],"default_left":[0],"id":56,"left_children":[-1],"loss_changes":[0E0],"parents":[2147483647],"right_children":[-1],"split_conditions":[-1.0804789E-4],"split_indices":[0],"split_type":[0],"sum_hessian":[4.3649393E2],"tree_param":{"num_deleted":"0","num_feature":"12","num_nodes":"1","size_leaf_vector":"1"}},{"base_weights":[-2.0538472E-2,-1.6522808E0,1.0115423E0,-5.213156E-3,-3.1654877E-3,2.4317417E-4,1.4658095E0,3.135029E-3,4.4451854E-3],"categories":[],"categories_nodes":[],"categories_segments":[],"categories_sizes":[],"default_left":[0,0,0,0,0,0,0,0,0],"id":57,"left_children":[1,3,5,-1,-1,-1,7,-1,-1],"loss_changes":[7.413851E2,1.9896057E1,1.13165955E2,0E0,0E0,0E0,8.351227E0,0E0,0E0],"parents":[2147483647,0,0,1,1,2,2,6,6],"right_children":[2,4,6,-1,-1,-1,8,-1,-1],"split_conditions":[2.3436446E-1,1.4061868E-1,4.2185605E-1,-5.213156E-3,-3.1654877E-3,2.4317417E-4,5.624747E-1,3.135029E-3,4.4451854E-3],"split_indices":[2,2,2,0,0,0,2,0,0],"split_type":[0,0,0,0,0,0,0,0,0],"sum_hessian":[4.4022888E2,1.705638E2,2.696651E2,1.1777617E2,5.278763E1,8.889237E1,1.8077272E2,5.278763E1,1.2798509E2],"tree_param":{"num_deleted":"0","num_feature":"12","num_nodes":"9","size_leaf_vector":"1"}},{"base_weights":[1.3404758E-2],"categories":[],"categories_nodes":[],"categories_segments":[],"categories_sizes":[],"default_left":[0],"id":58,"left_children":[-1],"loss_changes":[0E0],"parents":[2147483647],"right_children":[-1],"split_conditions":[3.715233E-5],"split_indices":[0],"split_type":[0],"sum_hessian":[4.26534E2],"tree_param":{"num_deleted":"0","num_feature":"12","num_nodes":"1","size_leaf_vector":"1"}},{"base_weights":[3.3235256E-2,-4.7299536E-3,1.0451277E0,3.8392268E-4,1.4666936E0,1.0272706E0,4.6032495E-3,2.3869835E-3,4.7078715E-3],"categories":[],"categories_nodes":[],"categories_segments":[],"categories_sizes":[],"default_left":[0,0,0,0,0,0,0,0,0],"id":59,"left_children":[1,-1,3,-1,5,7,-1,-1,-1],"loss_changes":[7.688939E2,0E0,1.0553879E2,0E0,1.608374E1,6.439213E0,0E0,0E0,0E0],"parents":[2147483647,0,0,2,2,4,4,5,5],"right_children":[2,-1,4,-1,6,8,-1,-1,-1],"split_conditions":[2.3436446E-1,-4.7299536E-3,4.2185605E-1,3.8392268E-4,5.624747E-1,7.2107476E-1,4.6032495E-3,2.3869835E-3,4.7078715E-3],"split_indices":[2,0,2,0,2,1,0,0,0],"split_type":[0,0,0,0,0,0,0,0,0],"sum_hessian":[4.3674292E2,1.6060387E2,2.7613904E2,8.764738E1,1.8849167E2,5.7767593E1,1.3072408E2,4.631367E1,1.1453919E1],"tree_param":{"num_deleted":"0","num_feature":"12","num_nodes":"9","size_leaf_vector":"1"}},{"base_weights":[-3.53367E-2,-1.5413967E0,1.0791183E0,-5.213156E-3,-1.0066828E0,1.6470111E-4,1.439248E0,-3.4436258E-3,-5.4223657E-1,3.004995E-3,4.377502E-3,-2.0328942E-3,1.4653883E-3],"categories":[],"categories_nodes":[],"categories_segments":[],"categories_sizes":[],"default_left":[0,0,0,0,0,0,0,0,0,0,0,0,0],"id":60,"left_children":[1,3,5,-1,7,-1,9,-1,11,-1,-1,-1,-1],"loss_changes":[7.4391113E2,3.422171E1,9.354068E1,0E0,8.017044E0,0E0,9.368286E0,0E0,5.048796E0,0E0,0E0,0E0,0E0],"parents":[2147483647,0,0,1,1,2,2,4,4,6,6,8,8],"right_children":[2,4,6,-1,8,-1,10,-1,12,-1,-1,-1,-1],"split_conditions":[2.8123736E-1,1.4061868E-1,4.2185605E-1,-5.213156E-3,2.3436446E-1,1.6470111E-4,5.624747E-1,-3.4436258E-3,7.804371E-1,3.004995E-3,4.377502E-3,-2.0328942E-3,1.4653883E-3],"split_indices":[2,2,2,0,2,0,2,0,1,0,0,0,0],"split_type":[0,0,0,0,0,0,0,0,0,0,0,0,0],"sum_hessian":[4.4321686E2,1.8849167E2,2.547252E2,1.1528619E2,7.320548E1,6.648253E1,1.8824268E2,4.8554657E1,2.4650826E1,5.328562E1,1.3495705E2,2.0915852E1,3.7349737E0],"tree_param":{"num_deleted":"0","num_feature":"12","num_nodes":"13","size_leaf_vector":"1"}},{"base_weights":[-1.7964749E-2,-1.5324082E0,1.1220535E0,-1.7882003E0,-7.581556E-1,3.3816788E-1,1.5163645E0,-5.213156E-3,-3.794509E-3,-3.1179239E-3,-1.2457012E-3,2.678031E-1,4.160236E-3,3.1968667E-3,4.4603893E-3,6.022983E-1,7.858979E-5,5.113136E-4,2.9981718E-3],"categories":[],"categories_nodes":[],"categories_segments":[],"categories_sizes":[],"default_left":[0,0,0,0,0,0,0,0,0,0,0,0,0,0,0,0,0,0,0],"id":61,"left_children":[1,3,5,7,9,11,13,-1,-1,-1,-1,15,-1,-1,-1,17,-1,-1,-1],"loss_changes":[7.4973474E2,3.693579E1,7.657922E1,5.4485474E0,5.244259E0,6.784625E0,5.561493E0,0E0,0E0,0E0,0E0,6.2621894E0,0E0,0E0,0E0,6.5343256E0,0E0,0E0,0E0],"parents":[2147483647,0,0,1,1,2,2,3,3,4,4,5,5,6,6,11,11,15,15],"right_children":[2,4,6,8,10,12,14,-1,-1,-1,-1,16,-1,-1,-1,18,-1,-1,-1],"split_conditions":[2.8123736E-1,1.8749157E-1,4.6872893E-1,1.4061868E-1,2.3436446E-1,9.4451874E-1,5.624747E-1,-5.213156E-3,-3.794509E-3,-3.1179239E-3,-1.2457012E-3,4.318479E-1,4.160236E-3,3.1968667E-3,4.4603893E-3,3.7498313E-1,7.858979E-5,5.113136E-4,2.9981718E-3],"split_indices":[2,2,2,2,2,0,2,0,0,0,0,1,0,0,0,2,0,0,0],"split_type":[0,0,0,0,0,0,0,0,0,0,0,0,0,0,0,0,0,0,0],"sum_hessian":[4.3425293E2,1.8649968E2,2.4775325E2,1.40186E2,4.631367E1,8.291641E1,1.6483684E2,1.14788185E2,2.539782E1,2.116485E1,2.5148823E1,7.818545E1,4.7309666E0,3.361476E1,1.3122208E2,3.261877E1,4.5566677E1,1.7429876E1,1.5188892E1],"tree_param":{"num_deleted":"0","num_feature":"12","num_nodes":"19","size_leaf_vector":"1"}},{"base_weights":[-3.900101E-2,-1.49647E0,3.0019905E-3,-4.9561365E-3,-1.9798903E-3],"categories":[],"categories_nodes":[],"categories_segments":[],"categories_sizes":[],"default_left":[0,0,0,0,0],"id":62,"left_children":[1,3,-1,-1,-1],"loss_changes":[7.2364935E2,4.3916473E1,0E0,0E0,0E0],"parents":[2147483647,0,0,1,1],"right_children":[2,4,-1,-1,-1],"split_conditions":[2.8123736E-1,1.8749157E-1,3.0019905E-3,-4.9561365E-3,-1.9798903E-3],"split_indices":[2,2,0,0,0],"split_type":[0,0,0,0,0],"sum_hessian":[4.4246988E2,1.9247563E2,2.4999423E2,1.40186E2,5.228963E1],"tree_param":{"num_deleted":"0","num_feature":"12","num_nodes":"5","size_leaf_vector":"1"}},{"base_weights":[-2.3930559E-2,-2.4408586E-1,5.4149803E-2,-4.693019E-3,1.0755932E0,-1.3712778E0,1.3021909E0,1.2253132E-3,4.327626E-3,-4.694865E-3,-9.198034E-4,2.0461353E-3,4.690288E-3],"categories":[],"categories_nodes":[],"categories_segments":[],"categories_sizes":[],"default_left":[0,0,0,0,0,0,0,0,0,0,0,0,0],"id":63,"left_children":[1,3,5,-1,7,9,11,-1,-1,-1,-1,-1,-1],"loss_changes":[7.3405967E0,2.1381267E2,5.607949E2,0E0,1.8009308E1,4.9352325E1,3.6973724E1,0E0,0E0,0E0,0E0,0E0,0E0],"parents":[2147483647,0,0,1,1,2,2,4,4,5,5,6,6],"right_children":[2,4,6,-1,8,10,12,-1,-1,-1,-1,-1,-1],"split_conditions":[3.5261005E-1,2.8123736E-1,3.2811025E-1,-4.693019E-3,5.156018E-1,2.3436446E-1,5.624747E-1,1.2253132E-3,4.327626E-3,-4.694865E-3,-9.198034E-4,2.0461353E-3,4.690288E-3],"split_indices":[1,2,2,0,2,2,2,0,0,0,0,0,0],"split_type":[0,0,0,0,0,0,0,0,0,0,0,0,0],"sum_hessian":[4.2703198E2,1.1180021E2,3.1523178E2,5.328562E1,5.8514587E1,1.4715796E2,1.680738E2,2.539782E1,3.3116764E1,1.122982E2,3.4859753E1,6.872351E1,9.9350296E1],"tree_param":{"num_deleted":"0","num_feature":"12","num_nodes":"13","size_leaf_vector":"1"}},{"base_weights":[-6.204669E-4,-1.491757E0,1.1050826E0,-1.7785202E0,-6.802467E-1,9.5974E-4,1.493068E0,-5.213156E-3,-3.6390861E-3,-2.8632954E-3,-1.0390631E-3,2.9760154E-3,4.449243E-3],"categories":[],"categories_nodes":[],"categories_segments":[],"categories_sizes":[],"default_left":[0,0,0,0,0,0,0,0,0,0,0,0,0],"id":64,"left_children":[1,3,5,7,9,-1,11,-1,-1,-1,-1,-1,-1],"loss_changes":[7.163869E2,4.3052948E1,7.345282E1,6.517212E0,5.204468E0,0E0,7.769562E0,0E0,0E0,0E0,0E0,0E0,0E0],"parents":[2147483647,0,0,1,1,2,2,3,3,4,4,6,6],"right_children":[2,4,6,8,10,-1,12,-1,-1,-1,-1,-1,-1],"split_conditions":[2.8123736E-1,1.8749157E-1,4.6872893E-1,1.4061868E-1,2.3436446E-1,9.5974E-4,5.624747E-1,-5.213156E-3,-3.6390861E-3,-2.8632954E-3,-1.0390631E-3,2.9760154E-3,4.449243E-3],"split_indices":[2,2,2,2,2,0,2,0,0,0,0,0,0],"split_type":[0,0,0,0,0,0,0,0,0,0,0,0,0],"sum_hessian":[4.3450192E2,1.8500569E2,2.4949623E2,1.3670003E2,4.830566E1,8.44104E1,1.6508583E2,1.1204921E2,2.4650826E1,2.2409842E1,2.5895817E1,3.4859753E1,1.3022607E2],"tree_param":{"num_deleted":"0","num_feature":"12","num_nodes":"13","size_leaf_vector":"1"}},{"base_weights":[-1.49399545E-2,-1.5230125E0,1.1311351E0,-4.69349E-3,-1.0531172E-3,6.05276E-4,1.4567642E0,1.0414901E0,4.537179E-3,2.2320242E-3,4.2404947E-3],"categories":[],"categories_nodes":[],"categories_segments":[],"categories_sizes":[],"default_left":[0,0,0,0,0,0,0,0,0,0,0],"id":65,"left_children":[1,3,5,-1,-1,-1,7,9,-1,-1,-1],"loss_changes":[7.6044556E2,3.700943E1,7.430261E1,0E0,0E0,0E0,1.3794189E1,6.434635E0,0E0,0E0,0E0],"parents":[2147483647,0,0,1,1,2,2,6,6,7,7],"right_children":[2,4,6,-1,-1,-1,8,10,-1,-1,-1],"split_conditions":[2.8123736E-1,2.3436446E-1,4.2185605E-1,-4.69349E-3,-1.0531172E-3,6.05276E-4,5.624747E-1,6.233239E-1,4.537179E-3,2.2320242E-3,4.2404947E-3],"split_indices":[2,2,2,0,0,0,2,1,0,0,0],"split_type":[0,0,0,0,0,0,0,0,0,0,0],"sum_hessian":[4.399799E2,1.8998566E2,2.4999423E2,1.6533482E2,2.4650826E1,6.5735535E1,1.842587E2,5.5775604E1,1.284831E2,3.7598736E1,1.8176872E1],"tree_param":{"num_deleted":"0","num_feature":"12","num_nodes":"11","size_leaf_vector":"1"}},{"base_weights":[-2.2640614E-2,-4.123622E-3,1.0697452E0,4.8244524E-1,4.4631497E-3,3.7299018E-4,2.532318E-3],"categories":[],"categories_nodes":[],"categories_segments":[],"categories_sizes":[],"default_left":[0,0,0,0,0,0,0],"id":66,"left_children":[1,-1,3,5,-1,-1,-1],"loss_changes":[7.054038E2,0E0,8.015973E1,1.8153273E1,0E0,0E0,0E0],"parents":[2147483647,0,0,2,2,3,3],"right_children":[2,-1,4,6,-1,-1,-1],"split_conditions":[2.8123736E-1,-4.123622E-3,5.624747E-1,4.2185605E-1,4.4631497E-3,3.7299018E-4,2.532318E-3],"split_indices":[2,0,2,2,0,0,0],"split_type":[0,0,0,0,0,0,0],"sum_hessian":[4.407269E2,1.8824268E2,2.5248422E2,1.21013145E2,1.3147107E2,6.698053E1,5.403262E1],"tree_param":{"num_deleted":"0","num_feature":"12","num_nodes":"7","size_leaf_vector":"1"}},{"base_weights":[-9.313389E-3,-1.5551608E0,1.1204021E0,-5.015097E-3,-8.0293036E-1,4.106689E-1,1.4815127E0,-6.510058E-1,-4.471089E-3,7.7075616E-4,2.3448707E-3,3.042885E-3,4.408481E-3,-4.2012497E-3,-4.2628646E-1,-6.7833916E-4,-4.0414724E-3],"categories":[],"categories_nodes":[],"categories_segments":[],"categories_sizes":[],"default_left":[0,0,0,0,0,0,0,0,0,0,0,0,0,0,0,0,0],"id":67,"left_children":[1,3,5,-1,7,9,11,13,-1,-1,-1,-1,-1,-1,15,-1,-1],"loss_changes":[7.744545E2,3.5820587E1,6.566699E1,0E0,5.8237495E0,4.9871435E0,7.1067505E0,7.7425823E0,0E0,0E0,0E0,0E0,0E0,0E0,5.923857E0,0E0,0E0],"parents":[2147483647,0,0,1,1,2,2,4,4,5,5,6,6,7,7,14,14],"right_children":[2,4,6,-1,8,10,12,14,-1,-1,-1,-1,-1,-1,16,-1,-1],"split_conditions":[2.8123736E-1,1.8749157E-1,4.6872893E-1,-5.015097E-3,8.323676E-1,4.2185605E-1,5.624747E-1,2.7515766E-1,-4.471089E-3,7.7075616E-4,2.3448707E-3,3.042885E-3,4.408481E-3,-4.2012497E-3,1E0,-6.7833916E-4,-4.0414724E-3],"split_indices":[2,2,2,0,0,2,2,1,0,0,0,0,0,0,10,0,0],"split_type":[0,0,0,0,0,0,0,0,0,0,0,0,0,0,0,0,0],"sum_hessian":[4.4346585E2,1.8724667E2,2.5621918E2,1.3993701E2,4.7309666E1,8.640239E1,1.698168E2,3.9839718E1,7.4699473E0,6.623353E1,2.0168858E1,3.7598736E1,1.3221806E2,8.216942E0,3.1622776E1,2.689181E1,4.7309666E0],"tree_param":{"num_deleted":"0","num_feature":"12","num_nodes":"17","size_leaf_vector":"1"}},{"base_weights":[-2.4738012E-2,-1.6698784E0,9.659161E-1,-5.213156E-3,-3.2652456E-3,8.369476E-2,1.4094241E0,-4.60631E-4,3.1536627E-1,2.647062E-3,4.412434E-3,2.065262E-1,4.4336244E-3,6.148955E-2,3.1350243E-3,5.157658E-1,-6.8739965E-4,4.7071438E-4,4.4336244E-3],"categories":[],"categories_nodes":[],"categories_segments":[],"categories_sizes":[],"default_left":[0,0,0,0,0,0,0,0,0,0,0,0,0,0,0,0,0,0,0],"id":68,"left_children":[1,3,5,-1,-1,7,9,-1,11,-1,-1,13,-1,15,-1,17,-1,-1,-1],"loss_changes":[7.1909296E2,1.7211548E1,1.07753265E2,0E0,0E0,5.333651E0,1.5204681E1,0E0,6.682756E0,0E0,0E0,5.9102325E0,0E0,5.356467E0,0E0,5.7885346E0,0E0,0E0,0E0],"parents":[2147483647,0,0,1,1,2,2,5,5,6,6,8,8,11,11,13,13,15,15],"right_children":[2,4,6,-1,-1,8,10,-1,12,-1,-1,14,-1,16,-1,18,-1,-1,-1],"split_conditions":[2.3436446E-1,1.4061868E-1,4.2185605E-1,-5.213156E-3,-3.2652456E-3,1E0,5.624747E-1,-4.60631E-4,1E0,2.647062E-3,4.412434E-3,1E0,4.4336244E-3,4.270111E-1,3.1350243E-3,3.805066E-1,-6.8739965E-4,4.7071438E-4,4.4336244E-3],"split_indices":[2,2,2,0,0,11,2,0,5,0,0,7,0,1,0,1,0,0,0],"split_type":[0,0,0,0,0,0,0,0,0,0,0,0,0,0,0,0,0,0,0],"sum_hessian":[4.4122488E2,1.6583282E2,2.7539206E2,1.1603318E2,4.979965E1,9.212935E1,1.8326271E2,4.4321686E1,4.7807663E1,5.2538628E1,1.3072408E2,4.407269E1,3.7349737E0,3.809673E1,5.975958E0,1.5437891E1,2.265884E1,1.1702917E1,3.7349737E0],"tree_param":{"num_deleted":"0","num_feature":"12","num_nodes":"19","size_leaf_vector":"1"}},{"base_weights":[4.239396E-2,-4.0730624E-3,1.1509775E0,5.472053E-1,4.6879374E-3,4.2690477E-1,2.478938E-3,3.5230076E-4,2.2074527E-3],"categories":[],"categories_nodes":[],"categories_segments":[],"categories_sizes":[],"default_left":[0,0,0,0,0,0,0,0,0],"id":69,"left_children":[1,-1,3,5,-1,7,-1,-1,-1],"loss_changes":[7.320476E2,0E0,8.222604E1,4.9714394E0,0E0,9.79323E0,0E0,0E0,0E0],"parents":[2147483647,0,0,2,2,3,3,5,5],"right_children":[2,-1,4,6,-1,8,-1,-1,-1],"split_conditions":[2.8123736E-1,-4.0730624E-3,5.624747E-1,7.2021645E-1,4.6879374E-3,4.2185605E-1,2.478938E-3,3.5230076E-4,2.2074527E-3],"split_indices":[2,0,2,0,0,2,0,0,0],"split_type":[0,0,0,0,0,0,0,0,0],"sum_hessian":[4.3674292E2,1.847567E2,2.5198622E2,1.1902116E2,1.3296506E2,8.839438E1,3.0626783E1,4.8803654E1,3.959072E1],"tree_param":{"num_deleted":"0","num_feature":"12","num_nodes":"9","size_leaf_vector":"1"}},{"base_weights":[-1.3193089E-2,-4.228888E-3,1.1271977E0,3.5280016E-1,1.5264785E0,6.457463E-1,1.2711197E-1,4.7626626E-3,3.754284E-3,2.8157696E-1,2.8681906E-3,-5.6626956E-4,1.3696419E-3,2.207451E-3,-6.466267E-4],"categories":[],"categories_nodes":[],"categories_segments":[],"categories_sizes":[],"default_left":[0,0,0,0,0,0,0,0,0,0,0,0,0,0,0],"id":70,"left_children":[1,-1,3,5,7,9,11,-1,-1,13,-1,-1,-1,-1,-1],"loss_changes":[7.68401E2,0E0,7.853058E1,5.71245E0,5.5287476E0,5.32784E0,5.93714E0,0E0,0E0,5.1488304E0,0E0,0E0,0E0,0E0,0E0],"parents":[2147483647,0,0,2,2,3,3,4,4,5,5,6,6,9,9],"right_children":[2,-1,4,6,8,10,12,-1,-1,14,-1,-1,-1,-1,-1],"split_conditions":[2.8123736E-1,-4.228888E-3,4.6872893E-1,4.318479E-1,1E0,3.7498313E-1,3.7498313E-1,4.7626626E-3,3.754284E-3,3.2811025E-1,2.8681906E-3,-5.6626956E-4,1.3696419E-3,2.207451E-3,-6.466267E-4],"split_indices":[2,0,2,1,11,2,2,0,0,2,0,0,0,0,0],"split_type":[0,0,0,0,0,0,0,0,0,0,0,0,0,0,0],"sum_hessian":[4.4545786E2,1.9147964E2,2.5397821E2,8.640239E1,1.6757582E2,3.7598736E1,4.8803654E1,7.918144E1,8.839438E1,1.9421864E1,1.8176872E1,2.5646818E1,2.3156836E1,9.710932E0,9.710932E0],"tree_param":{"num_deleted":"0","num_feature":"12","num_nodes":"15","size_leaf_vector":"1"}},{"base_weights":[1.1914734E-2,-1.5032619E0,1.1301537E0,-1.7798096E0,-2.024904E-3,3.1517673E-1,4.2127334E-3,-5.213156E-3,-3.8462006E-3,5.222384E-4,2.207452E-3],"categories":[],"categories_nodes":[],"categories_segments":[],"categories_sizes":[],"default_left":[0,0,0,0,0,0,0,0,0,0,0],"id":71,"left_children":[1,3,5,7,-1,9,-1,-1,-1,-1,-1],"loss_changes":[7.501117E2,4.0170288E1,8.092529E1,5.489044E0,0E0,5.0277586E0,0E0,0E0,0E0,0E0,0E0],"parents":[2147483647,0,0,1,1,2,2,3,3,5,5],"right_children":[2,4,6,8,-1,10,-1,-1,-1,-1,-1],"split_conditions":[2.8123736E-1,1.8749157E-1,4.6872893E-1,1.4061868E-1,-2.024904E-3,4.2185605E-1,4.2127334E-3,-5.213156E-3,-3.8462006E-3,5.222384E-4,2.207452E-3],"split_indices":[2,2,2,2,0,2,0,0,0,0,0],"split_type":[0,0,0,0,0,0,0,0,0,0,0],"sum_hessian":[4.4271887E2,1.8799367E2,2.547252E2,1.3844302E2,4.955065E1,8.241842E1,1.7230678E2,1.1005722E2,2.83858E1,6.523754E1,1.7180878E1],"tree_param":{"num_deleted":"0","num_feature":"12","num_nodes":"11","size_leaf_vector":"1"}},{"base_weights":[3.0504953E-2,-5.6720944E-4,1.1462025E-1,-1.6410348E0,1.0661265E0,-5.213156E-3,-3.1961442E-3,1.1953444E-1,4.1767186E-3,1.8364214E-3,-1.09224886E-4],"categories":[],"categories_nodes":[],"categories_segments":[],"categories_sizes":[],"default_left":[0,0,0,0,0,0,0,0,0,0,0],"id":72,"left_children":[1,-1,3,5,7,-1,-1,9,-1,-1,-1],"loss_changes":[8.59951E0,0E0,5.3491907E2,1.3171875E1,8.666057E1,0E0,0E0,5.695467E0,0E0,0E0,0E0],"parents":[2147483647,0,0,2,2,3,3,4,4,7,7],"right_children":[2,-1,4,6,8,-1,-1,10,-1,-1,-1],"split_conditions":[3.4975633E-1,-5.6720944E-4,2.3436446E-1,1.4061868E-1,4.2185605E-1,-5.213156E-3,-3.1961442E-3,4.400935E-1,4.1767186E-3,1.8364214E-3,-1.09224886E-4],"split_indices":[1,0,2,2,2,0,0,1,0,0,0],"split_type":[0,0,0,0,0,0,0,0,0,0,0],"sum_hessian":[4.3475092E2,1.1453919E2,3.2021173E2,1.125472E2,2.0766454E2,7.5446465E1,3.710074E1,6.5984535E1,1.4168E2,1.4939895E1,5.104464E1],"tree_param":{"num_deleted":"0","num_feature":"12","num_nodes":"11","size_leaf_vector":"1"}},{"base_weights":[4.2817924E-2],"categories":[],"categories_nodes":[],"categories_segments":[],"categories_sizes":[],"default_left":[0],"id":73,"left_children":[-1],"loss_changes":[0E0],"parents":[2147483647],"right_children":[-1],"split_conditions":[1.1867322E-4],"split_indices":[0],"split_type":[0],"sum_hessian":[4.3300793E2],"tree_param":{"num_deleted":"0","num_feature":"12","num_nodes":"1","size_leaf_vector":"1"}},{"base_weights":[1.0443379E-2,-4.1175936E-3,1.119415E0,8.940709E-4,4.189154E-3],"categories":[],"categories_nodes":[],"categories_segments":[],"categories_sizes":[],"default_left":[0,0,0,0,0],"id":74,"left_children":[1,-1,3,-1,-1],"loss_changes":[7.394833E2,0E0,7.996515E1,0E0,0E0],"parents":[2147483647,0,0,2,2],"right_children":[2,-1,4,-1,-1],"split_conditions":[2.8123736E-1,-4.1175936E-3,4.6872893E-1,8.940709E-4,4.189154E-3],"split_indices":[2,0,2,0,0],"split_type":[0,0,0,0,0],"sum_hessian":[4.4570685E2,1.8973666E2,2.5597018E2,8.44104E1,1.7155978E2],"tree_param":{"num_deleted":"0","num_feature":"12","num_nodes":"5","size_leaf_vector":"1"}},{"base_weights":[1.853806E-2,-1.5853365E-1,8.339092E-2,-1.543298E0,1.1188408E0,-1.4527478E0,1.2096167E0,-5.0131986E-3,-2.1946018E-3,1.0105802E-3,4.379933E-3,-1.7595409E0,-6.2419766E-1,3.7282223E-1,4.440983E-3,-5.213156E-3,-3.6038656E-3,-2.8064707E-3,-6.3880766E-4,3.0025155E-3,6.091679E-4],"categories":[],"categories_nodes":[],"categories_segments":[],"categories_sizes":[],"default_left":[0,0,0,0,0,0,0,0,0,0,0,0,0,0,0,0,0,0,0,0,0],"id":75,"left_children":[1,3,5,7,9,11,13,-1,-1,-1,-1,15,17,19,-1,-1,-1,-1,-1,-1,-1],"loss_changes":[5.0239625E0,2.07449E2,5.539789E2,1.1227097E1,2.1232208E1,3.4431763E1,6.0714844E1,0E0,0E0,0E0,0E0,5.5109253E0,5.5970964E0,6.4163704E0,0E0,0E0,0E0,0E0,0E0,0E0,0E0],"parents":[2147483647,0,0,1,1,2,2,3,3,4,4,5,5,6,6,11,11,12,12,13,13],"right_children":[2,4,6,8,10,12,14,-1,-1,-1,-1,16,18,20,-1,-1,-1,-1,-1,-1,-1],"split_conditions":[3.552754E-1,2.8123736E-1,2.8123736E-1,1.8749157E-1,4.6872893E-1,1.8749157E-1,4.6872893E-1,-5.0131986E-3,-2.1946018E-3,1.0105802E-3,4.379933E-3,1.4061868E-1,2.3436446E-1,4.3037453E-1,4.440983E-3,-5.213156E-3,-3.6038656E-3,-2.8064707E-3,-6.3880766E-4,3.0025155E-3,6.091679E-4],"split_indices":[1,2,2,2,2,2,2,0,0,0,0,2,2,1,0,0,0,0,0,0,0],"split_type":[0,0,0,0,0,0,0,0,0,0,0,0,0,0,0,0,0,0,0,0,0],"sum_hessian":[4.374899E2,1.1727817E2,3.2021173E2,5.62736E1,6.100457E1,1.3545505E2,1.847567E2,4.1582706E1,1.4690896E1,2.3156836E1,3.7847733E1,9.88523E1,3.660274E1,5.9012585E1,1.2574411E2,7.818545E1,2.0666853E1,1.8425869E1,1.8176872E1,1.0457926E1,4.8554657E1],"tree_param":{"num_deleted":"0","num_feature":"12","num_nodes":"21","size_leaf_vector":"1"}},{"base_weights":[-1.023883E-2,3.0154228E-2,-3.3628324E-1,-1.513094E0,1.1620961E0,-1.4984487E0,2.825836E-3,-1.7038578E0,-4.2053685E-1,3.3063015E-1,1.5642431E0,-5.2131535E-3,-1.5028495E-3,-5.213156E-3,-3.708978E-3,-5.752751E-4,-4.4710836E-3,6.689656E-1,7.9863824E-2,3.288407E-3,4.609588E-3,4.499401E-4,1.0874814E0,-1.3679303E-3,3.5410842E-1,-3.4338047E-4,4.0275995E-3,1.3546475E-4,2.6956482E-3],"categories":[],"categories_nodes":[],"categories_segments":[],"categories_sizes":[],"default_left":[0,0,0,0,0,0,0,0,0,0,0,0,0,0,0,0,0,0,0,0,0,0,0,0,0,0,0,0,0],"id":76,"left_children":[1,3,5,7,9,11,-1,13,15,17,19,-1,-1,-1,-1,-1,-1,21,23,-1,-1,-1,25,-1,27,-1,-1,-1,-1],"loss_changes":[5.8010635E0,6.846379E2,7.650923E1,3.4562958E1,7.5598206E1,9.562119E0,0E0,9.14093E0,6.2614274E0,6.253234E0,5.6945496E0,0E0,0E0,0E0,0E0,0E0,0E0,6.652197E0,6.6566634E0,0E0,0E0,0E0,7.6110916E0,0E0,5.405813E0,0E0,0E0,0E0,0E0],"parents":[2147483647,0,0,1,1,2,2,3,3,4,4,5,5,7,7,8,8,9,9,10,10,17,17,18,18,22,22,24,24],"right_children":[2,4,6,8,10,12,-1,14,16,18,20,-1,-1,-1,-1,-1,-1,22,24,-1,-1,-1,26,-1,28,-1,-1,-1,-1],"split_conditions":[1E0,2.8123736E-1,3.2811025E-1,2.3436446E-1,4.6872893E-1,1.8749157E-1,2.825836E-3,1.4061868E-1,8.323676E-1,4.5000315E-1,5.624747E-1,-5.2131535E-3,-1.5028495E-3,-5.213156E-3,-3.708978E-3,-5.752751E-4,-4.4710836E-3,1E0,5.534961E-1,3.288407E-3,4.609588E-3,4.499401E-4,2.2773747E-1,-1.3679303E-3,6.080653E-1,-3.4338047E-4,4.0275995E-3,1.3546475E-4,2.6956482E-3],"split_indices":[8,2,2,2,2,2,0,2,0,1,2,0,0,0,0,0,0,11,1,0,0,0,1,0,0,0,0,0,0],"split_type":[0,0,0,0,0,0,0,0,0,0,0,0,0,0,0,0,0,0,0,0,0,0,0,0,0,0,0,0,0],"sum_hessian":[4.4047787E2,3.9192322E2,4.8554657E1,1.6583282E2,2.2609041E2,2.6144815E1,2.2409842E1,1.41182E2,2.4650826E1,7.3703476E1,1.5238692E2,1.8674868E1,7.4699473E0,9.5117325E1,4.6064674E1,2.0915852E1,3.7349737E0,3.1373777E1,4.23297E1,3.1622776E1,1.20764145E2,1.41929E1,1.7180878E1,1.3694903E1,2.8634798E1,3.9839718E0,1.3196907E1,1.9172865E1,9.461933E0],"tree_param":{"num_deleted":"0","num_feature":"12","num_nodes":"29","size_leaf_vector":"1"}},{"base_weights":[4.8906293E-2,-4.1016084E-3,3.1160254E-3],"categories":[],"categories_nodes":[],"categories_segments":[],"categories_sizes":[],"default_left":[0,0,0],"id":77,"left_children":[1,-1,-1],"loss_changes":[7.147376E2,0E0,0E0],"parents":[2147483647,0,0],"right_children":[2,-1,-1],"split_conditions":[2.8123736E-1,-4.1016084E-3,3.1160254E-3],"split_indices":[2,0,0],"split_type":[0,0,0],"sum_hessian":[4.3475092E2,1.7952773E2,2.5522319E2],"tree_param":{"num_deleted":"0","num_feature":"12","num_nodes":"3","size_leaf_vector":"1"}},{"base_weights":[-7.524924E-3,-4.2980807E-3,1.1341382E0,5.2698267E-1,4.580402E-3,5.0875935E-4,2.5732573E-3],"categories":[],"categories_nodes":[],"categories_segments":[],"categories_sizes":[],"default_left":[0,0,0,0,0,0,0],"id":78,"left_children":[1,-1,3,5,-1,-1,-1],"loss_changes":[7.6553436E2,0E0,7.862158E1,1.5860174E1,0E0,0E0,0E0],"parents":[2147483647,0,0,2,2,3,3],"right_children":[2,-1,4,6,-1,-1,-1],"split_conditions":[2.8123736E-1,-4.2980807E-3,5.624747E-1,4.2185605E-1,4.580402E-3,5.0875935E-4,2.5732573E-3],"split_indices":[2,0,2,2,0,0,0],"split_type":[0,0,0,0,0,0,0],"sum_hessian":[4.3450192E2,1.847567E2,2.4974524E2,1.15037186E2,1.3470805E2,6.200056E1,5.3036625E1],"tree_param":{"num_deleted":"0","num_feature":"12","num_nodes":"7","size_leaf_vector":"1"}},{"base_weights":[1.6653539E-4,-1.5440316E0,1.1727579E0,-5.0111427E-3,-8.1666964E-1,8.986033E-4,1.5899873E0,-3.2420557E-3,-1.360147E-3,1.109149E0,4.7538783E-3,4.168612E-3,1.9305635E-3],"categories":[],"categories_nodes":[],"categories_segments":[],"categories_sizes":[],"default_left":[0,0,0,0,0,0,0,0,0,0,0,0,0],"id":79,"left_children":[1,3,5,-1,7,-1,9,-1,-1,11,-1,-1,-1],"loss_changes":[7.845043E2,3.5909973E1,8.7184265E1,0E0,5.7307777E0,0E0,9.941284E0,0E0,0E0,5.5581856E0,0E0,0E0,0E0],"parents":[2147483647,0,0,1,1,2,2,4,4,6,6,9,9],"right_children":[2,4,6,-1,8,-1,10,-1,-1,12,-1,-1,-1],"split_conditions":[2.8123736E-1,1.8749157E-1,4.6872893E-1,-5.0111427E-3,2.3436446E-1,8.986033E-4,5.624747E-1,-3.2420557E-3,-1.360147E-3,1E0,4.7538783E-3,4.168612E-3,1.9305635E-3],"split_indices":[2,2,2,0,2,0,2,0,0,11,0,0,0],"split_type":[0,0,0,0,0,0,0,0,0,0,0,0,0],"sum_hessian":[4.3325693E2,1.8699768E2,2.4625926E2,1.3719803E2,4.979965E1,8.117342E1,1.6508583E2,2.3903831E1,2.5895817E1,3.411276E1,1.3097307E2,1.7429876E1,1.6682882E1],"tree_param":{"num_deleted":"0","num_feature":"12","num_nodes":"13","size_leaf_vector":"1"}},{"base_weights":[2.3698175E-2,-1.6497047E0,1.0213909E0,-5.213156E-3,-3.1796233E-3,2.3992357E-1,4.2867926E-3,3.653019E-5,6.322032E-1,5.179397E-1,5.122678E-3,5.917728E-3,1.1811983E-3],"categories":[],"categories_nodes":[],"categories_segments":[],"categories_sizes":[],"default_left":[0,0,0,0,0,0,0,0,0,0,0,0,0],"id":80,"left_children":[1,3,5,-1,-1,7,-1,-1,9,11,-1,-1,-1],"loss_changes":[7.3456494E2,1.9094238E1,1.1315341E2,0E0,0E0,9.8556795E0,0E0,0E0,5.6396904E0,5.5053797E0,0E0,0E0,0E0],"parents":[2147483647,0,0,1,1,2,2,5,5,8,8,9,9],"right_children":[2,4,6,-1,-1,8,-1,-1,10,12,-1,-1,-1],"split_conditions":[2.3436446E-1,1.4061868E-1,4.6872893E-1,-5.213156E-3,-3.1796233E-3,3.7498313E-1,4.2867926E-3,3.653019E-5,9.4451874E-1,1.2697405E-1,5.122678E-3,5.917728E-3,1.1811983E-3],"split_indices":[2,2,2,0,0,2,0,0,0,1,0,0,0],"split_type":[0,0,0,0,0,0,0,0,0,0,0,0,0],"sum_hessian":[4.399799E2,1.6433884E2,2.7564105E2,1.125472E2,5.1791634E1,1.10804214E2,1.6483684E2,7.021751E1,4.058671E1,3.710074E1,3.4859753E0,1.9919859E0,3.5108753E1],"tree_param":{"num_deleted":"0","num_feature":"12","num_nodes":"13","size_leaf_vector":"1"}},{"base_weights":[-1.789424E-2,-1.5286454E0,3.084434E-3,-4.9685207E-3,-2.1878304E-3],"categories":[],"categories_nodes":[],"categories_segments":[],"categories_sizes":[],"default_left":[0,0,0,0,0],"id":81,"left_children":[1,3,-1,-1,-1],"loss_changes":[7.363127E2,3.6012756E1,0E0,0E0,0E0],"parents":[2147483647,0,0,1,1],"right_children":[2,4,-1,-1,-1],"split_conditions":[2.8123736E-1,1.8749157E-1,3.084434E-3,-4.9685207E-3,-2.1878304E-3],"split_indices":[2,2,0,0,0],"split_type":[0,0,0,0,0],"sum_hessian":[4.3101596E2,1.8450769E2,2.4650826E2,1.3595303E2,4.8554657E1],"tree_param":{"num_deleted":"0","num_feature":"12","num_nodes":"5","size_leaf_vector":"1"}},{"base_weights":[1.2073604E-2,-1.4945621E0,3.0400092E-3,-1.7831641E0,-7.391039E-1,-5.213156E-3,-3.7366052E-3,-3.0551206E-3,-1.1178195E-3],"categories":[],"categories_nodes":[],"categories_segments":[],"categories_sizes":[],"default_left":[0,0,0,0,0,0,0,0,0],"id":82,"left_children":[1,3,-1,5,7,-1,-1,-1,-1],"loss_changes":[7.1745996E2,4.0064728E1,0E0,5.6546936E0,6.194952E0,0E0,0E0,0E0,0E0],"parents":[2147483647,0,0,1,1,3,3,4,4],"right_children":[2,4,-1,6,8,-1,-1,-1,-1],"split_conditions":[2.8123736E-1,1.8749157E-1,3.0400092E-3,1.4061868E-1,2.3436446E-1,-5.213156E-3,-3.7366052E-3,-3.0551206E-3,-1.1178195E-3],"split_indices":[2,2,0,2,2,0,0,0,0],"split_type":[0,0,0,0,0,0,0,0,0],"sum_hessian":[4.389839E2,1.837607E2,2.5522319E2,1.3296506E2,5.079564E1,1.0856323E2,2.4401827E1,2.4401827E1,2.6393814E1],"tree_param":{"num_deleted":"0","num_feature":"12","num_nodes":"9","size_leaf_vector":"1"}},{"base_weights":[2.8796555E-3,-1.5077109E0,1.1410367E0,-5.213156E-3,-9.551466E-1,3.4764883E-1,1.5519831E0,-3.2392005E-3,-5.4223657E-1,1.3941443E-4,1.8887763E-3,3.6698205E-3,4.838583E-3,-2.0509637E-3,1.3344372E-3],"categories":[],"categories_nodes":[],"categories_segments":[],"categories_sizes":[],"default_left":[0,0,0,0,0,0,0,0,0,0,0,0,0,0,0],"id":83,"left_children":[1,3,5,-1,7,9,11,-1,13,-1,-1,-1,-1,-1,-1],"loss_changes":[7.611619E2,3.9232056E1,8.2319885E1,0E0,6.7631683E0,8.5519285E0,7.3461914E0,0E0,5.2930393E0,0E0,0E0,0E0,0E0,0E0,0E0],"parents":[2147483647,0,0,1,1,2,2,4,4,5,5,6,6,8,8],"right_children":[2,4,6,-1,8,10,12,-1,14,-1,-1,-1,-1,-1,-1],"split_conditions":[2.8123736E-1,1.4061868E-1,4.6872893E-1,-5.213156E-3,2.3436446E-1,3.7498313E-1,6.562205E-1,-3.2392005E-3,7.804371E-1,1.3941443E-4,1.8887763E-3,3.6698205E-3,4.838583E-3,-2.0509637E-3,1.3344372E-3],"split_indices":[2,2,2,0,2,2,2,0,1,0,0,0,0,0,0],"split_type":[0,0,0,0,0,0,0,0,0,0,0,0,0,0,0],"sum_hessian":[4.4271887E2,1.9023465E2,2.5248422E2,1.135432E2,7.669146E1,8.615339E1,1.6633083E2,5.0546642E1,2.6144815E1,4.5566677E1,4.058671E1,7.644246E1,8.988837E1,2.1911844E1,4.23297E0],"tree_param":{"num_deleted":"0","num_feature":"12","num_nodes":"15","size_leaf_vector":"1"}},{"base_weights":[3.1299056E-3,-1.4959028E0,1.1495388E0,-5.213156E-3,-8.9740133E-1,1.1126428E0,4.785797E-3,-3.1743248E-3,-9.785689E-4,3.8129503E-1,1.4933773E0,6.500412E-4,2.4107562E-3,3.1144158E-3,4.4320635E-3],"categories":[],"categories_nodes":[],"categories_segments":[],"categories_sizes":[],"default_left":[0,0,0,0,0,0,0,0,0,0,0,0,0,0,0],"id":84,"left_children":[1,3,5,-1,7,9,-1,-1,-1,11,13,-1,-1,-1,-1],"loss_changes":[7.4155865E2,4.309207E1,5.207306E0,0E0,9.87875E0,6.399475E1,0E0,0E0,0E0,5.641082E0,5.907776E0,0E0,0E0,0E0,0E0],"parents":[2147483647,0,0,1,1,2,2,4,4,5,5,9,9,10,10],"right_children":[2,4,6,-1,8,10,-1,-1,-1,12,14,-1,-1,-1,-1],"split_conditions":[2.8123736E-1,1.4061868E-1,9.4451874E-1,-5.213156E-3,2.3436446E-1,4.6872893E-1,4.785797E-3,-3.1743248E-3,-9.785689E-4,4.2185605E-1,5.624747E-1,6.500412E-4,2.4107562E-3,3.1144158E-3,4.4320635E-3],"split_indices":[2,2,0,0,2,2,0,0,0,2,2,0,0,0,0],"split_type":[0,0,0,0,0,0,0,0,0,0,0,0,0,0,0],"sum_hessian":[4.3151395E2,1.8699768E2,2.4451627E2,1.137922E2,7.320548E1,2.2982538E2,1.4690896E1,5.0297646E1,2.2907839E1,7.868344E1,1.5114194E2,6.0506573E1,1.8176872E1,3.361476E1,1.1752717E2],"tree_param":{"num_deleted":"0","num_feature":"12","num_nodes":"15","size_leaf_vector":"1"}},{"base_weights":[2.3128005E-2,-1.687232E0,2.70615E-3,-5.213156E-3,-3.4369458E-3],"categories":[],"categories_nodes":[],"categories_segments":[],"categories_sizes":[],"default_left":[0,0,0,0,0],"id":85,"left_children":[1,3,-1,-1,-1],"loss_changes":[7.055817E2,1.3414917E1,0E0,0E0,0E0],"parents":[2147483647,0,0,1,1],"right_children":[2,4,-1,-1,-1],"split_conditions":[2.3436446E-1,1.4061868E-1,2.70615E-3,-5.213156E-3,-3.4369458E-3],"split_indices":[2,2,0,0,0],"split_type":[0,0,0,0,0],"sum_hessian":[4.3275894E2,1.548769E2,2.7788205E2,1.0806524E2,4.681167E1],"tree_param":{"num_deleted":"0","num_feature":"12","num_nodes":"5","size_leaf_vector":"1"}},{"base_weights":[4.175879E-2,-2.1030562E-1,1.363799E-1,-4.664097E-3,1.0288383E0,1.1063303E-3,5.4092124E-2,3.225854E-1,4.3067033E-3,-4.5440844E-3,1.0474665E0,1.1032436E-4,4.327619E-3,4.9748656E-4,4.3074475E-3],"categories":[],"categories_nodes":[],"categories_segments":[],"categories_sizes":[],"default_left":[0,0,0,0,0,0,0,0,0,0,0,0,0,0,0],"id":86,"left_children":[1,3,5,-1,7,-1,9,11,-1,-1,13,-1,-1,-1,-1],"loss_changes":[1.0618504E1,2.2171783E2,6.9997683E0,0E0,2.4467926E1,0E0,4.1472562E2,9.856875E0,0E0,0E0,6.833176E1,0E0,0E0,0E0,0E0],"parents":[2147483647,0,0,1,1,2,2,4,4,6,6,7,7,10,10],"right_children":[2,4,6,-1,8,-1,10,12,-1,-1,14,-1,-1,-1,-1],"split_conditions":[3.552754E-1,2.8123736E-1,4.720367E-1,-4.664097E-3,5.156018E-1,1.1063303E-3,2.3436446E-1,7.2021645E-1,4.3067033E-3,-4.5440844E-3,4.6872893E-1,1.1032436E-4,4.327619E-3,4.9748656E-4,4.3074475E-3],"split_indices":[1,2,1,0,2,0,2,0,0,0,2,0,0,0,0],"split_type":[0,0,0,0,0,0,0,0,0,0,0,0,0,0,0],"sum_hessian":[4.4520886E2,1.2151114E2,3.2369772E2,5.5526608E1,6.5984535E1,7.718945E1,2.4650826E2,2.81368E1,3.7847733E1,9.1133354E1,1.5537491E2,2.2907839E1,5.228963E0,5.7269596E1,9.810531E1],"tree_param":{"num_deleted":"0","num_feature":"12","num_nodes":"15","size_leaf_vector":"1"}},{"base_weights":[4.7827335E-3,-1.4938409E0,1.1321462E0,-4.9680714E-3,-1.9069437E-3,1.543201E-4,1.5001814E0,3.0185424E-3,4.6244515E-3],"categories":[],"categories_nodes":[],"categories_segments":[],"categories_sizes":[],"default_left":[0,0,0,0,0,0,0,0,0],"id":87,"left_children":[1,3,5,-1,-1,-1,7,-1,-1],"loss_changes":[7.3198486E2,4.4764313E1,9.795703E1,0E0,0E0,0E0,1.2751129E1,0E0,0E0],"parents":[2147483647,0,0,1,1,2,2,6,6],"right_children":[2,4,6,-1,-1,-1,8,-1,-1],"split_conditions":[2.8123736E-1,1.8749157E-1,4.2185605E-1,-4.9680714E-3,-1.9069437E-3,1.543201E-4,5.624747E-1,3.0185424E-3,4.6244515E-3],"split_indices":[2,2,2,0,0,0,2,0,0],"split_type":[0,0,0,0,0,0,0,0,0],"sum_hessian":[4.3325693E2,1.8600168E2,2.4725525E2,1.3570404E2,5.0297646E1,6.2996555E1,1.842587E2,5.3534622E1,1.3072408E2],"tree_param":{"num_deleted":"0","num_feature":"12","num_nodes":"9","size_leaf_vector":"1"}},{"base_weights":[-2.087328E-2,-1.529198E0,1.1341501E0,-5.213156E-3,-1.0015937E0,3.348409E-1,4.327627E-3,-3.4791941E-3,-1.4681752E-3,1.9684107E-4,1.7024999E-3],"categories":[],"categories_nodes":[],"categories_segments":[],"categories_sizes":[],"default_left":[0,0,0,0,0,0,0,0,0,0,0],"id":88,"left_children":[1,3,5,-1,7,9,-1,-1,-1,-1,-1],"loss_changes":[7.652099E2,3.5349487E1,8.495514E1,0E0,9.121986E0,6.387867E0,0E0,0E0,0E0,0E0,0E0],"parents":[2147483647,0,0,1,1,2,2,4,4,5,5],"right_children":[2,4,6,-1,8,10,-1,-1,-1,-1,-1],"split_conditions":[2.8123736E-1,1.4061868E-1,4.6872893E-1,-5.213156E-3,2.3436446E-1,3.7498313E-1,4.327627E-3,-3.4791941E-3,-1.4681752E-3,1.9684107E-4,1.7024999E-3],"split_indices":[2,2,2,0,2,2,0,0,0,0,0],"split_type":[0,0,0,0,0,0,0,0,0,0,0],"sum_hessian":[4.3923288E2,1.9048366E2,2.4874924E2,1.1429019E2,7.619346E1,8.665139E1,1.6209785E2,4.955065E1,2.664281E1,4.4570686E1,4.2080704E1],"tree_param":{"num_deleted":"0","num_feature":"12","num_nodes":"11","size_leaf_vector":"1"}},{"base_weights":[-7.055913E-3,-4.144819E-3,3.0834468E-3],"categories":[],"categories_nodes":[],"categories_segments":[],"categories_sizes":[],"default_left":[0,0,0],"id":89,"left_children":[1,-1,-1],"loss_changes":[7.452161E2,0E0,0E0],"parents":[2147483647,0,0],"right_children":[2,-1,-1],"split_conditions":[2.8123736E-1,-4.144819E-3,3.0834468E-3],"split_indices":[2,0,0],"split_type":[0,0,0],"sum_hessian":[4.4720084E2,1.9197765E2,2.5522319E2],"tree_param":{"num_deleted":"0","num_feature":"12","num_nodes":"3","size_leaf_vector":"1"}},{"base_weights":[-3.5278812E-2,-1.4891204E0,1.081627E0,-1.7763485E0,-1.8683985E-3,8.174253E-4,1.4908975E0,-5.213156E-3,-3.7224076E-3,9.9584097E-1,4.4999416E-3,1.9680778E-3,4.294496E-3],"categories":[],"categories_nodes":[],"categories_segments":[],"categories_sizes":[],"default_left":[0,0,0,0,0,0,0,0,0,0,0,0,0],"id":90,"left_children":[1,3,5,7,-1,-1,9,-1,-1,11,-1,-1,-1],"loss_changes":[7.249536E2,4.5406097E1,8.129266E1,6.499176E0,0E0,0E0,1.091098E1,0E0,0E0,5.5542107E0,0E0,0E0,0E0],"parents":[2147483647,0,0,1,1,2,2,3,3,6,6,9,9],"right_children":[2,4,6,8,-1,-1,10,-1,-1,12,-1,-1,-1],"split_conditions":[2.8123736E-1,1.8749157E-1,4.6872893E-1,1.4061868E-1,-1.8683985E-3,8.174253E-4,5.624747E-1,-5.213156E-3,-3.7224076E-3,6.6765964E-1,4.4999416E-3,1.9680778E-3,4.294496E-3],"split_indices":[2,2,2,2,0,0,2,0,0,1,0,0,0],"split_type":[0,0,0,0,0,0,0,0,0,0,0,0,0],"sum_hessian":[4.4645386E2,1.9396964E2,2.5248422E2,1.4342299E2,5.0546642E1,8.640239E1,1.6608183E2,1.1553519E2,2.7887802E1,3.5108753E1,1.3097307E2,2.3156836E1,1.1951916E1],"tree_param":{"num_deleted":"0","num_feature":"12","num_nodes":"13","size_leaf_vector":"1"}},{"base_weights":[1.9127809E-2,-1.4640206E0,1.1626698E0,-5.213156E-3,-8.541662E-1,7.262642E-4,1.4731048E0,-3.1088039E-3,-9.87531E-4,3.0319649E-3,4.521021E-3],"categories":[],"categories_nodes":[],"categories_segments":[],"categories_sizes":[],"default_left":[0,0,0,0,0,0,0,0,0,0,0],"id":91,"left_children":[1,3,5,-1,7,-1,9,-1,-1,-1,-1],"loss_changes":[7.382007E2,4.8178467E1,6.871167E1,0E0,1.0246986E1,0E0,1.0955963E1,0E0,0E0,0E0,0E0],"parents":[2147483647,0,0,1,1,2,2,4,4,6,6],"right_children":[2,4,6,-1,8,-1,10,-1,-1,-1,-1],"split_conditions":[2.8123736E-1,1.4061868E-1,4.2185605E-1,-5.213156E-3,2.3436446E-1,7.262642E-4,5.624747E-1,-3.1088039E-3,-9.87531E-4,3.0319649E-3,4.521021E-3],"split_indices":[2,2,2,0,2,0,2,0,0,0,0],"split_type":[0,0,0,0,0,0,0,0,0,0,0],"sum_hessian":[4.3524893E2,1.8948766E2,2.4576126E2,1.125472E2,7.694045E1,6.2996555E1,1.8276471E2,5.0048645E1,2.689181E1,5.378362E1,1.289811E2],"tree_param":{"num_deleted":"0","num_feature":"12","num_nodes":"11","size_leaf_vector":"1"}},{"base_weights":[1.2758557E-2],"categories":[],"categories_nodes":[],"categories_segments":[],"categories_sizes":[],"default_left":[0],"id":92,"left_children":[-1],"loss_changes":[0E0],"parents":[2147483647],"right_children":[-1],"split_conditions":[3.5361336E-5],"split_indices":[0],"split_type":[0],"sum_hessian":[4.372409E2],"tree_param":{"num_deleted":"0","num_feature":"12","num_nodes":"1","size_leaf_vector":"1"}},{"base_weights":[1.9970106E-2,-1.5073442E0,1.1231982E0,-5.213156E-3,-9.392297E-1,4.3994572E-4,4.0087616E-3,-3.1840827E-3,-1.4649907E-3],"categories":[],"categories_nodes":[],"categories_segments":[],"categories_sizes":[],"default_left":[0,0,0,0,0,0,0,0,0],"id":93,"left_children":[1,3,5,-1,7,-1,-1,-1,-1],"loss_changes":[7.3128625E2,3.8631775E1,7.8543915E1,0E0,6.2154045E0,0E0,0E0,0E0,0E0],"parents":[2147483647,0,0,1,1,2,2,4,4],"right_children":[2,4,6,-1,8,-1,-1,-1,-1],"split_conditions":[2.8123736E-1,1.4061868E-1,4.2185605E-1,-5.213156E-3,2.3436446E-1,4.3994572E-4,4.0087616E-3,-3.1840827E-3,-1.4649907E-3],"split_indices":[2,2,2,0,2,0,0,0,0],"split_type":[0,0,0,0,0,0,0,0,0],"sum_hessian":[4.3400394E2,1.8201772E2,2.5198622E2,1.0980822E2,7.220949E1,6.3245552E1,1.8874066E2,4.7807663E1,2.4401827E1],"tree_param":{"num_deleted":"0","num_feature":"12","num_nodes":"9","size_leaf_vector":"1"}},{"base_weights":[3.5784613E-2,-4.075466E-3,1.1123035E0,3.48931E-1,1.5048298E0,1.5815692E-4,6.407981E-1,2.9840274E-3,4.454248E-3,1.0604287E0,3.4580997E-1,1.2499535E-3,4.2481166E-3,1.918876E-1,5.917728E-3,-3.8217728E-3,9.4158406E-4],"categories":[],"categories_nodes":[],"categories_segments":[],"categories_sizes":[],"default_left":[0,0,0,0,0,0,0,0,0,0,0,0,0,0,0,0,0],"id":94,"left_children":[1,-1,3,5,7,-1,9,-1,-1,11,13,-1,-1,15,-1,-1,-1],"loss_changes":[7.013104E2,0E0,7.558072E1,7.2966776E0,7.2956543E0,0E0,5.30147E0,0E0,0E0,5.0887985E0,6.926465E0,0E0,0E0,5.377696E0,0E0,0E0,0E0],"parents":[2147483647,0,0,2,2,3,3,4,4,6,6,9,9,10,10,13,13],"right_children":[2,-1,4,6,8,-1,10,-1,-1,12,14,-1,-1,16,-1,-1,-1],"split_conditions":[2.8123736E-1,-4.075466E-3,4.6872893E-1,3.7498313E-1,5.624747E-1,1.5815692E-4,4.270111E-1,2.9840274E-3,4.454248E-3,1E0,9.4451874E-1,1.2499535E-3,4.2481166E-3,4.6924174E-1,5.917728E-3,-3.8217728E-3,9.4158406E-4],"split_indices":[2,0,2,2,2,0,1,0,0,11,0,0,0,1,0,0,0],"split_type":[0,0,0,0,0,0,0,0,0,0,0,0,0,0,0,0,0],"sum_hessian":[4.3250995E2,1.8027472E2,2.5223521E2,8.5655396E1,1.6657982E2,4.2827698E1,4.2827698E1,3.2120773E1,1.3445905E2,1.7678875E1,2.5148823E1,7.7189455E0,9.959929E0,2.3156836E1,1.9919859E0,1.9919859E0,2.116485E1],"tree_param":{"num_deleted":"0","num_feature":"12","num_nodes":"17","size_leaf_vector":"1"}},{"base_weights":[4.5502782E-2,-1.6669105E0,2.8565056E-3,-5.213156E-3,-3.3396354E-3],"categories":[],"categories_nodes":[],"categories_segments":[],"categories_sizes":[],"default_left":[0,0,0,0,0],"id":95,"left_children":[1,3,-1,-1,-1],"loss_changes":[7.3383E2,1.570639E1,0E0,0E0,0E0],"parents":[2147483647,0,0,1,1],"right_children":[2,4,-1,-1,-1],"split_conditions":[2.3436446E-1,1.4061868E-1,2.8565056E-3,-5.213156E-3,-3.3396354E-3],"split_indices":[2,2,0,0,0],"split_type":[0,0,0,0,0],"sum_hessian":[4.3499994E2,1.5886087E2,2.7613904E2,1.0856323E2,5.0297646E1],"tree_param":{"num_deleted":"0","num_feature":"12","num_nodes":"5","size_leaf_vector":"1"}},{"base_weights":[-8.2747E-3],"categories":[],"categories_nodes":[],"categories_segments":[],"categories_sizes":[],"default_left":[0],"id":96,"left_children":[-1],"loss_changes":[0E0],"parents":[2147483647],"right_children":[-1],"split_conditions":[-2.2933975E-5],"split_indices":[0],"split_type":[0],"sum_hessian":[4.394819E2],"tree_param":{"num_deleted":"0","num_feature":"12","num_nodes":"1","size_leaf_vector":"1"}},{"base_weights":[-2.3323158E-3,-1.4914643E0,1.1557194E0,-5.213156E-3,-9.1757244E-1,4.1231272E-1,4.2547067E-3,-3.2773444E-3,-4.3655E-1,6.369267E-1,1.2711196E-1,-3.1261058E-3,-1.6674836E-1,8.482323E-4,2.7720635E-3,-2.096497E-3,8.34348E-4,3.135019E-3,-1.0788161E-3],"categories":[],"categories_nodes":[],"categories_segments":[],"categories_sizes":[],"default_left":[0,0,0,0,0,0,0,0,0,0,0,0,0,0,0,0,0,0,0],"id":97,"left_children":[1,3,5,-1,7,9,-1,-1,11,13,15,-1,17,-1,-1,-1,-1,-1,-1],"loss_changes":[7.793528E2,4.4189667E1,7.170468E1,0E0,1.018512E1,5.503042E0,0E0,0E0,5.2948475E0,5.7760086E0,5.816055E0,0E0,5.896086E0,0E0,0E0,0E0,0E0,0E0,0E0],"parents":[2147483647,0,0,1,1,2,2,4,4,5,5,8,8,9,9,10,10,12,12],"right_children":[2,4,6,-1,8,10,-1,-1,12,14,16,-1,18,-1,-1,-1,-1,-1,-1],"split_conditions":[2.8123736E-1,1.4061868E-1,4.6872893E-1,-5.213156E-3,2.3436446E-1,4.972696E-1,4.2547067E-3,-3.2773444E-3,3.7180197E-1,3.4493604E-1,5.495081E-1,-3.1261058E-3,4.400935E-1,8.482323E-4,2.7720635E-3,-2.096497E-3,8.34348E-4,3.135019E-3,-1.0788161E-3],"split_indices":[2,2,2,0,2,1,0,0,1,1,1,0,1,0,0,0,0,0,0],"split_type":[0,0,0,0,0,0,0,0,0,0,0,0,0,0,0,0,0,0,0],"sum_hessian":[4.519318E2,1.977046E2,2.542272E2,1.1777617E2,7.992844E1,8.5904396E1,1.6832281E2,5.1542637E1,2.83858E1,4.805666E1,3.7847733E1,7.9679437E0,2.0417856E1,2.5148823E1,2.2907839E1,6.224956E0,3.1622776E1,2.987979E0,1.7429876E1],"tree_param":{"num_deleted":"0","num_feature":"12","num_nodes":"19","size_leaf_vector":"1"}},{"base_weights":[2.9270975E-3],"categories":[],"categories_nodes":[],"categories_segments":[],"categories_sizes":[],"default_left":[0],"id":98,"left_children":[-1],"loss_changes":[0E0],"parents":[2147483647],"right_children":[-1],"split_conditions":[8.112679E-6],"split_indices":[0],"split_type":[0],"sum_hessian":[4.26783E2],"tree_param":{"num_deleted":"0","num_feature":"12","num_nodes":"1","size_leaf_vector":"1"}},{"base_weights":[-1.5049386E-3,-1.4956849E0,1.1683211E0,-1.6905689E0,-8.44012E-4,3.2861796E-4,1.5030459E0,-5.213156E-3,-3.4964473E-3,3.12255E-3,4.618429E-3],"categories":[],"categories_nodes":[],"categories_segments":[],"categories_sizes":[],"default_left":[0,0,0,0,0,0,0,0,0,0,0],"id":99,"left_children":[1,3,5,7,-1,-1,9,-1,-1,-1,-1],"loss_changes":[7.542565E2,4.3987335E1,8.504288E1,1.3300018E1,0E0,0E0,1.128064E1,0E0,0E0,0E0,0E0],"parents":[2147483647,0,0,1,1,2,2,3,3,6,6],"right_children":[2,4,6,8,-1,-1,10,-1,-1,-1,-1],"split_conditions":[2.8123736E-1,2.3436446E-1,4.2185605E-1,1.4061868E-1,-8.44012E-4,3.2861796E-4,5.624747E-1,-5.213156E-3,-3.4964473E-3,3.12255E-3,4.618429E-3],"split_indices":[2,2,2,2,0,0,2,0,0,0,0],"split_type":[0,0,0,0,0,0,0,0,0,0,0],"sum_hessian":[4.3151395E2,1.8948766E2,2.4202629E2,1.6284485E2,2.664281E1,5.8514587E1,1.835117E2,1.127962E2,5.0048645E1,5.5526608E1,1.2798509E2],"tree_param":{"num_deleted":"0","num_feature":"12","num_nodes":"11","size_leaf_vector":"1"}}]},"name":"gbtree"},"learner_model_param":{"base_score":"[4.6834937E-1]","boost_from_average":"1","num_class":"0","num_feature":"12","num_target":"1"},"objective":{"name":"binary:logistic","reg_loss_param":{"scale_pos_weight":"1"}}},"version":[3,1,2]}